[array([[[[-4.80745919e-02, -1.42991878e-02, -1.89228833e-01,
          -1.10773221e-01, -1.38669237e-01, -1.19844697e-01,
          -4.61816974e-02, -7.92393684e-02, -6.39580488e-02,
          -3.32340002e-02,  2.15840247e-02, -1.98421732e-01,
          -4.14921083e-02, -4.74949600e-03,  4.92344350e-02,
          -7.34158531e-02, -8.35916996e-02, -5.45863211e-02,
          -2.78785676e-01,  1.48377763e-02, -1.61854342e-01,
           6.50307536e-02, -1.57074645e-01, -1.07035749e-01,
          -1.07351847e-01, -3.68602313e-02, -1.13072455e-01,
           4.82922383e-02,  1.65019073e-02, -7.15057403e-02,
          -7.28215277e-03,  8.09906423e-02],
         [-4.06815596e-02, -5.64936325e-02, -6.92469701e-02,
          -7.62359947e-02,  1.08700693e-02, -5.03355801e-01,
          -2.68965751e-01, -1.62368268e-01, -1.54610962e-01,
          -6.90788403e-02, -5.40987961e-02, -1.89914078e-01,
           2.82981694e-02, -6.93674162e-02, -3.10553342e-01,
           2.95891501e-02,  2.01090109e-02, -8.18511546e-02,
          -2.78731763e-01, -1.59712438e-03,  4.19138491e-01,
          -1.80525854e-01,  3.78052771e-01,  1.22496083e-01,
           2.36486658e-01,  2.44240895e-01,  3.73582765e-02,
          -7.94543326e-02, -2.29510486e-01, -3.63146886e-02,
          -9.19859782e-02,  4.31937277e-02],
         [-8.09242076e-04, -7.08356779e-03, -2.57860631e-01,
          -3.61427516e-02,  3.90236452e-02,  2.47454822e-01,
          -8.42757002e-02,  6.52647465e-02,  2.63365418e-01,
          -5.36600649e-02, -6.60437644e-02, -3.31454910e-02,
          -6.65731821e-03, -1.42066292e-02, -1.07744865e-01,
          -3.13032568e-02,  2.21602358e-02,  1.50675505e-01,
           1.05192550e-01, -8.00596103e-02, -8.96108449e-02,
          -6.62098303e-02,  2.80742258e-01,  1.27987042e-01,
           7.76382685e-02, -6.85046166e-02, -6.93264902e-02,
           4.05086845e-01,  2.74080276e-01, -5.81086148e-03,
           1.28748873e-02,  3.81034911e-01],
         [-7.11449608e-02, -9.61675495e-03,  1.49090901e-01,
          -2.59182483e-01, -6.97112903e-02, -7.62242451e-02,
           1.24079779e-01, -1.58506498e-01, -1.24441944e-01,
          -8.10791850e-02, -5.56059778e-02,  1.52970720e-02,
          -6.99330270e-02, -4.53309380e-02, -2.29214668e-01,
           1.14690941e-02,  2.61494070e-02, -6.12474345e-02,
           1.21293418e-01, -1.67243052e-02,  7.61069804e-02,
          -1.78916361e-02,  5.11039346e-02, -2.87374109e-01,
           1.65641204e-01,  1.00476958e-01, -3.03141698e-02,
           9.19640809e-02, -3.44369918e-01,  2.47018933e-02,
          -1.21989325e-02, -1.40545471e-02],
         [ 7.16225477e-03, -4.65344042e-02,  1.62366897e-01,
          -2.33013764e-01, -1.30725875e-02, -2.85953790e-01,
          -2.75577366e-01,  1.05305910e-01, -1.65625401e-02,
           3.77735570e-02,  3.52580361e-02,  1.57034785e-01,
          -8.74129236e-02, -3.83693054e-02,  1.32818162e-01,
          -1.06374361e-02,  1.12184603e-02, -8.49623978e-03,
          -8.60158131e-02, -6.44629681e-03, -3.72582555e-01,
           5.34571148e-02, -2.47237355e-01,  1.96600091e-02,
          -3.36906135e-01,  9.33146030e-02,  5.46927303e-02,
          -1.77854955e-01, -2.34342739e-02,  4.11918387e-04,
           3.11734751e-02, -3.39727283e-01],
         [-1.42438599e-04,  7.20746219e-02,  1.14221707e-01,
          -2.72138089e-01,  1.09852917e-01,  6.58460036e-02,
          -9.49663343e-04,  3.97427827e-02,  1.13444747e-02,
           9.57326498e-03, -4.44518924e-02, -1.45045388e-02,
          -5.42552248e-02, -8.57207030e-02,  1.48191750e-01,
           8.74880701e-03,  2.39856783e-02,  8.21891278e-02,
           1.09713219e-01, -8.06901082e-02, -1.15103051e-02,
           1.16017580e-01, -1.44489616e-01,  1.04014717e-01,
          -1.72408268e-01,  6.57621473e-02, -1.86493266e-02,
           2.47258872e-01,  1.27405331e-01,  1.71153732e-02,
          -4.52332161e-02, -2.03117467e-02],
         [-4.81852554e-02, -1.52241141e-01, -9.07194912e-02,
          -3.49444337e-02,  1.30525604e-01, -3.31877172e-02,
           2.48118043e-01,  4.49108809e-01,  1.34973854e-01,
          -5.17966517e-04, -5.50038181e-02,  1.70547426e-01,
          -2.43160706e-02, -3.74573469e-02, -1.26867324e-01,
           9.72908176e-03, -8.90790299e-03,  3.97057772e-01,
           1.12507008e-01, -5.91469780e-02,  8.32794234e-02,
          -1.43215090e-01,  4.73948300e-01,  1.49005547e-01,
          -2.90686488e-01,  2.20492519e-02, -8.38603228e-02,
           4.32440132e-01,  4.66277033e-01, -5.62724890e-03,
          -3.86390984e-02,  1.80644795e-01],
         [-3.32183810e-03,  3.06236092e-02, -9.87293497e-02,
          -3.40894498e-02, -9.00299996e-02,  2.24565044e-02,
          -3.97095494e-02, -2.91581471e-02,  3.83583084e-02,
           1.59115996e-02, -3.76498289e-02, -5.15237190e-02,
          -2.00923178e-02,  3.70909385e-02,  1.59599215e-01,
          -4.44899984e-02,  3.95200588e-02,  1.89233236e-02,
          -7.80139640e-02,  3.37845832e-02, -9.06884819e-02,
           9.56670344e-02, -6.05605580e-02, -2.39467621e-02,
           1.06680803e-02, -8.97925422e-02, -3.01887630e-03,
          -1.27484128e-01, -8.55470896e-02,  1.11573674e-02,
           9.18894820e-03, -2.37853006e-02],
         [-1.57731716e-02, -1.24374233e-01, -2.31372669e-01,
          -1.26181886e-01, -5.18428013e-02, -1.17873875e-02,
           5.05190641e-02,  2.56847858e-01,  7.04815537e-02,
           4.65890728e-02,  1.94560513e-02, -2.59080268e-02,
           2.06013545e-02, -4.23983149e-02, -1.16160363e-02,
           7.35003408e-03,  4.02760226e-03, -1.07630216e-01,
           8.97997990e-02, -8.28076005e-02, -3.27400357e-01,
          -3.92954759e-02, -5.54599334e-03, -9.62999463e-02,
           1.23400673e-01, -3.59254959e-03, -6.69128746e-02,
           1.35742337e-01,  3.93066630e-02,  7.82572571e-03,
           1.33183401e-03, -3.01290989e-01],
         [-4.11473215e-02, -5.09081110e-02,  1.46016508e-01,
          -1.36869609e-01, -2.42594361e-01, -5.03731132e-01,
           1.26566827e-01, -1.46520615e-01, -1.94078386e-01,
           4.38533463e-02,  6.52278773e-03,  1.15762971e-01,
          -1.27580264e-04, -8.48705992e-02,  7.89867118e-02,
           6.19946455e-04, -7.60540962e-02,  7.13507906e-02,
          -1.95559207e-02,  1.21628856e-02, -1.87497199e-01,
          -7.32585862e-02, -6.62149638e-02, -1.99314862e-01,
           2.45704174e-01,  1.36591583e-01, -2.54807267e-02,
          -3.65476638e-01, -6.65679574e-02, -4.25243527e-02,
          -4.60201092e-02, -2.79303253e-01],
         [ 3.38476337e-02,  3.09925787e-02, -3.93636823e-02,
           3.08114626e-02, -5.77510707e-02, -2.63325535e-02,
          -1.99627102e-04,  4.44285646e-02,  5.67187667e-02,
           2.41644271e-02, -3.74134891e-02, -5.53013198e-02,
           5.71441911e-02,  5.04506193e-02,  2.82488279e-02,
           3.51777300e-02,  2.22480334e-02,  3.98234949e-02,
           1.62413474e-02,  5.26591726e-02,  2.13798992e-02,
          -5.75068891e-02,  2.84435228e-02,  3.16163078e-02,
          -4.34087217e-02, -4.19832282e-02,  1.14105307e-02,
          -1.39747588e-02, -5.75343240e-03, -7.29944929e-03,
           2.93115675e-02, -2.67927945e-02],
         [-3.06186266e-02,  2.69304011e-02,  7.46170208e-02,
          -1.41673246e-02,  4.67678681e-02, -1.36280144e-02,
          -6.55087605e-02,  3.40924077e-02, -4.08674590e-02,
           3.12260985e-02,  3.40586109e-03, -5.55108525e-02,
          -6.24670386e-02, -5.88127412e-02, -1.90888271e-02,
           1.63773969e-02, -1.33479768e-02, -1.23501383e-02,
          -5.14622293e-02, -2.71558147e-02, -8.42240006e-02,
           8.19274317e-03, -7.80725433e-03,  3.02311927e-02,
           8.66007642e-04, -7.21489415e-02, -1.19935730e-02,
           6.70837983e-02,  1.18043497e-01, -6.64451644e-02,
           1.64647363e-02, -1.14239253e-01],
         [ 3.28616239e-02, -7.47027397e-02,  2.40702301e-01,
          -2.62022793e-01,  3.74116339e-02,  8.76830757e-01,
           6.99771866e-02,  1.54807672e-01,  9.77005139e-02,
           1.22323753e-02, -3.35437581e-02,  2.43672520e-01,
          -1.29022580e-02, -2.46158000e-02, -9.80413407e-02,
           1.78514514e-02, -1.21252285e-02,  3.88924539e-01,
           1.31556243e-01,  2.67055072e-02,  4.10662025e-01,
          -6.86189681e-02,  4.62853983e-02,  2.21842796e-01,
           2.03973979e-01,  3.25994432e-01, -2.12653000e-02,
           3.93610567e-01,  2.41795480e-02, -5.91729321e-02,
          -7.09938854e-02,  2.02361904e-02],
         [ 6.53602241e-04, -2.40683675e-01, -1.59675866e-01,
          -9.43555161e-02, -3.06470215e-01,  1.29644260e-01,
          -1.96532533e-01, -2.30385229e-01, -1.26906499e-01,
          -1.03179021e-02,  1.50317987e-02, -5.61996281e-01,
           1.13731371e-02, -3.80152352e-02, -2.75808066e-01,
           4.67782887e-03,  5.11839055e-04,  5.10836355e-02,
          -1.68656990e-01,  1.33380406e-02,  5.07564433e-02,
           3.96143720e-02, -1.43164068e-01, -2.31433138e-01,
          -2.73903519e-01,  4.95082214e-02, -6.41733268e-03,
           1.13730341e-01, -2.74247348e-01, -5.40069267e-02,
          -1.14367837e-02, -1.07820304e-02],
         [ 1.52086718e-02,  9.12677147e-04, -7.89857134e-02,
          -1.05402686e-01, -6.25075633e-03, -1.41739771e-01,
          -4.93207499e-02,  5.09062074e-02, -2.23238289e-01,
           2.39891242e-02, -2.74616666e-02,  4.58434075e-02,
           2.70221010e-02, -9.94961057e-03,  7.43979514e-02,
          -5.42418435e-02,  1.23344157e-02, -3.65392528e-02,
          -6.31681457e-02, -6.94103092e-02,  5.56849577e-02,
           1.59707084e-01, -1.85974628e-01, -2.29858935e-01,
          -1.90377519e-01,  1.22392245e-01, -2.74870382e-03,
           2.27104813e-01,  1.53803945e-01,  2.85012517e-02,
           1.80965047e-02, -1.12644255e-01],
         [-7.28535652e-02, -2.35413358e-01, -7.40442201e-02,
          -2.02995285e-01,  1.08757638e-03,  9.22718123e-02,
          -3.30219120e-01, -3.15008253e-01, -4.02908415e-01,
          -5.53051010e-02, -6.07768968e-02, -5.47868729e-01,
           2.20453944e-02, -1.59825981e-01, -4.24684405e-01,
          -6.25073165e-02, -2.62753740e-02, -1.00931488e-01,
          -4.44825947e-01,  3.98805887e-02, -1.66384339e-01,
          -6.72296956e-02, -3.75115573e-01,  2.08471045e-01,
          -4.32990253e-01, -3.18830013e-02, -8.92080143e-02,
          -3.34753492e-03, -2.07652047e-01, -5.15877418e-02,
          -2.25195922e-02, -1.05555892e-01],
         [-2.50321627e-03, -4.46035638e-02, -2.72245816e-04,
           4.92473654e-02,  1.59522519e-03, -2.93703284e-02,
          -3.89745869e-02, -3.32957879e-02,  4.93833162e-02,
          -3.97921447e-03,  1.96337998e-02,  4.67933528e-02,
           3.30245681e-02, -5.20658270e-02, -1.12197492e-02,
           1.36540690e-02, -5.53080700e-02, -4.00001481e-02,
          -7.01540499e-04,  2.23963894e-02, -1.92395505e-02,
           5.04381321e-02, -6.04573190e-02,  4.33649570e-02,
           4.03414182e-02, -4.40141186e-02,  1.38010792e-02,
           2.81708175e-03, -4.72717173e-02,  1.25022493e-02,
          -3.11194770e-02, -3.85733396e-02],
         [-1.97481532e-02, -9.58784223e-02, -2.35327274e-01,
          -2.41797324e-02,  2.47760396e-02,  2.79446095e-01,
           1.17932208e-01,  3.49492878e-01,  2.79098839e-01,
           5.62589522e-03, -5.81526756e-02,  9.43503063e-03,
           2.43615657e-02, -7.86828920e-02, -3.04789543e-01,
           8.25959910e-03,  7.60594849e-03, -1.82624400e-01,
           1.52650535e-01,  2.91600674e-02,  3.17795612e-02,
          -1.65247738e-01,  4.56146628e-01, -9.49225724e-02,
           3.44586045e-01, -4.75125052e-02, -3.20623443e-02,
           6.12376928e-01,  2.93684095e-01, -2.16827244e-02,
           1.58912819e-02,  2.20343143e-01],
         [-5.78109659e-02,  2.18728818e-02, -2.29628924e-02,
           3.97182629e-03,  1.61118228e-02, -7.54505396e-03,
           4.98880371e-02,  7.66245462e-03,  1.52281784e-02,
          -2.99151726e-02,  5.65295294e-02, -8.02364871e-02,
          -2.78417394e-02,  3.24954204e-02, -3.65582964e-04,
          -5.04864305e-02,  4.17780019e-02,  5.58341704e-02,
           2.11062538e-03, -5.00641540e-02,  4.22093794e-02,
           5.86556531e-02,  4.71844040e-02, -5.56219891e-02,
           7.61921331e-02, -5.06830029e-02, -2.98581161e-02,
           1.77112818e-02, -4.71449755e-02,  1.82207860e-02,
           1.86105855e-02, -1.08822100e-02],
         [-4.49992381e-02, -1.10733539e-01,  1.66983664e-01,
          -4.62363660e-02, -1.47661492e-01,  6.62334412e-02,
           7.01217949e-02,  2.44847015e-02, -1.13953456e-01,
          -5.79684675e-02,  2.64624991e-02,  1.07039325e-01,
          -9.19398591e-02, -1.05764076e-01,  7.52191385e-03,
          -4.29186504e-03,  8.78522545e-03,  9.00474191e-02,
           8.54872093e-02, -4.81361486e-02,  8.85383487e-02,
           6.62212297e-02,  9.68432799e-02,  1.41453780e-02,
           2.70986378e-01,  9.13803428e-02, -3.49545367e-02,
          -1.89560995e-01, -1.19296379e-01, -1.00109505e-03,
           9.41418670e-03, -2.50478894e-01],
         [-5.78500144e-02, -7.52480999e-02,  5.08300737e-02,
          -1.95908085e-01, -1.58598483e-01, -5.94338775e-01,
          -2.70884007e-01, -1.17756136e-01, -1.61205456e-01,
          -6.66440800e-02, -7.89801008e-04, -9.99479443e-02,
          -3.16647142e-02, -9.09887031e-02,  7.86812156e-02,
           5.25063695e-03, -3.75479758e-02, -1.33857678e-03,
           1.63524613e-01, -7.41452202e-02,  4.56737913e-02,
          -1.38901426e-02, -1.60324182e-02, -2.15184063e-01,
           9.24586356e-02, -6.81620911e-02,  6.58082366e-02,
          -4.54049706e-01, -1.04664557e-01, -3.98959555e-02,
           9.53330006e-03,  2.99425926e-02],
         [ 3.83612476e-02,  3.64398696e-02, -2.24923477e-01,
          -1.15596816e-01, -7.07379058e-02, -2.63970762e-01,
          -1.53614864e-01,  2.38754168e-01, -2.97780167e-02,
           2.86788624e-02, -6.46539554e-02, -5.81178144e-02,
          -3.28516811e-02, -2.75007952e-02, -2.66769379e-01,
           7.97005091e-03, -7.60314465e-02, -1.52834073e-01,
           9.31540132e-03,  1.42144375e-02, -4.18301195e-01,
           2.22849157e-02, -1.96899146e-01, -1.16192497e-01,
          -4.09884825e-02,  8.79740790e-02,  1.84524059e-02,
           6.50529414e-02,  1.12000935e-01,  1.83956884e-02,
           4.25942615e-03, -3.58031213e-01],
         [-1.98483616e-02, -1.45335436e-01,  1.79892436e-01,
          -1.72396988e-01,  3.55472326e-01,  1.41561404e-01,
           2.94998544e-03,  5.56612201e-02,  9.35830548e-02,
           2.80649960e-02, -4.43806499e-02,  2.96657145e-01,
          -8.96506533e-02, -8.85393098e-02, -2.15460248e-02,
           3.85120884e-02,  2.93402257e-03,  5.33385813e-01,
           8.67021605e-02, -5.35899624e-02,  3.92326027e-01,
          -4.63523939e-02,  4.86674517e-01,  2.41220579e-01,
           1.99789062e-01,  4.57579136e-01,  3.70697528e-02,
           8.59922245e-02,  3.56249273e-01, -1.27526922e-02,
          -1.35284057e-02,  1.93081394e-01],
         [-2.43124738e-02,  7.33982474e-02,  1.08159231e-02,
           5.83348386e-02, -1.77836761e-01, -5.30149601e-03,
           1.40834898e-01, -1.74971789e-01, -3.49844247e-02,
           2.90164836e-02, -4.14746739e-02, -3.24641615e-02,
          -5.28613944e-03, -1.72284886e-03,  8.61517414e-02,
          -5.71313798e-02, -6.58196285e-02,  7.55036622e-02,
          -1.51097402e-01, -7.74384215e-02, -2.45414805e-02,
          -9.67849568e-02, -6.19375855e-02, -2.88101166e-01,
          -4.58748974e-02,  3.35634649e-02, -5.15972730e-03,
          -1.91122279e-01, -6.51781484e-02, -4.66178991e-02,
          -1.02302529e-01,  7.19047785e-02],
         [ 2.32673418e-02, -1.85992811e-02,  1.73794359e-01,
           1.14644680e-03,  2.57514417e-01,  4.42645699e-01,
           2.77663767e-01, -1.56848028e-01, -4.01025563e-02,
          -1.40941143e-02, -5.11223488e-02,  1.94309086e-01,
          -1.34950234e-02, -2.10172194e-03, -1.93703622e-01,
          -4.74158973e-02, -7.27612569e-05, -5.85645474e-02,
           2.26839334e-01, -1.62192751e-02, -5.72034605e-02,
           1.29816206e-02, -2.63783872e-01,  3.87140363e-01,
           6.15315586e-02,  2.35198751e-01, -1.04614332e-01,
           9.40482784e-03,  2.92958021e-01,  2.65039667e-03,
           3.99471819e-02, -8.28130618e-02],
         [ 1.79684330e-02, -1.59274042e-01,  6.57742396e-02,
          -2.57143348e-01,  1.17760219e-01,  2.29344100e-01,
           9.38146114e-02, -2.80811846e-01, -1.76046506e-01,
           7.75617128e-03, -4.36155833e-02,  6.21625893e-02,
           2.28345185e-03, -1.70693435e-02,  4.71123368e-01,
           2.95058154e-02,  3.51550840e-02,  2.93465197e-01,
          -1.03563383e-01, -1.32691571e-02,  1.06276669e-01,
          -5.63100688e-02, -7.16650560e-02,  2.03452498e-01,
           1.78261265e-01,  2.68415064e-01, -1.21848039e-01,
          -2.24511981e-01,  1.24177359e-01, -2.37509739e-02,
          -7.51710683e-02, -5.12137562e-02],
         [-1.57134514e-02, -9.19925701e-03,  1.95407465e-01,
          -1.39626399e-01,  3.66602093e-01,  1.04605518e-01,
          -1.01569399e-01,  8.05276819e-03,  2.45874926e-01,
           2.35565063e-02,  1.52424974e-02,  3.77437085e-01,
          -5.78764379e-02, -4.50630998e-03,  6.02256432e-02,
          -6.27910532e-03,  2.25959737e-02,  7.48911500e-01,
           3.97103608e-01, -1.07806861e-01,  3.44131917e-01,
           5.70300920e-03,  4.52266447e-03,  5.24858952e-01,
           1.46844313e-01,  3.44706804e-01, -2.27878485e-02,
           1.17776476e-01,  2.38541916e-01,  1.67832468e-02,
           2.22506430e-02,  5.44117630e-01],
         [-7.12287426e-03, -3.88080291e-02, -6.68183118e-02,
          -2.44821254e-02, -1.13026267e-02,  3.64493579e-02,
          -5.60567603e-02,  7.90264234e-02,  3.61317508e-02,
          -2.72715054e-02, -5.38061410e-02, -3.49154137e-03,
           5.78674115e-02,  5.77948280e-02,  4.16672602e-02,
          -3.87338549e-02, -5.46537973e-02, -1.83658674e-02,
           1.35235675e-02, -1.22111998e-02,  5.70433168e-03,
           5.75415604e-02,  2.05618367e-02,  4.44475859e-02,
          -9.53439996e-03,  1.52421175e-02, -4.90749553e-02,
          -2.44814567e-02,  4.62319441e-02, -3.04155052e-02,
          -5.46583869e-02,  6.59931526e-02],
         [ 3.72366793e-02,  6.99601695e-02,  9.40412357e-02,
          -6.60067648e-02,  1.62593827e-01, -1.73865065e-01,
          -1.18754350e-01,  1.22005835e-01,  1.18428037e-01,
          -5.02107926e-02, -4.05396409e-02,  1.35282829e-01,
           2.31292453e-02, -1.27536431e-02,  7.12334514e-02,
           2.10510883e-02, -5.25917485e-02,  3.11414927e-01,
          -3.98350321e-02, -6.78672642e-02, -6.34723576e-03,
           1.25063583e-01, -2.26676881e-01,  9.82416049e-03,
          -1.29121900e-01,  1.48940533e-01, -2.58930661e-02,
          -1.17122211e-01,  9.37931985e-03,  3.60725597e-02,
          -6.87452033e-02, -8.61267596e-02],
         [-4.50887531e-02, -8.58904645e-02, -4.11800236e-01,
          -1.61630198e-01, -1.66377679e-01,  1.60100058e-01,
          -3.41152966e-01, -1.15906328e-01,  6.04672451e-03,
          -6.46335185e-02, -5.90997748e-02, -3.59325409e-01,
          -2.45163194e-03, -8.09670463e-02, -3.91082674e-01,
           3.62323336e-02, -6.55342638e-02,  9.20553356e-02,
          -3.23928744e-01, -7.05130994e-02,  5.02636433e-02,
          -2.37148739e-02,  2.08875895e-01, -1.43651605e-01,
          -2.34287918e-01,  1.25028253e-01, -1.21183559e-01,
           3.06736648e-01,  7.35824332e-02, -5.30840084e-02,
           2.08801683e-02,  2.57661223e-01],
         [-2.50103567e-02,  2.82651652e-02, -2.70325005e-01,
          -1.24486677e-01, -1.03975264e-02,  3.80531907e-01,
           3.05414617e-01, -1.03247456e-01,  8.68146345e-02,
           2.24724542e-02, -8.63840580e-02, -4.15066667e-02,
           3.78900468e-02, -7.48099908e-02, -7.42063206e-03,
          -3.87612656e-02, -4.50121006e-03,  2.68284649e-01,
          -4.94123362e-02, -2.38505956e-02, -9.17448103e-02,
           8.34172592e-02,  2.72509813e-01,  1.17516167e-01,
           6.88021556e-02, -1.04843400e-01, -4.02497873e-02,
          -2.02380512e-02,  3.29646826e-01,  2.72811726e-02,
          -7.20285326e-02,  1.75068825e-01],
         [ 5.91078065e-02, -2.91129444e-02,  1.17755216e-02,
          -1.27421334e-01, -1.56147882e-01, -4.19660062e-01,
          -2.19158098e-01,  4.38066386e-03, -9.42149479e-03,
           5.96595369e-03, -2.02771369e-02, -1.15287155e-01,
          -5.22197112e-02, -8.25741142e-03,  4.54028621e-02,
          -4.17198576e-02, -5.07247522e-02,  1.14270315e-01,
          -2.86515743e-01, -2.52390886e-03,  1.17713310e-01,
          -4.79175970e-02,  9.35365409e-02, -2.97934283e-02,
           2.00084411e-02,  1.28168538e-01, -1.12675792e-02,
          -2.70646989e-01, -1.10415295e-01, -1.97742507e-03,
          -3.48543562e-02,  3.77543904e-02]],

        [[ 2.58021001e-02, -8.62642303e-02, -2.16130972e-01,
          -7.06641823e-02,  1.01735303e-02,  2.60478228e-01,
           2.62225624e-02, -1.41074568e-01, -1.82148308e-01,
           3.93726900e-02, -1.34356897e-02,  2.31660709e-01,
           4.36762460e-02, -7.90340677e-02,  1.25333145e-01,
          -4.68729772e-02, -4.18767929e-02, -3.20945501e-01,
          -2.38120556e-01,  2.58479398e-02, -5.61432689e-02,
           1.10906936e-01, -1.66250587e-01, -9.05386508e-02,
          -2.02733174e-01, -6.24155737e-02, -1.48161560e-01,
           9.82909203e-02, -1.04742981e-02, -6.38553724e-02,
           4.05345261e-02,  2.65393168e-01],
         [ 2.05510706e-02, -6.60464540e-02,  1.26535028e-01,
          -7.28231519e-02, -4.15471107e-01,  7.70669878e-02,
           8.51939321e-02, -4.18759018e-01,  3.04606538e-02,
           2.01266278e-02, -1.75884385e-02,  7.39724026e-04,
           2.42115241e-02, -6.68233037e-02, -2.43246719e-01,
           2.38901004e-02, -3.22527215e-02,  9.71198305e-02,
          -4.10524197e-02,  1.82600226e-02,  5.51891565e-01,
          -1.86894536e-01,  1.38176292e-01,  8.31165835e-02,
           1.40760779e-01,  3.14807683e-01, -2.06045900e-02,
          -1.89633951e-01, -3.56894344e-01, -2.32165884e-02,
          -6.29295930e-02, -1.70619071e-01],
         [-5.84445149e-02,  6.43431209e-03,  6.09287769e-02,
          -5.21722063e-02, -1.19787142e-01,  2.35628843e-01,
           3.04148495e-01, -8.12107846e-02,  1.08522162e-01,
          -1.23031745e-02, -2.08055805e-02, -1.66543365e-01,
          -1.00564240e-02,  3.67358588e-02, -2.20176652e-02,
          -1.09490946e-01, -2.51886453e-02, -1.96306318e-01,
          -1.15504511e-01, -1.01050613e-02, -1.49052024e-01,
          -5.63363247e-02,  2.27433726e-01,  5.57271205e-02,
           6.41050115e-02,  8.71334225e-02,  4.03457209e-02,
           1.66577041e-01,  2.87256718e-01, -2.19085608e-02,
          -9.67901498e-02,  1.03041701e-01],
         [ 2.64981575e-02,  8.00902117e-03,  9.35138389e-02,
          -3.66592348e-01,  1.30931027e-02,  1.78785071e-01,
          -2.52908170e-02, -2.46715918e-01,  8.00288990e-02,
          -4.93774414e-02, -6.77658916e-02, -5.47258779e-02,
           8.46145023e-03, -9.11104381e-02, -3.66156876e-01,
          -2.99014971e-02,  1.14444112e-02,  4.63587716e-02,
           1.34850055e-01, -3.63341346e-02,  5.67022003e-02,
          -1.50911480e-01,  1.54416427e-01, -1.19918846e-01,
           4.06771690e-01, -1.03949867e-01, -8.17913786e-02,
           2.33433414e-02, -3.21216762e-01,  6.17584176e-02,
          -1.80807132e-02,  1.33995101e-01],
         [-2.47404748e-03,  1.54699339e-03, -1.87975615e-01,
          -2.71014184e-01,  1.57494634e-01, -4.25990582e-01,
          -1.03071205e-01,  5.04765958e-02, -2.87674785e-01,
          -2.70582475e-02, -2.26091929e-02, -1.25047728e-01,
          -5.67961894e-02, -4.47492786e-02, -4.08094853e-01,
          -2.34731603e-02,  2.17639152e-02, -7.91626945e-02,
           5.64286225e-02,  3.64095382e-02, -1.54962897e-01,
          -1.46262841e-02,  2.14251071e-01,  1.24222830e-01,
           1.71244994e-01,  8.14830288e-02, -5.20350970e-03,
           8.93505290e-02, -2.69810408e-01,  2.01823078e-02,
           1.01028020e-02, -2.22308457e-01],
         [-4.66558374e-02,  2.09240541e-02, -3.33010666e-02,
          -2.02835932e-01,  1.69183180e-01, -2.93502003e-01,
           4.31040153e-02,  1.64955053e-02,  1.72508024e-02,
           3.96800525e-02,  9.48025845e-03,  4.89029801e-03,
          -6.35261610e-02, -2.27908250e-02,  4.41414192e-02,
           9.06428881e-03, -5.89855537e-02, -1.49464875e-01,
          -4.68087375e-01,  3.49773429e-02,  1.14377523e-02,
           1.28765970e-01,  9.77346450e-02, -3.70600894e-02,
          -1.54238954e-01,  1.72219574e-02, -2.22237688e-02,
          -9.54980869e-03,  1.47923335e-01, -6.66130483e-02,
          -2.81424150e-02, -2.49367729e-01],
         [-7.10402033e-04,  2.20345985e-02, -5.03928326e-02,
          -1.53275710e-02,  2.31473595e-02, -3.78298342e-01,
           5.88679790e-01,  2.93824196e-01,  9.82131660e-02,
          -2.20666025e-02,  2.93231793e-02, -1.16124898e-01,
          -4.91969241e-03, -5.95940314e-02,  1.78810820e-01,
          -9.54579469e-03,  8.33088811e-03,  1.27033808e-03,
          -3.91517691e-02, -4.61812876e-02,  9.22451839e-02,
          -1.02813385e-01, -1.31743371e-01,  2.77498756e-02,
          -5.77151775e-01, -2.40430474e-01, -6.87851524e-03,
           1.06164487e-02,  8.93787965e-02,  1.86389051e-02,
           3.82198277e-03, -2.90931970e-01],
         [-4.69819941e-02,  3.09002995e-02,  2.55669723e-03,
           4.65358095e-03, -7.60489851e-02, -6.39096871e-02,
          -3.71018089e-02, -6.30548298e-02, -2.93598901e-02,
          -2.14585178e-02, -3.15057449e-02, -2.84493007e-02,
           4.76234108e-02, -1.26761058e-02,  8.11276808e-02,
          -4.71396372e-02, -1.01970620e-02, -1.06981516e-01,
          -3.41408217e-04,  1.92722380e-02, -1.09638803e-01,
           1.52370865e-02,  3.08641084e-02,  7.90278136e-05,
           4.80828658e-02, -2.98474319e-02,  3.24049741e-02,
          -8.56060088e-02, -8.45356062e-02,  3.63179967e-02,
          -5.32442294e-02, -1.12949675e-02],
         [-3.27301286e-02, -1.10216990e-01, -2.32953861e-01,
          -1.16385572e-01, -1.04515925e-01, -4.49707247e-02,
          -1.60914674e-01, -1.56546891e-01, -5.41901514e-02,
          -5.34404330e-02,  2.94631580e-03, -1.13559060e-01,
          -6.86946735e-02, -1.16717309e-01, -2.87962675e-01,
          -4.02594800e-04, -5.33544496e-02, -2.17496917e-01,
           1.61726266e-01, -8.09033886e-02, -8.99527967e-02,
          -8.63176882e-02,  2.28234276e-01,  1.45624578e-01,
           2.25330040e-01, -6.77659884e-02, -4.51464066e-03,
           4.32650000e-02, -3.06143105e-01, -5.05024046e-02,
          -6.56975294e-03,  1.79232225e-01],
         [-6.31574839e-02, -4.60678004e-02, -9.42767113e-02,
          -2.05832914e-01,  5.41262403e-02, -2.06240222e-01,
           1.03837706e-01,  1.50037080e-01,  2.45839119e-01,
          -6.55747652e-02, -5.36222421e-02, -2.15666682e-01,
           2.83193309e-03, -9.48021561e-02, -4.65378106e-01,
          -1.77935902e-02, -1.03088077e-02,  1.50211230e-01,
          -1.73403174e-01, -7.41530731e-02, -1.83544815e-01,
           1.13734668e-02,  1.88992321e-01, -4.94342558e-02,
           2.84976274e-01, -6.82159290e-02,  2.42364965e-02,
          -3.06837838e-02, -1.29212573e-01, -4.57175188e-02,
           3.98712717e-02, -4.45907526e-02],
         [ 1.83052830e-02, -2.42116451e-02,  1.13030327e-02,
           9.76610556e-03,  2.27759164e-02,  1.52104711e-02,
          -6.38689101e-02, -2.38821004e-02, -5.44584878e-02,
          -1.78507939e-02,  7.87579454e-03,  5.81152402e-02,
           1.13940530e-03,  7.37369433e-03, -4.34053652e-02,
           1.46525968e-02,  5.03886081e-02,  2.10294891e-02,
           5.43719456e-02, -4.72459719e-02, -3.57343741e-02,
           4.55737896e-02,  2.61108801e-02,  5.47150411e-02,
           3.66228670e-02, -3.57806757e-02, -4.84802760e-02,
           3.63635011e-02,  2.01246627e-02,  5.15690856e-02,
          -3.28760929e-02,  1.21327573e-02],
         [ 2.72599161e-02,  4.39849123e-02, -3.77437174e-02,
          -6.19913042e-02,  8.45378116e-02,  4.56411913e-02,
          -2.10098103e-02,  8.18691626e-02, -4.29207869e-02,
          -1.17389327e-02, -1.65446904e-02,  1.23937735e-02,
           2.57486776e-02,  1.47650875e-02, -4.63638976e-02,
          -9.06620920e-02,  3.55073437e-02, -4.02773321e-02,
          -1.14504382e-01, -6.57367408e-02,  4.98401709e-02,
          -6.26246408e-02, -1.55044086e-02,  3.95806925e-03,
          -5.09907678e-03, -1.63741689e-02,  1.12327440e-02,
           5.56750111e-02, -1.91427616e-03, -5.97435273e-02,
           8.66481010e-03, -7.75914565e-02],
         [-6.63563833e-02, -8.89618024e-02, -7.76098669e-02,
          -2.42509708e-01, -4.72741462e-02,  4.02782828e-01,
          -5.92484653e-01, -1.79538161e-01,  1.00092791e-01,
          -2.32567941e-03, -1.88697464e-04,  1.35082513e-01,
          -1.23987645e-02, -7.23408386e-02, -1.84839353e-01,
           5.43561168e-02, -2.34783404e-02, -5.80397286e-02,
           6.63249642e-02, -4.94129099e-02,  2.90906072e-01,
          -1.61784604e-01,  2.90722102e-01, -1.41433552e-01,
           9.42470953e-02,  2.06794530e-01, -1.41708888e-02,
           2.36220658e-01,  1.92444384e-01,  2.40795370e-02,
          -1.07146427e-02,  2.38853902e-01],
         [-3.81342880e-02, -1.87400103e-01, -8.75073597e-02,
          -2.80575901e-02, -8.08506608e-02,  3.12918186e-01,
          -4.05462608e-02, -8.68047029e-03,  9.91798788e-02,
          -5.38802296e-02,  1.39125586e-02,  1.05861209e-01,
          -4.26210612e-02, -8.75145197e-02, -2.31660292e-01,
          -5.18349186e-02,  2.31888946e-02, -8.02066997e-02,
          -9.69426334e-02,  1.93245020e-02,  1.67516530e-01,
          -5.15474007e-02,  1.33130148e-01, -3.26447308e-01,
          -6.94962516e-02,  3.09943706e-01, -8.31174031e-02,
          -1.81253791e-01, -1.62552729e-01,  7.60940509e-03,
          -3.24553289e-02, -3.26478630e-01],
         [-7.82173648e-02,  7.05462918e-02, -1.51653022e-01,
          -1.92444488e-01,  1.70114532e-01, -3.32332432e-01,
           1.62237763e-01, -1.06544025e-01, -9.04222131e-02,
          -1.91777628e-02, -2.06058491e-02, -7.72763491e-02,
           3.28532457e-02, -1.14951484e-01,  2.71064490e-02,
          -8.45320225e-02, -6.73058704e-02, -1.46707028e-01,
          -1.17977843e-01, -1.25452047e-02,  1.10501431e-01,
           3.76321375e-02,  8.08319598e-02, -1.11478828e-01,
          -2.29595423e-01, -6.80273846e-02, -1.64325070e-02,
           7.44959414e-02, -9.26331803e-03, -5.06487787e-02,
           4.46928367e-02, -2.77818680e-01],
         [-7.65040144e-02, -8.61777067e-02, -2.46459424e-01,
          -1.01816967e-01,  8.63670409e-02, -7.17148632e-02,
          -1.12435475e-01, -1.16682842e-01, -1.59665629e-01,
           1.73103288e-02,  1.06761651e-02, -2.81738907e-01,
          -5.29692043e-04, -1.29870415e-01, -1.96915284e-01,
          -1.19751757e-02, -3.51135284e-02, -1.76895335e-01,
          -1.48792565e-01, -6.96737785e-03, -1.29493371e-01,
          -1.98899861e-02,  7.33996704e-02, -3.74387771e-01,
          -3.03742588e-01,  1.29149646e-01, -6.22736663e-02,
          -1.20160878e-01, -3.37956756e-01, -6.52762577e-02,
          -8.02159756e-02, -2.04092711e-01],
         [ 2.23064832e-02,  3.64279449e-02, -1.57406107e-02,
          -4.72178794e-02, -3.58747803e-02, -1.76236145e-02,
          -4.33311053e-02, -4.56298701e-02,  6.07951451e-03,
          -4.61272225e-02,  5.03662368e-03,  2.39886753e-02,
           6.29090145e-03, -6.00968301e-02,  2.68817693e-02,
           4.19212412e-03,  2.81581245e-02,  8.21868307e-04,
          -7.28914700e-03, -7.46294111e-03,  2.47098831e-03,
           5.21942638e-02, -3.20769288e-02, -5.94690777e-02,
           5.34747653e-02, -1.54493013e-02, -2.01713294e-04,
          -3.39736650e-03, -1.52882664e-02, -5.28628752e-03,
           2.84392647e-02,  4.43323143e-02],
         [-2.89931111e-02, -4.05006955e-04,  5.81879839e-02,
          -2.43156068e-02, -2.64657319e-01, -7.87115544e-02,
           3.97404492e-01,  1.03382103e-01,  1.27485752e-01,
          -3.11056077e-02, -1.68704744e-02, -1.46932527e-01,
          -5.31086186e-03,  8.46817065e-03,  3.62000689e-02,
          -5.70413433e-02, -4.20091823e-02, -1.32801503e-01,
          -1.17960021e-01, -5.18672839e-02,  1.40209094e-01,
          -1.08120941e-01,  3.09747905e-01, -1.42756747e-02,
           2.04534188e-01,  1.70574225e-02,  3.87811959e-02,
           1.90844312e-01,  3.31337392e-01,  3.49695310e-02,
          -6.25717118e-02,  1.84503764e-01],
         [-5.98671846e-02, -1.25920735e-02,  8.60673636e-02,
          -4.21085022e-02,  6.09865300e-02, -1.91596001e-02,
           6.57046884e-02, -8.39280337e-02, -3.68319191e-02,
           3.17125507e-02,  1.78572722e-02, -1.11093216e-01,
          -2.27615200e-02,  6.03981577e-02, -1.91574283e-02,
          -1.73187293e-02,  5.37696294e-02,  9.00867060e-02,
          -5.61776869e-02, -3.21662724e-02,  5.07652806e-03,
          -6.49022311e-03,  5.97231835e-02,  4.77265120e-02,
           6.62927553e-02, -1.20430421e-02,  2.75307707e-02,
          -6.84981942e-02,  8.18332541e-04, -6.73347712e-03,
          -4.20818999e-02, -4.29549702e-02],
         [ 1.34764202e-02, -9.97910202e-02,  4.23979722e-02,
          -9.31890681e-02, -6.94340654e-03, -2.26410061e-01,
           9.83822122e-02, -1.27669871e-02,  6.32943958e-02,
           3.07612456e-02,  1.51713155e-02,  1.26989344e-02,
          -2.28018872e-02, -4.63615656e-02, -1.25658482e-01,
          -5.24851792e-02, -2.58248039e-02,  3.91468197e-01,
          -6.82900548e-02,  3.43957581e-02,  1.76663369e-01,
          -1.19651914e-01,  3.77503902e-01,  9.52663049e-02,
           5.91237128e-01,  3.57063897e-02, -1.06135989e-02,
           2.09027678e-01, -3.63969505e-02, -3.91433313e-02,
           7.11037777e-03,  7.82911703e-02],
         [ 1.94669943e-02, -7.08162785e-02,  2.46073748e-03,
          -3.81434709e-01, -2.88512528e-01, -4.58413690e-01,
          -2.08442509e-01, -7.44538680e-02,  4.16215211e-02,
          -5.22188880e-02, -6.99352026e-02, -1.74426809e-01,
          -4.02673073e-02, -7.13647529e-02, -1.38119847e-01,
          -3.91833335e-02, -8.23824108e-03,  5.05287126e-02,
          -1.95516974e-01, -7.71781662e-03, -5.43086678e-02,
          -8.48051459e-02,  1.39773846e-01, -5.64857386e-02,
           2.31797367e-01, -2.44657189e-01,  4.44966890e-02,
          -1.94950297e-01, -2.48081814e-02, -5.50135560e-02,
          -5.18174544e-02, -2.49033958e-01],
         [ 1.42390225e-02, -1.57426298e-02, -2.27985233e-01,
          -1.13674462e-01,  9.35683176e-02, -2.65631557e-01,
          -1.51464760e-01, -7.51353353e-02, -3.32312018e-01,
          -5.10130450e-03, -4.34315093e-02, -1.85850933e-01,
          -8.13524425e-02, -9.98500735e-02, -5.45002937e-01,
          -4.27015536e-02, -3.47505920e-02, -2.03588486e-01,
           1.25982195e-01,  9.10007115e-03, -3.04129034e-01,
           4.24712487e-02,  2.36681014e-01,  1.51817158e-01,
           2.11935252e-01, -8.38776082e-02,  3.54638807e-02,
           1.31657377e-01, -1.27795115e-01, -3.05517744e-02,
          -6.18067794e-02, -3.47979814e-02],
         [ 4.77056019e-02, -1.11516118e-01,  5.45239337e-02,
          -8.22722092e-02,  1.04434922e-01, -3.98017645e-01,
          -3.21654491e-02,  2.61737164e-02,  2.26549536e-01,
          -5.15235998e-02,  2.29471195e-02,  1.27277762e-01,
          -3.26803774e-02, -1.17527768e-01, -1.09102996e-02,
           5.79447709e-02, -7.12619047e-04,  2.34052658e-01,
          -1.38821244e-01, -8.32976475e-02,  9.92923975e-02,
          -2.48752739e-02,  2.70287722e-01, -2.54193172e-02,
           3.00672948e-01, -2.09519248e-02, -4.82852533e-02,
          -3.78943495e-02,  3.00636739e-02, -5.86962998e-02,
           6.31640758e-03,  2.06735566e-01],
         [-1.08827800e-02, -1.45802602e-01,  6.13260269e-03,
          -8.89855549e-02, -1.27351567e-01,  3.92610490e-01,
           1.09527431e-01, -2.69315988e-01,  9.52734724e-02,
           4.24115844e-02, -6.47130013e-02,  1.92367345e-01,
          -4.45410609e-02, -1.34988250e-02,  9.19468924e-02,
          -1.38149941e-02, -2.96180975e-02,  7.10548237e-02,
          -2.67018020e-01, -6.28948584e-02,  9.99540761e-02,
          -6.28119856e-02, -2.63756588e-02, -1.74536720e-01,
          -1.28648400e-01,  9.71838608e-02,  4.52403985e-02,
          -1.51349381e-01, -2.22196296e-01,  4.74023335e-02,
          -9.31282565e-02,  1.76877931e-01],
         [-1.03004184e-03,  1.63435489e-02,  1.43058181e-01,
          -5.44849411e-02,  2.25417361e-01,  3.26656759e-01,
           4.12528604e-01,  6.96170777e-02,  2.11259499e-01,
          -3.34864147e-02, -4.56896387e-02,  3.83143276e-01,
          -6.19331188e-02, -5.04323542e-02, -1.85788646e-01,
          -8.13104119e-03,  3.11009455e-02, -1.28489822e-01,
           1.35215372e-01, -2.20014472e-02,  3.99689466e-01,
          -4.44186516e-02, -3.82443041e-01,  2.70490348e-01,
           1.40438557e-01,  4.54587862e-02, -1.52762294e-01,
           9.93359014e-02,  2.77256012e-01,  3.97844501e-02,
          -1.41690355e-02, -1.58228487e-01],
         [-1.61265358e-02, -1.70540109e-01, -9.47867259e-02,
          -2.10143432e-01,  1.56180903e-01, -2.25484014e-01,
          -5.84585547e-01, -2.46684060e-01,  8.77997205e-02,
          -2.98630390e-02,  4.51755896e-02,  6.60763085e-02,
          -2.68706437e-02, -4.91108522e-02, -3.36531177e-02,
           3.10240071e-02,  9.86621343e-03,  7.75754452e-02,
           1.81461036e-01, -4.13745502e-03, -1.99198499e-02,
           3.77606265e-02,  1.47087067e-01,  2.48067349e-01,
           1.59356743e-01,  2.52683401e-01, -3.79199535e-02,
           8.14260542e-02, -4.53113802e-02, -6.31032437e-02,
          -6.71401843e-02,  2.39725575e-01],
         [ 2.61039659e-02, -8.37000683e-02,  3.14103574e-01,
          -4.62664068e-02,  4.59713154e-02, -3.83381903e-01,
           1.07213333e-01,  1.60467066e-02,  3.30081023e-02,
          -3.50451730e-02, -1.97578408e-02,  1.17226064e-01,
           1.77434459e-02,  2.63925530e-02,  5.59338331e-02,
          -1.87775604e-02, -3.05313822e-02,  2.76442051e-01,
          -5.20117991e-02, -4.76637715e-03,  1.69889927e-01,
           5.54636791e-02,  1.05107650e-01, -1.15525275e-01,
           3.96710455e-01,  1.43673584e-01,  7.32966289e-02,
          -5.51256984e-02,  2.25882567e-02, -2.32933667e-02,
          -5.65848462e-02, -1.03356615e-01],
         [ 1.54326670e-02,  4.61710691e-02, -1.92635339e-02,
           1.65169574e-02,  4.54482697e-02, -2.88853627e-02,
          -3.65686566e-02,  1.04725268e-03, -7.54426233e-03,
           3.17313783e-02, -5.28767407e-02,  1.93764046e-02,
          -4.34019566e-02, -9.37501248e-03, -1.65369082e-03,
          -5.03519271e-03,  2.20735781e-02, -1.70078874e-02,
          -2.13119225e-03,  2.01135464e-02,  2.65309662e-02,
          -3.07982378e-02, -2.74304654e-02, -2.91406456e-02,
           1.87452957e-02, -9.70117375e-03,  2.64311209e-03,
          -7.94811398e-02,  6.11272156e-02, -2.84123123e-02,
           3.04076634e-03, -6.96371635e-03],
         [ 2.68658008e-02,  2.64900010e-02,  6.18085675e-02,
          -2.73615658e-01,  3.37955765e-02, -3.03568691e-01,
           1.05376706e-01,  3.16144451e-02,  1.46509837e-02,
           4.54714820e-02, -8.52047652e-03,  9.74589661e-02,
          -9.39690098e-02, -7.63698528e-03,  6.57084805e-04,
          -3.08708958e-02, -4.73326147e-02,  3.21749132e-03,
          -2.86096752e-01, -5.06925099e-02, -9.80618373e-02,
           1.10602535e-01,  2.57514529e-02, -4.67634127e-02,
           5.15370779e-02,  2.02121567e-02, -1.50082211e-04,
          -9.35719460e-02, -3.15203190e-01, -2.77001299e-02,
          -3.80036049e-02, -1.04434691e-01],
         [-1.54390261e-02, -2.21387058e-01, -1.08871564e-01,
           8.15855712e-03, -5.81087291e-01,  3.41537952e-01,
           2.61761192e-02, -2.10866660e-01,  1.80995867e-01,
          -4.23520384e-03, -3.68323214e-02, -2.52752334e-01,
           1.19449815e-03, -6.99608251e-02, -2.12510824e-01,
          -3.63179552e-03,  1.46677438e-02,  1.50149707e-02,
          -2.31982544e-01,  2.73634791e-02, -1.21161707e-01,
          -8.60029645e-03,  1.02603644e-01, -2.19494909e-01,
          -8.22724402e-02,  3.32318664e-01,  2.15142332e-02,
          -8.02407041e-02, -8.66359621e-02, -3.40306126e-02,
          -8.83669481e-02, -7.71234408e-02],
         [-2.09520776e-02, -1.07388288e-01, -4.06160876e-02,
          -1.49472669e-01,  2.70060152e-01,  2.19308034e-01,
           3.78795356e-01,  4.19308357e-02,  8.54916722e-02,
          -4.69291061e-02, -5.19311242e-02,  3.68766189e-01,
           2.83394903e-02, -5.78231141e-02,  7.42861331e-02,
          -1.04462326e-01, -4.31455448e-02, -1.64833218e-01,
          -1.17142737e-01, -5.75136859e-03, -6.19316623e-02,
          -3.90463769e-02,  1.77977890e-01,  1.61556840e-01,
          -1.16855033e-01, -1.24286503e-01,  1.94060872e-03,
           2.68262532e-02,  2.48457387e-01, -1.52269853e-02,
           4.35275771e-02,  5.39591014e-02],
         [-7.89496452e-02, -1.27182141e-01,  3.55572253e-02,
          -1.30267724e-01, -5.75078785e-01,  1.34791866e-01,
           3.26343328e-02,  1.03150010e-01,  3.79602052e-02,
          -6.47197887e-02,  2.45614983e-02,  6.82741925e-02,
          -3.69701684e-02, -9.10879206e-03,  1.68832634e-02,
          -6.40334263e-02, -7.19752815e-03,  8.58509317e-02,
          -4.47939262e-02,  1.99497119e-02,  2.77367413e-01,
          -8.89322907e-02,  8.29907507e-02,  2.74026748e-02,
           1.41191408e-01,  1.60367548e-01, -9.09268204e-03,
          -2.23168686e-01, -2.32927248e-01,  4.13638838e-02,
          -2.00340301e-02, -1.69096008e-01]],

        [[-8.40084255e-02, -8.58565643e-02, -1.38787195e-01,
          -3.30921531e-01, -9.51624215e-02,  2.24199787e-01,
          -1.70141637e-01, -1.46872802e-02, -2.99452841e-02,
          -6.20886171e-03, -5.55941388e-02,  1.81278318e-01,
          -5.15751541e-02, -6.16122186e-02,  1.97758302e-01,
          -5.61707467e-02, -4.17398736e-02, -2.51550972e-01,
          -5.01230836e-01, -9.97654162e-04,  1.53104573e-01,
           4.34240066e-02, -3.45712453e-02,  1.95128143e-01,
           2.45122276e-02, -1.16164617e-01, -1.23399265e-01,
           1.97939962e-01, -3.10750604e-02, -6.38087764e-02,
          -3.05727497e-02, -1.14149719e-01],
         [-2.13189214e-03,  1.14307562e-02,  1.92901343e-01,
          -1.76593959e-02, -4.47733641e-01,  4.06243861e-01,
           2.67464191e-01, -4.69477288e-02, -1.70514528e-02,
           1.70201585e-02,  5.16973250e-02,  2.86619216e-01,
          -1.47255585e-02, -9.01035368e-02, -2.65224427e-01,
           2.59805992e-02, -3.50293657e-03,  2.97397643e-01,
           3.00621629e-01, -1.90079492e-02,  6.73580348e-01,
          -2.47830197e-01,  6.30707294e-02,  1.59195572e-01,
           6.44730479e-02,  4.07002479e-01,  6.10903017e-02,
          -4.81696054e-02, -3.44574541e-01,  1.42382374e-02,
          -3.88296582e-02, -1.69015795e-01],
         [-3.30765508e-02, -2.24049091e-02, -4.15117405e-02,
          -1.21399507e-01,  7.87658244e-02,  2.25291535e-01,
           2.81206280e-01,  4.06238139e-02,  2.18584731e-01,
          -6.36766627e-02,  4.99866670e-03,  1.21368758e-01,
           2.57971026e-02, -3.56762446e-02,  1.87482268e-01,
          -6.53593987e-02,  5.98109551e-02, -1.20093368e-01,
          -3.40020269e-01, -2.25950964e-02, -1.15384907e-02,
          -5.16056903e-02,  1.06845453e-01,  9.98802111e-02,
          -4.59276699e-02,  2.42677759e-02,  3.74659523e-02,
          -7.70669337e-03,  7.58250728e-02, -5.47275355e-04,
           1.71437152e-02, -2.27125227e-01],
         [ 3.44949868e-03, -6.77994266e-02,  2.16705576e-02,
          -2.07208127e-01,  5.15125021e-02,  3.23501766e-01,
           3.15946303e-02,  7.77584617e-04,  3.01807672e-01,
           1.41433300e-02, -5.60116544e-02, -3.09104532e-01,
           1.66191477e-02, -9.60821956e-02, -1.97539240e-01,
           2.02687774e-02,  2.77702268e-02,  1.70862928e-01,
           1.85083956e-01, -4.39839847e-02,  2.07454279e-01,
          -2.79281493e-02,  1.65887415e-01, -1.91547841e-01,
           2.41443902e-01,  3.07004333e-01, -9.10381973e-02,
           2.42658794e-01, -8.22547972e-02,  2.86396518e-02,
          -2.32904982e-02,  2.95644514e-02],
         [-2.11045127e-02,  5.12589887e-03,  9.38709453e-02,
          -3.79259646e-01, -2.21777365e-01, -1.70216918e-01,
          -3.26860845e-02, -3.30152482e-01, -4.13280994e-01,
          -3.14088501e-02, -2.01797299e-02, -2.96470612e-01,
          -8.50720517e-03, -9.57225263e-02, -4.22908813e-01,
           2.28275266e-02,  2.12754551e-02, -5.78307770e-02,
          -5.19833975e-02,  4.11004685e-02, -2.95092911e-01,
          -1.03478573e-01,  3.51441884e-03,  1.20087951e-01,
           3.37879866e-01,  2.32204154e-01, -3.23797874e-02,
          -8.94971341e-02, -2.80728072e-01, -6.36480898e-02,
           1.39868828e-02, -9.78836790e-02],
         [-3.97563837e-02,  5.40511422e-02, -8.89119357e-02,
          -4.53379661e-01,  3.33346352e-02, -4.45526540e-01,
          -7.23999664e-02,  7.43800029e-03, -2.26055950e-01,
           2.29851436e-02, -1.33211995e-02, -4.40054573e-02,
           5.22601195e-02, -1.00188516e-01,  2.56732702e-02,
          -8.86328891e-02, -1.50440354e-02, -2.86065042e-01,
          -3.51742625e-01,  4.40826938e-02, -3.66752923e-01,
           8.21703821e-02, -2.42446110e-01,  1.04906864e-01,
          -1.03611320e-01, -2.78509408e-01, -4.07338962e-02,
          -2.84725696e-01, -3.98751646e-01, -5.66230938e-02,
           1.58329494e-02, -3.86614054e-01],
         [-5.06853424e-02, -1.96699519e-02, -1.32859558e-01,
          -7.31250942e-02,  1.80171922e-01, -1.54012814e-01,
           4.67405945e-01,  5.07051572e-02, -1.43613607e-01,
           2.73540430e-03, -9.18629859e-03,  1.68108776e-01,
           2.27963291e-02, -1.11750573e-01,  3.89770240e-01,
           3.12964357e-02,  3.72565463e-02, -3.62388700e-01,
          -7.70960376e-02, -5.71744293e-02,  4.76280898e-02,
           5.37727922e-02, -1.65029243e-01,  3.48360121e-01,
          -3.53018194e-01, -5.26007950e-01, -5.65247387e-02,
          -6.00123219e-03,  2.45914441e-02,  2.83704903e-02,
           3.04852594e-02, -3.29830796e-01],
         [-6.69977292e-02,  1.24214664e-02, -5.66467121e-02,
          -3.93217653e-02, -1.65792592e-02, -8.24201554e-02,
          -2.32907701e-02,  7.36477086e-03,  1.47680705e-02,
           4.65215296e-02,  3.84350866e-02, -7.74191022e-02,
           2.06610505e-02, -4.26962646e-03,  5.18486686e-02,
          -5.26966192e-02,  4.77665477e-03, -1.08002581e-01,
          -8.27838629e-02, -4.90817288e-03,  4.07527648e-02,
           6.15211064e-03, -7.22365920e-03,  2.26202998e-02,
          -1.80801973e-02,  8.38445616e-04, -5.39076887e-02,
          -2.67086644e-02, -6.34316504e-02, -3.25699970e-02,
          -6.03871979e-02,  3.31797940e-03],
         [-6.51201978e-02, -2.31233016e-02,  5.78596108e-02,
          -7.83630013e-02, -1.74335629e-01,  2.15827152e-01,
           8.83750618e-02, -1.41169103e-02,  2.26899236e-01,
          -6.00922853e-02,  5.23586236e-02, -2.59464264e-01,
          -6.15156740e-02, -5.61751984e-02, -1.04866818e-01,
          -1.06406314e-02, -6.02999516e-02,  3.56355086e-02,
           1.48721308e-01, -2.94211898e-02, -1.38658687e-01,
          -6.83445409e-02,  2.17600524e-01,  1.09098494e-01,
           1.31870061e-01,  3.27174067e-01, -2.56892890e-02,
           5.11982515e-02,  6.39202818e-02,  4.19343710e-02,
          -7.08764866e-02,  2.00403243e-01],
         [ 1.18327783e-02, -9.58674178e-02,  8.68192390e-02,
          -1.91832885e-01, -3.05085421e-01,  1.21884346e-01,
           1.59176320e-01,  5.56156114e-02,  2.36862361e-01,
          -6.13884861e-03,  2.45583039e-02, -1.95876166e-01,
          -5.05824126e-02, -3.59868370e-02, -2.91716419e-02,
          -5.57933971e-02, -8.26819614e-02, -3.46407741e-02,
          -4.98202108e-02, -8.19864403e-03,  1.21740952e-01,
          -8.34754929e-02,  3.05370361e-01, -1.37665570e-01,
           8.78639817e-02,  1.29141077e-01, -4.16833572e-02,
          -1.08878903e-01, -6.30513430e-01, -6.71324581e-02,
          -2.37256326e-02, -2.86548346e-01],
         [ 3.39186378e-02,  5.21935634e-02, -1.28382305e-02,
           4.91158776e-02, -7.71899722e-05, -5.43072037e-02,
          -2.20418051e-02,  4.38654143e-03, -4.56439629e-02,
           3.29003669e-02,  4.61729243e-02, -4.78242263e-02,
          -6.09746724e-02,  1.62136368e-02,  2.16274173e-03,
          -1.80188548e-02, -3.81945968e-02,  1.67488828e-02,
           1.69246993e-03, -6.05697557e-02,  5.28127216e-02,
          -5.84630631e-02,  3.13667161e-03, -1.81410447e-04,
          -3.23770195e-02, -2.58915331e-02,  7.83752277e-03,
           5.86772636e-02,  5.54343127e-02,  5.40431030e-02,
           8.70202761e-03, -4.43451479e-02],
         [-4.44778278e-02,  3.39169726e-02,  9.26846489e-02,
          -2.23575719e-02,  1.59470784e-03, -2.27365028e-02,
          -8.77520815e-03,  5.51658943e-02, -8.27174112e-02,
           1.43231424e-02, -7.78112262e-02,  1.63290631e-02,
          -1.82953421e-02, -6.52783811e-02, -8.80127549e-02,
          -3.10764611e-02, -6.89130574e-02, -7.20972270e-02,
          -2.27697298e-01, -7.36847287e-03, -2.52086110e-03,
          -7.57987052e-02, -4.38831300e-02,  8.13113712e-03,
           6.46628588e-02,  3.30001414e-02, -5.78411855e-02,
          -6.34104684e-02, -9.78881121e-02, -6.39191195e-02,
           5.26421121e-04, -1.16640091e-01],
         [-6.66902736e-02,  2.58098468e-02, -5.23266643e-02,
           3.02556325e-02, -4.59418297e-02, -7.34246492e-01,
          -5.85425720e-02,  1.02706902e-01,  7.69278854e-02,
           2.14683861e-02,  4.61968780e-03, -3.99582893e-01,
          -1.39119159e-02, -2.76723728e-02,  2.15057701e-01,
          -5.17415889e-02, -5.53034544e-02,  1.52257994e-01,
           2.59809434e-01, -1.68811157e-02,  1.07679635e-01,
          -9.81806889e-02,  2.82555282e-01, -2.90425777e-01,
          -8.18316489e-02,  2.53968537e-01, -5.82355410e-02,
          -1.04224838e-01,  1.22568846e-01,  8.02329089e-03,
          -5.54399267e-02, -4.30316292e-02],
         [ 2.96376497e-02, -2.67090917e-01,  9.87942442e-02,
          -6.42966554e-02, -2.14289382e-01,  4.93492007e-01,
           1.84499901e-02,  1.21392898e-01,  1.87254041e-01,
          -3.66238840e-02, -3.32565531e-02,  3.74322891e-01,
           2.58591250e-02, -1.79848019e-02, -1.74632430e-01,
           2.44370215e-02,  5.38211800e-02,  1.81136727e-01,
           1.81517467e-01,  3.32170166e-02,  1.59769371e-01,
           1.58553645e-02,  5.78673705e-02,  8.16651806e-03,
          -9.52948853e-02,  6.07437015e-01, -6.02043280e-03,
           9.34263170e-02, -1.08000394e-02, -1.10521419e-02,
          -7.19508305e-02, -2.52256334e-01],
         [ 3.73597979e-03, -6.66950410e-03,  4.30149809e-02,
          -2.27833882e-01, -2.80473381e-01, -3.82482648e-01,
          -4.79194038e-02, -2.73165286e-01, -1.46833658e-01,
           1.07724564e-02, -1.61609519e-02, -2.16845274e-01,
          -7.33672408e-03, -6.53943866e-02, -1.42146319e-01,
           3.39985476e-03, -5.48061682e-03, -1.74857304e-01,
          -5.70356622e-02,  4.54581995e-03, -4.28698093e-01,
          -4.16478403e-02, -3.78269702e-01,  1.57377049e-01,
          -1.31964728e-01, -2.71551102e-01, -5.15537709e-02,
          -4.72555533e-02, -6.54304206e-01,  3.43519971e-02,
          -1.37074012e-02, -5.35511255e-01],
         [-2.97204927e-02, -1.97840914e-01, -1.39824515e-02,
          -1.32084429e-01, -1.02620222e-01, -3.12060326e-01,
           1.78777471e-01,  3.45648155e-02, -2.19123021e-01,
          -4.85723168e-02, -5.18533261e-03, -1.73028871e-01,
          -3.02703283e-03, -8.42847824e-02,  1.14025017e-02,
          -5.96791469e-02,  3.51377018e-02, -3.30217153e-01,
           3.04720998e-01,  7.02874139e-02, -3.82118613e-01,
          -4.38256189e-03, -2.96163470e-01,  1.01061575e-01,
          -3.57029252e-02,  2.15407029e-01, -3.11880279e-02,
          -5.10621250e-01, -2.76820082e-02,  2.31713802e-03,
           5.20966295e-03, -4.05222744e-01],
         [ 1.58498455e-02,  2.97727250e-02,  3.78570333e-02,
          -5.52424416e-02,  2.94231493e-02,  3.88890989e-02,
           3.35910805e-02,  7.00467313e-03, -4.28803936e-02,
          -4.62487414e-02, -2.93216947e-02, -4.84845825e-02,
           4.54573594e-02,  3.53575610e-02,  2.99071539e-02,
          -2.28838827e-02,  4.46202569e-02,  1.33380219e-02,
          -1.00895939e-02, -4.56016771e-02,  5.09627797e-02,
          -4.25916612e-02,  4.08018306e-02, -1.63604077e-02,
           5.12753315e-02, -5.53570688e-02, -2.74661519e-02,
           3.59835140e-02, -5.89826517e-02,  3.75172086e-02,
           4.22635488e-02,  8.20357073e-03],
         [ 3.00929882e-03, -1.04844727e-01, -6.75091073e-02,
          -9.29294452e-02,  7.77330473e-02, -5.11630177e-01,
           4.17942494e-01,  1.25946656e-01,  1.54325858e-01,
           1.45907756e-02,  2.08052397e-02, -1.12341560e-01,
          -2.35435572e-02,  1.06252003e-02,  3.26970726e-01,
          -6.40594661e-02, -4.52832840e-02, -2.75098324e-01,
          -1.71093985e-01, -5.27347103e-02, -3.85345966e-02,
           1.83498468e-02,  2.22924963e-01,  9.11867246e-02,
          -2.32718885e-01, -8.13258812e-02, -3.04756481e-02,
           1.56906620e-01,  3.21285516e-01,  3.15744318e-02,
          -4.54204418e-02, -2.59587407e-01],
         [ 2.17044018e-02,  1.85018184e-03, -5.77827245e-02,
           4.81553376e-04,  8.51224810e-02, -4.95418236e-02,
           1.01365991e-01,  2.10694056e-02, -4.15782779e-02,
           2.31981836e-02, -2.38150060e-02, -2.42515523e-02,
           4.74113710e-02,  2.46532969e-02, -9.50382426e-02,
          -3.71048748e-02,  2.06666850e-02, -2.50068102e-02,
          -1.43521158e-02,  4.07984816e-02, -2.94255614e-02,
          -2.12127715e-02,  5.37542626e-02, -1.78592056e-02,
          -2.32214704e-02, -1.13526992e-02,  5.75838722e-02,
          -2.93822438e-02, -3.98729146e-02, -5.94215728e-02,
           4.82622199e-02,  5.49889319e-02],
         [-7.45102242e-02, -3.07267942e-02,  1.10843414e-02,
          -1.69444069e-01,  1.22629479e-01,  2.50727274e-02,
          -8.62096623e-03, -3.19425985e-02,  2.24981248e-01,
          -5.17706163e-02, -1.58931222e-02, -3.37049924e-02,
          -8.13326612e-02,  9.60655045e-03, -2.39901751e-01,
          -1.27438856e-02, -5.88078164e-02,  2.30123445e-01,
           6.95568100e-02, -6.06367784e-03,  5.39688654e-02,
          -2.08686963e-01,  4.66677696e-01,  1.28273308e-01,
           4.42392290e-01,  1.90365523e-01,  1.07617117e-02,
           1.95602387e-01, -2.40108043e-01, -6.00321516e-02,
           1.15954541e-02,  2.48819202e-01],
         [-7.03071505e-02, -6.02533892e-02,  8.14341307e-02,
          -2.74009228e-01, -2.39845395e-01, -2.23437339e-01,
           1.07086532e-01, -2.18510672e-01,  2.10964382e-01,
          -5.44607453e-03, -7.93820024e-02, -3.82389605e-01,
           3.73286381e-02, -7.32741877e-02,  2.41249856e-02,
           1.43811312e-02, -3.54825407e-02, -1.22189865e-01,
          -1.88637406e-01, -5.76560618e-04,  1.43224463e-01,
          -1.31925181e-01,  1.49188340e-01,  2.70194989e-02,
          -4.11530733e-02,  5.58804013e-02,  2.22103503e-02,
          -3.35488111e-01, -6.13599420e-01,  2.41200887e-02,
          -3.95935774e-02, -3.72754723e-01],
         [ 2.71496158e-02, -1.02564335e-01,  2.67503615e-02,
          -1.76534668e-01,  5.72699644e-02,  1.01296976e-01,
           1.66836202e-01, -2.41392836e-01, -6.09393008e-02,
          -2.29028575e-02,  9.55285877e-03, -2.22334221e-01,
           2.04027407e-02, -7.84226954e-02, -3.60956848e-01,
          -5.10477312e-02,  2.81593855e-02, -1.39710177e-02,
           1.57699719e-01, -8.07405040e-02, -3.16083640e-01,
          -6.15318678e-02,  1.33547857e-01,  7.46184140e-02,
           1.94274858e-01,  5.53636476e-02, -7.44247958e-02,
           2.68739532e-03, -7.11874440e-02, -4.72134314e-02,
          -1.58035047e-02,  7.44602531e-02],
         [ 4.35863100e-02, -7.68323764e-02, -3.71230161e-03,
          -5.67754693e-02,  2.76589870e-01, -1.92404225e-01,
           8.75910670e-02,  2.39370242e-01,  2.02599600e-01,
           1.80414952e-02, -2.06367727e-02,  9.00652856e-02,
          -9.15757939e-02,  1.73801917e-03, -9.00405180e-03,
          -5.68127148e-02, -2.61949394e-02,  2.67780542e-01,
          -7.12901577e-02,  2.83176894e-03,  1.14421718e-01,
          -3.22368671e-03,  3.51028532e-01, -8.36436599e-02,
           9.64829624e-02,  9.12421048e-02,  1.15791792e-02,
           3.98393199e-02,  1.68752804e-01,  4.58702520e-02,
           2.81405412e-02, -1.71001762e-01],
         [ 1.11949090e-02, -1.08203225e-01,  1.96582712e-02,
          -7.42996708e-02, -2.16409072e-01,  3.07815224e-01,
          -2.40236387e-01, -9.59822014e-02,  7.45868087e-02,
           4.00511064e-02,  1.23130260e-02,  3.29417199e-01,
          -1.63412676e-03, -1.37010157e-01,  1.21835001e-01,
          -8.69761631e-02, -1.66125912e-02,  2.89386827e-02,
          -3.14087152e-01, -5.75460121e-02,  3.40476930e-01,
          -6.57496378e-02,  7.27833528e-03, -3.80539261e-02,
           1.34570718e-01,  3.32087576e-01, -2.97775269e-02,
          -1.08950637e-01, -4.08740997e-01, -3.71853746e-02,
          -9.58114639e-02, -1.98798045e-03],
         [-3.30394767e-02,  1.79638285e-02, -9.43977535e-02,
          -1.58025593e-01, -2.77643651e-01, -1.44570202e-01,
           1.39532313e-01,  1.42246276e-01,  1.37304157e-01,
          -5.69474846e-02, -2.04936806e-02,  4.13069010e-01,
          -3.46984155e-02, -5.90258092e-02, -2.69904230e-02,
           2.70482134e-02, -7.22335093e-03, -1.90482572e-01,
          -5.24422467e-01, -3.41975540e-02,  1.64004713e-01,
          -1.41917810e-01, -5.83610713e-01,  5.23043275e-01,
           1.88678935e-01,  1.73769817e-01,  3.79148126e-02,
           2.88164914e-02, -1.63618252e-01, -1.71379317e-02,
          -3.79767013e-03,  1.04768816e-02],
         [ 2.30831336e-02, -1.16378568e-01, -2.32833654e-01,
          -4.17580046e-02,  1.48160174e-01, -4.21250165e-01,
          -5.60271621e-01,  1.36560798e-01,  3.19252759e-01,
           3.07020899e-02, -1.07101267e-02, -1.41285732e-01,
           1.57516133e-02,  1.92625951e-02, -2.27197036e-01,
           5.59684411e-02,  2.83162333e-02,  7.96050057e-02,
           1.58108696e-01, -7.34701157e-02,  8.03716574e-03,
          -2.72422135e-02,  3.09926122e-01, -4.61855680e-02,
           2.46370926e-01,  7.88300708e-02, -5.53634465e-02,
           2.54993260e-01,  1.96804672e-01,  6.07469957e-03,
          -1.58556867e-02,  1.77096710e-01],
         [-5.47313057e-02, -2.14655861e-01,  2.86594361e-01,
          -1.84558228e-01,  5.14742732e-03,  2.78710991e-01,
           1.26239106e-01,  9.02146176e-02,  6.13291189e-02,
          -4.83431593e-02, -1.24082593e-02, -1.59770980e-01,
          -5.31641282e-02, -5.61397150e-02, -4.90569929e-03,
          -2.30242126e-02, -6.09063879e-02,  3.57518755e-02,
          -7.14160800e-01, -8.08492601e-02,  3.60486448e-01,
           1.48715312e-02, -5.52249886e-02, -1.30072817e-01,
          -1.08735807e-01,  2.81046927e-01,  2.76505221e-02,
          -2.87293851e-01, -3.40138711e-02,  2.27610245e-02,
          -8.21694266e-03, -2.59237558e-01],
         [-3.79770249e-02,  3.35049331e-02, -7.38399252e-02,
          -5.47643192e-02, -1.08794719e-02,  6.18692720e-03,
           3.33660617e-02, -1.91650037e-02,  5.15385903e-02,
          -4.06102240e-02, -1.23903258e-02, -1.71203502e-02,
          -3.24552786e-03,  5.12485541e-02,  3.89090031e-02,
          -2.83822212e-02,  3.92860435e-02, -3.06635555e-02,
          -1.35931401e-02, -1.95240676e-02,  3.74710076e-02,
           5.40378094e-02, -5.00300713e-02,  3.00314091e-02,
          -4.13384847e-02, -2.04582550e-02, -1.24272965e-02,
          -8.75175651e-03,  7.18268529e-02, -4.51128669e-02,
           5.48751429e-02,  3.98431905e-02],
         [-8.71250331e-02, -9.43848118e-02,  1.62929177e-01,
          -3.71627390e-01, -1.28923878e-01, -8.38886574e-02,
          -5.88388033e-02, -2.84035504e-01, -2.18636125e-01,
          -2.06159092e-02,  1.33259362e-02, -1.84642151e-01,
           3.08227018e-02,  1.09001459e-03, -1.91739518e-02,
          -6.77418038e-02,  3.37313339e-02, -2.68707033e-02,
          -4.05199975e-01, -3.35186310e-02, -2.96636373e-01,
          -3.85505408e-02, -1.48252666e-01, -5.58960587e-02,
           1.06092639e-01, -1.68498099e-01, -7.90727511e-02,
          -1.12536117e-01, -7.36092329e-01, -1.63851548e-02,
          -5.48307784e-02, -3.09213668e-01],
         [ 6.42648106e-03, -2.99701363e-01, -1.14282966e-01,
           1.73631944e-02, -4.27593291e-01,  7.69818842e-01,
           2.90227860e-01,  9.10951495e-02,  2.45242000e-01,
          -1.91328172e-02,  1.94643475e-02,  4.40487415e-01,
          -7.76389316e-02, -1.17282256e-01, -1.80346444e-01,
          -2.73224842e-02,  1.75618455e-02,  3.09055656e-01,
           1.58558208e-02,  2.87580620e-02,  2.72455961e-01,
          -7.89660215e-02, -1.67965263e-01, -1.11306265e-01,
          -9.96585637e-02,  5.10882318e-01, -4.03023884e-03,
          -4.88007329e-02,  2.08870396e-01,  1.04545178e-02,
           1.00003220e-02, -5.50335169e-01],
         [ 2.05618516e-02, -1.06115833e-01, -4.41921912e-02,
          -2.05860272e-01,  1.23164281e-01,  4.12667245e-02,
           2.12736517e-01,  8.00262764e-02,  1.62183955e-01,
           2.00635381e-02, -1.63495541e-02,  2.94709384e-01,
           4.56209742e-02, -7.80672580e-02,  2.45897204e-01,
          -1.67291686e-02, -5.08480594e-02, -3.44430000e-01,
          -4.37361151e-01, -1.13786403e-02, -7.66851828e-02,
          -3.38261165e-02, -9.31669772e-03,  1.37646616e-01,
           1.41559675e-01, -4.07735594e-02, -2.89330427e-02,
           2.23535419e-01,  1.07794300e-01, -8.53603184e-02,
          -6.20052293e-02, -3.52983952e-01],
         [-7.81525895e-02, -1.12735711e-01,  1.69951081e-01,
          -1.04500197e-01, -3.64305228e-01,  4.16233569e-01,
          -5.75122721e-02,  1.39585108e-01, -2.06901222e-01,
           2.99871117e-02, -5.57732545e-02,  3.24772090e-01,
          -4.16993387e-02, -6.40708953e-02,  4.32063565e-02,
          -7.50582293e-02, -3.86989973e-02,  1.42531633e-01,
          -1.89892858e-01,  8.89864634e-04,  4.16593075e-01,
          -6.05030321e-02,  1.65609136e-01,  1.76008210e-01,
           2.73056716e-01,  3.66686076e-01,  2.77382527e-02,
          -2.40949512e-01, -4.54649568e-01,  4.11884002e-02,
           5.43679856e-03, -1.59868285e-01]],

        [[-5.49795330e-02, -6.08929172e-02, -3.34385365e-01,
          -1.11007996e-01, -5.37636466e-02, -1.47280142e-01,
          -2.76202142e-01,  9.37856457e-05,  1.04780897e-01,
          -4.20085974e-02,  3.59448278e-03,  9.47390404e-03,
          -5.54295778e-02, -6.92961141e-02,  1.77329481e-01,
          -3.55967204e-03, -4.70185876e-02, -2.19492704e-01,
          -1.29085695e-02, -6.81633651e-02, -3.36903214e-01,
          -1.29582822e-01, -2.53300786e-01,  1.65991843e-01,
          -8.34717974e-02, -1.07109345e-01, -5.89121170e-02,
           3.06752641e-02, -4.88988459e-02, -4.68543731e-02,
           1.91826541e-02, -3.66808847e-02],
         [-5.16481623e-02, -1.00140192e-01,  1.10780276e-01,
          -1.88161299e-01, -1.93086207e-01,  2.06397071e-01,
           2.94197500e-01,  8.93947557e-02, -4.83929366e-01,
          -7.43967444e-02, -4.21082228e-02,  4.11485910e-01,
          -2.31600506e-03, -8.00805390e-02, -1.53707430e-01,
           2.73743998e-02,  1.10269934e-02,  4.82463211e-01,
           2.05463573e-01, -6.98961541e-02,  4.33487803e-01,
          -2.40569741e-01,  2.55985945e-01,  2.80241430e-01,
           1.47592366e-01,  5.41044623e-02, -1.07665323e-02,
          -1.89866453e-01, -2.16023490e-01, -3.72747183e-02,
          -7.06144571e-02,  1.22337388e-02],
         [ 1.83606520e-02, -1.94857400e-02,  1.44060683e-02,
          -1.01417646e-01,  9.50763375e-02,  1.23778649e-01,
           1.70454487e-01, -3.14958453e-01,  2.31025144e-01,
           1.17117930e-02, -3.61630367e-03,  7.55970851e-02,
          -1.03588763e-03, -1.51323890e-02,  1.30833894e-01,
           2.76906993e-02, -5.68419211e-02, -7.77141973e-02,
          -6.58654720e-02,  1.86714139e-02, -3.39969128e-01,
          -3.18546034e-02, -3.82254928e-01,  2.06475735e-01,
           1.72042742e-01, -2.72484999e-02, -2.22461447e-02,
          -8.21285322e-02, -3.06588877e-02,  2.68394798e-02,
          -6.24612235e-02, -1.26466125e-01],
         [ 2.42977459e-02, -3.58403958e-02, -4.47127968e-02,
          -3.98121715e-01,  9.60192829e-02,  4.04691488e-01,
           2.61654198e-01, -2.18832903e-02,  1.28573760e-01,
          -8.56977946e-04, -5.15103117e-02, -1.78921372e-01,
          -3.34312841e-02, -2.88499109e-02, -1.14583224e-02,
          -2.93016657e-02, -2.83323927e-04,  3.33232224e-01,
           1.31703004e-01,  1.02237957e-02,  3.06099713e-01,
          -1.77677304e-01,  1.32991701e-01, -2.01610461e-01,
           3.33335139e-02,  1.63813546e-01, -3.03527229e-02,
           4.62631315e-01,  2.05327824e-01, -6.10868111e-02,
          -4.11303714e-02,  1.07528649e-01],
         [-6.45337347e-03, -1.14989541e-02, -3.08110654e-01,
          -2.10030630e-01, -2.59787254e-02,  1.88468069e-01,
           3.18591863e-01,  6.60056621e-02,  1.52427539e-01,
           2.87150638e-03,  8.14337516e-04, -3.40165824e-01,
           3.58708366e-03, -6.56716377e-02, -3.34083959e-02,
          -5.30254729e-02, -2.62362845e-02,  2.99377143e-01,
           2.61436254e-01, -7.72594884e-02,  1.28067404e-01,
          -3.57395634e-02, -9.93415155e-03, -2.59551764e-01,
          -2.79371738e-01,  2.52333164e-01, -6.96885884e-02,
           1.42832875e-01,  2.95138478e-01, -6.11011535e-02,
           2.62113735e-02, -1.62095547e-01],
         [-5.40773161e-02, -1.49760516e-02, -3.31161857e-01,
          -2.69754548e-02, -1.76521301e-01, -1.44336790e-01,
          -4.58075628e-02, -1.53715178e-01, -1.28353059e-01,
           2.71966457e-02,  7.06221536e-03, -3.34339216e-03,
          -5.17389327e-02,  2.20742710e-02, -2.16565832e-01,
           1.13831162e-02, -3.38535979e-02, -8.40523839e-02,
           6.03525788e-02, -5.09892888e-02, -1.08825184e-01,
           2.05371641e-02, -5.65741003e-01,  1.26196027e-01,
          -3.91957104e-01,  2.57971641e-02, -6.63883612e-02,
           2.23488271e-01, -4.27078217e-01, -6.81393594e-02,
           4.34323326e-02, -3.09679747e-01],
         [ 1.86013430e-02, -1.19579062e-01, -5.64602949e-02,
           2.39375204e-01, -5.96825220e-03,  2.80089289e-01,
           7.27288127e-02, -1.40020758e-01, -9.55651142e-03,
          -9.68398713e-03,  4.74299192e-02,  2.88846314e-01,
           2.90765800e-02, -5.06416522e-02,  2.03928292e-01,
           1.63591504e-02, -6.24697283e-02, -6.03011787e-01,
           1.06983468e-01, -6.66445270e-02,  5.26199490e-02,
           3.56009565e-02, -7.55066648e-02,  3.99453670e-01,
           7.90741444e-02, -8.28293562e-02, -7.47378692e-02,
           4.90640104e-02,  2.38443375e-01, -4.76573408e-02,
          -2.75499765e-02, -4.96540457e-01],
         [-2.56666243e-02, -3.47280428e-02, -1.28467962e-01,
           3.57704945e-02, -6.27131090e-02, -6.06543384e-02,
           7.58065134e-02,  1.30855348e-02,  1.07008610e-02,
          -4.69045192e-02, -3.25954035e-02, -2.11595166e-02,
          -3.71664576e-02,  1.02581531e-02, -7.37375841e-02,
           5.38190827e-02, -4.04365249e-02, -5.97627200e-02,
           2.47832965e-02,  4.75487188e-02,  2.61064507e-02,
           6.09708764e-02,  4.56712097e-02,  8.03794712e-03,
           8.94798860e-02, -4.26892675e-02,  2.37345025e-02,
          -1.01481833e-01,  3.87723483e-02, -9.55139846e-03,
           2.07938440e-02, -7.22691044e-02],
         [ 1.87868197e-02, -6.14253990e-02, -7.33326897e-02,
          -4.40553576e-02, -4.12291624e-02,  2.07805529e-01,
           2.19382063e-01, -1.12647809e-01,  3.22364390e-01,
          -3.14305499e-02, -9.87544656e-03, -3.62320304e-01,
           1.12632457e-02, -3.29629630e-02,  2.27601156e-01,
          -2.24774964e-02, -7.77003914e-02,  1.50034249e-01,
           1.89331487e-01,  2.78304573e-02,  2.48382628e-01,
          -6.12706468e-02,  1.44242123e-01, -8.83662924e-02,
          -6.09287210e-02,  2.63074040e-01, -7.81002790e-02,
           2.04564825e-01,  3.19162637e-01, -2.50675753e-02,
           4.57898825e-02,  1.11154966e-01],
         [ 3.40007134e-02, -3.88651378e-02, -6.04178533e-02,
          -2.42466062e-01,  4.53201961e-03,  3.02413672e-01,
           3.23004514e-01,  6.10947050e-02, -7.97997601e-03,
           3.71102579e-02,  4.93122973e-02, -3.76072079e-01,
          -6.99120760e-02,  8.43645819e-03, -1.19584911e-01,
          -2.15433072e-02,  3.42127797e-03,  3.44549835e-01,
           1.04655199e-01, -4.77556437e-02,  3.71051580e-01,
          -8.80089924e-02,  4.68901210e-02,  3.35673094e-02,
          -2.70899236e-01,  4.49392825e-01, -2.63826922e-02,
           3.00569445e-01, -1.48653731e-01, -6.65878654e-02,
          -6.46864548e-02,  1.30392805e-01],
         [-3.87868658e-02, -2.92641576e-02, -3.26315947e-02,
           8.41895863e-03, -6.21223152e-02,  2.13218443e-02,
          -1.69055387e-02,  5.84536640e-04, -3.54489870e-02,
          -5.65262064e-02, -4.13677134e-02,  6.33023605e-02,
           1.79058202e-02, -4.09450382e-02, -2.92988177e-02,
          -5.69398738e-02,  9.30039212e-03, -5.95513321e-02,
           2.36513955e-03, -1.09190606e-02,  3.39463465e-02,
           5.11882827e-02, -9.65954550e-03,  8.52557085e-03,
           4.61043827e-02,  1.94264832e-03, -5.56918904e-02,
           5.75642809e-02, -3.52341793e-02,  2.64925174e-02,
          -4.25172560e-02,  6.04649819e-02],
         [-1.32048381e-02,  4.76387329e-02, -3.60024385e-02,
          -5.28682061e-02,  4.88370247e-02, -4.25861552e-02,
          -1.76528752e-01,  1.56767629e-02,  1.13412797e-01,
           4.46676277e-03,  4.58407775e-03, -7.03592747e-02,
          -3.53348739e-02,  1.39411362e-02, -1.03534244e-01,
          -6.37713447e-02, -3.60723771e-02,  3.54470983e-02,
          -6.62683323e-02,  1.54219139e-02, -4.12001535e-02,
           1.18708154e-02,  4.21241783e-02,  3.10091805e-02,
          -5.58349602e-02, -2.12712511e-02, -3.81951667e-02,
          -3.83809991e-02, -2.93490142e-02, -3.80183235e-02,
          -5.17707765e-02, -5.93164824e-02],
         [ 3.10544316e-02,  5.94697036e-02,  1.77731216e-01,
           6.05516471e-02, -2.69965708e-01, -3.91700685e-01,
           1.57317251e-01,  4.61824127e-02, -8.14320669e-02,
          -4.35418002e-02, -4.02821898e-02, -7.65728876e-02,
          -6.08897619e-02,  6.89262971e-02,  2.44836807e-02,
           3.17142867e-02, -6.85791820e-02,  3.02459975e-03,
           1.80512354e-01, -7.45949969e-02, -8.02412704e-02,
           2.71116533e-05, -9.01581943e-02, -4.11148667e-02,
          -1.10988863e-01, -7.26955980e-02,  2.36878693e-02,
          -3.21061969e-01, -2.44157702e-01, -8.43898430e-02,
          -5.11222109e-02,  1.79556042e-01],
         [-5.35655022e-02, -2.35038385e-01,  2.69540697e-01,
          -1.52045578e-01, -1.23196676e-01,  2.60396302e-01,
           1.37982190e-01,  3.72316033e-01,  1.64041296e-01,
          -5.52959554e-02,  3.29716578e-02,  3.80310267e-01,
          -2.05025990e-02,  4.12377343e-03, -7.08852038e-02,
           5.34393778e-03, -4.25526649e-02,  6.47080541e-02,
           2.43826509e-02, -7.58374333e-02, -1.49027511e-01,
          -1.11365311e-01, -1.75195232e-01,  7.70403445e-02,
           4.51253504e-02,  1.29022881e-01,  7.15632970e-03,
          -6.48219824e-01,  8.69706459e-03, -3.95597331e-02,
          -2.52611507e-02,  1.36015192e-01],
         [ 2.29361039e-02, -1.60939936e-02, -2.43988201e-01,
           4.45431247e-02, -1.32706851e-01,  3.78492922e-02,
          -1.09967507e-01, -2.19900414e-01,  2.09498659e-01,
           2.63623409e-02,  2.58260351e-02, -1.21279605e-01,
           5.55462483e-03,  2.56616604e-02, -1.42417699e-01,
          -3.90639566e-02, -6.88427538e-02,  1.05345286e-01,
           6.04194477e-02, -2.48196181e-02,  5.12896590e-02,
          -3.27727199e-02, -3.95042896e-01,  1.95680514e-01,
          -2.07838967e-01,  2.41243035e-01, -3.00956890e-02,
           4.42617655e-01, -7.40578994e-02, -5.53969704e-02,
           2.43751407e-02, -4.51414675e-01],
         [ 1.88048258e-02, -1.12201937e-01,  1.29765362e-01,
           4.23936024e-02,  2.16205016e-01, -1.61924899e-01,
           2.41721481e-01, -2.92423647e-02, -2.55035222e-01,
           3.52260731e-02, -5.78826442e-02,  9.69234258e-02,
           9.79527482e-04, -5.85882366e-02,  4.25967313e-02,
          -6.07817918e-02, -5.10671102e-02, -4.57809679e-02,
           1.08989365e-01,  3.77657898e-02, -5.85671127e-01,
          -5.38919913e-03, -1.04050718e-01,  6.02084659e-02,
           1.25756906e-03,  6.67282194e-02, -1.15037952e-02,
          -5.57930470e-01,  5.07881865e-02, -1.74974650e-02,
          -3.74243110e-02, -7.74432197e-02],
         [ 2.31933780e-02,  4.04181629e-02, -1.73744150e-02,
           2.81367190e-02, -1.01408467e-03, -7.74799893e-03,
          -5.46614565e-02,  4.76524755e-02, -5.62859662e-02,
           3.50030474e-02, -6.15547448e-02, -3.43955457e-02,
           1.03566684e-02, -1.40974298e-02,  2.05528904e-02,
           3.58511470e-02, -2.38015428e-02,  5.79996742e-02,
          -4.99771833e-02, -5.68015575e-02,  3.83380800e-02,
          -1.47816129e-02,  1.44728357e-02, -4.48067896e-02,
           5.66366613e-02, -4.42994162e-02, -3.46627161e-02,
          -1.26733156e-02, -2.76546348e-02, -4.55470756e-02,
           2.95411441e-02,  1.99766885e-02],
         [ 2.35161139e-03, -4.26159278e-02,  2.02342290e-02,
          -9.62959006e-02,  5.58466166e-02, -4.74497765e-01,
           2.33736694e-01, -1.52566075e-01,  1.55741663e-03,
           2.30002254e-02, -6.45960122e-02,  9.72486734e-02,
          -2.08003558e-02, -7.34341368e-02,  4.15772468e-01,
           2.95315171e-03, -2.44852342e-02, -4.54115510e-01,
          -1.89569712e-01, -1.87538769e-02, -1.60115972e-01,
          -2.63438486e-02, -2.06209719e-01,  4.36582893e-01,
          -9.97909228e-04, -2.43680134e-01, -5.92805371e-02,
          -1.55330494e-01,  2.44182274e-02, -5.53987212e-02,
          -3.86157483e-02, -1.99389502e-01],
         [-3.45217064e-02, -5.71547933e-02,  4.14315797e-02,
          -1.47031732e-02,  1.56595316e-02, -4.65573706e-02,
           4.54451777e-02,  1.73977949e-02, -3.60254720e-02,
          -2.43468732e-02, -5.79682663e-02,  4.82482230e-03,
          -1.58211738e-02, -5.86126409e-02, -2.89838444e-02,
           3.67792360e-02, -5.24624810e-02,  2.91084275e-02,
          -3.32127251e-02,  1.32202730e-03,  1.55666089e-02,
           3.70798372e-02,  9.18473527e-02,  1.26521885e-02,
           1.24269366e-01,  5.98446764e-02, -9.45248082e-03,
           4.66109216e-02,  3.42749874e-03,  3.92340831e-02,
           4.38745432e-02,  4.01699981e-05],
         [-9.93346423e-03, -1.01074256e-01, -1.98003538e-02,
          -2.83272654e-01,  1.33835107e-01,  1.54983073e-01,
           3.28950316e-01,  1.17621705e-01,  1.45669520e-01,
          -5.78215644e-02, -1.25845857e-02, -1.99256659e-01,
           8.94831307e-03, -7.62289092e-02, -1.78321883e-01,
          -2.23607607e-02, -1.16374148e-02,  2.81351745e-01,
           1.36312887e-01, -1.53129371e-02, -2.27797478e-02,
          -1.15214713e-01,  2.73125410e-01, -1.61512107e-01,
           1.66937411e-02,  2.47332290e-01,  1.63410662e-03,
           2.72238702e-01,  1.02321401e-01, -6.72781914e-02,
          -5.81650063e-02,  2.96581507e-01],
         [-6.47531226e-02,  4.33282293e-02, -1.00263253e-01,
          -3.02453846e-01, -2.11292803e-01, -6.78602234e-02,
           3.42432946e-01, -1.93190351e-01, -6.89148754e-02,
          -2.68827751e-02, -1.03414757e-02, -4.24574107e-01,
          -3.19982693e-02, -1.44807883e-02, -3.61297540e-02,
           2.75399890e-02, -2.53196433e-02,  1.33102965e-02,
          -2.16052942e-02, -4.80128229e-02,  3.50338995e-01,
          -5.42724654e-02,  4.89140637e-02, -4.72692773e-02,
          -1.02036007e-01,  3.60232562e-01, -3.74777764e-02,
           1.99935660e-01, -3.07937473e-01,  2.06325315e-02,
          -6.88204095e-02, -1.52614802e-01],
         [-6.18861197e-03, -1.10245366e-02, -3.11568320e-01,
          -5.37422635e-02,  1.54398292e-01,  2.04335883e-01,
           2.08989963e-01, -7.39596114e-02,  2.26001889e-01,
          -7.05485940e-02, -1.29173463e-02, -2.63499349e-01,
          -2.78745051e-02,  2.81777829e-02,  7.05421343e-02,
          -6.53507188e-02, -4.48952354e-02,  2.58489013e-01,
           2.22134709e-01,  3.49760167e-02,  3.96141373e-02,
          -5.31557277e-02,  1.39762282e-01, -1.02073677e-01,
          -1.77554488e-01,  2.67137080e-01, -8.82008448e-02,
           2.38230571e-01,  3.14506501e-01,  2.31816359e-02,
          -5.86637482e-02,  7.04990402e-02],
         [-2.99068782e-02,  1.81013178e-02,  2.75860280e-01,
          -1.42436713e-01, -7.67483041e-02, -8.96638632e-02,
           1.33102342e-01,  1.70601577e-01, -2.92389810e-01,
           3.77323218e-02, -9.64555293e-02,  9.66450870e-02,
           7.99163361e-04, -8.67370691e-04,  8.56069922e-02,
          -2.91325210e-04, -5.93234319e-03, -1.24267392e-01,
          -9.74219516e-02, -7.00306818e-02,  2.75917172e-01,
           7.54753873e-02,  3.74410719e-01, -5.35389930e-02,
           3.30136657e-01, -1.80255637e-01,  1.08390497e-02,
          -3.38908672e-01, -3.80615711e-01, -2.62117311e-02,
          -7.12006837e-02,  3.71669121e-02],
         [-5.03096692e-02, -1.39759272e-01, -3.25269580e-01,
          -5.81430495e-02, -4.40896004e-02,  1.91888183e-01,
          -1.10104181e-01,  9.44261774e-02, -6.61896095e-02,
          -4.89753038e-02, -6.44570813e-02,  1.94008082e-01,
           4.90247458e-02, -7.11788535e-02, -8.60462189e-02,
          -7.48049840e-02,  1.43840043e-02, -2.05269247e-01,
           8.75167549e-02, -3.10722757e-02,  3.39842960e-02,
          -7.48788714e-02, -1.83193713e-01,  6.38516173e-02,
          -5.29784784e-02,  9.67558399e-02, -1.71750803e-02,
          -2.76119374e-02, -6.91771926e-03, -4.67593409e-02,
          -2.97653824e-02, -4.44372185e-02],
         [-6.39477521e-02,  2.10746638e-02, -1.38130561e-01,
           1.94480214e-02, -8.63380209e-02, -1.73884526e-01,
           2.12608919e-01, -1.03081524e-01, -3.32361721e-02,
          -5.29313460e-03, -6.00199327e-02, -1.48635313e-01,
          -4.97088581e-02,  3.81902382e-02,  1.48807503e-02,
          -7.11891800e-02,  1.79791413e-02, -5.38897980e-03,
           6.64847046e-02, -7.06871226e-02, -2.14747518e-01,
          -1.20320372e-01, -7.52887368e-01,  2.23719358e-01,
          -3.25698256e-01,  2.74518877e-02, -2.77781058e-02,
           1.20459972e-02, -1.11611262e-02, -1.43842176e-02,
          -5.76823624e-03, -2.33782634e-01],
         [-5.39588220e-02, -1.52202740e-01, -4.93708253e-02,
          -2.42122963e-01,  2.11379647e-01, -1.98114738e-01,
          -2.02567145e-01,  6.20549917e-02,  1.90999925e-01,
           2.49534734e-02, -1.91020817e-02, -2.95985729e-01,
          -8.99383426e-03,  4.09318991e-02, -1.04422115e-01,
          -2.81138029e-02, -7.83153698e-02,  5.56040555e-02,
          -7.70519376e-02,  2.15891065e-04,  1.81594998e-01,
          -3.26280855e-02,  3.67926419e-01, -1.42500728e-01,
           1.25409827e-01,  2.87322681e-02, -4.00640294e-02,
           1.14353746e-01,  1.40348941e-01, -4.85454798e-02,
          -4.77726683e-02,  9.74985957e-02],
         [-3.38694789e-02, -1.76941633e-01,  3.98576528e-01,
          -1.98521867e-01, -6.04382396e-01,  1.97864287e-02,
          -1.48117974e-01, -3.09503615e-01, -4.35274690e-01,
          -3.05236373e-02, -2.18028273e-03, -2.79314630e-02,
          -2.74558906e-02, -1.52097028e-02,  8.07152390e-02,
           2.84389146e-02,  1.98529307e-02, -6.91665411e-02,
          -5.33043623e-01,  3.86913270e-02,  4.77419287e-01,
           1.22866845e-02, -3.28062236e-01, -1.98458955e-01,
           2.18448371e-01,  3.68241638e-01, -2.75653601e-02,
          -1.62803665e-01, -1.11627436e+00,  2.79831029e-02,
          -9.70410183e-03, -1.67570673e-02],
         [-7.93110952e-03,  3.92985903e-02,  6.68514296e-02,
           3.51550169e-02,  2.19559707e-02,  1.11854030e-02,
          -1.05278715e-02,  3.51919085e-02,  5.39206807e-03,
           3.81549858e-02,  3.06950212e-02,  3.84914503e-03,
           2.05672421e-02,  3.69178765e-02, -3.87834981e-02,
          -2.64246315e-02, -4.10259776e-02,  1.80482455e-02,
          -2.28247810e-02, -5.25720417e-02, -1.88462175e-02,
          -4.99775335e-02,  1.52865564e-02,  6.58869138e-03,
           1.86003000e-02,  1.84851605e-02, -6.59261644e-03,
           1.16880098e-02,  3.14280130e-02, -4.95808609e-02,
           3.46576758e-02, -1.04956003e-02],
         [-5.05836718e-02, -6.09776154e-02, -1.12808727e-01,
          -1.56950653e-01, -6.37556762e-02,  1.52485207e-01,
           5.38477413e-02, -2.88276941e-01,  1.79031435e-02,
          -3.45321149e-02, -3.40149328e-02, -1.83285773e-01,
          -3.98010127e-02, -6.58557788e-02, -1.85600594e-01,
          -1.52001316e-02, -4.84221131e-02,  2.22346097e-01,
           1.08479001e-01, -7.13866130e-02,  2.03520600e-02,
          -9.00743976e-02, -4.11164105e-01, -1.06834047e-01,
          -4.39394832e-01,  6.60357177e-02, -4.08490524e-02,
           6.77777231e-01, -3.17581683e-01, -2.20247228e-02,
          -3.24690714e-02, -2.26691991e-01],
         [-1.38041824e-02, -1.89461961e-01,  1.95701197e-01,
          -1.17167063e-01, -5.38623869e-01,  4.24778193e-01,
           3.07680160e-01,  1.53440043e-01,  1.65222228e-01,
          -7.67539814e-02, -4.97496091e-02,  6.16423726e-01,
          -7.03467727e-02, -6.70018606e-03,  1.60410255e-02,
          -6.48498982e-02,  1.78721938e-02, -1.65990181e-02,
          -1.69721961e-01, -8.30257908e-02,  2.48907149e-01,
          -2.45184321e-02, -5.36481440e-01,  2.03641459e-01,
           2.98591405e-01,  3.32395315e-01, -9.77896340e-03,
          -8.77955198e-01,  2.06630118e-02, -1.59771256e-02,
          -4.01448347e-02, -8.22322909e-03],
         [-3.00281234e-02, -1.15449458e-01, -1.82550326e-01,
          -6.02723546e-02,  5.15777944e-03, -2.01009184e-01,
          -3.30241467e-03, -5.34391515e-02,  5.53566776e-02,
          -1.15420585e-02,  1.85919348e-02,  1.73764795e-01,
          -5.93065172e-02, -9.53425467e-02,  1.46731570e-01,
          -4.84759249e-02, -6.44526035e-02, -8.69835168e-02,
           1.27913684e-01, -3.05920094e-02, -1.67525232e-01,
           5.48633486e-02, -1.02376029e-01,  3.05354416e-01,
           1.05396077e-01, -5.67492545e-02, -7.88391158e-02,
           5.85767701e-02,  2.98728615e-01,  3.18655521e-02,
          -2.11882591e-02, -3.52477759e-01],
         [-3.53519842e-02, -2.24755686e-02, -2.31439978e-01,
          -1.27660155e-01, -7.09016025e-02,  2.98360139e-01,
           1.55117050e-01,  1.20118782e-01, -5.01452625e-01,
           3.82059962e-02, -1.88514534e-02,  2.43423194e-01,
           1.40785454e-02, -6.51806816e-02,  4.05328162e-02,
          -1.05417944e-01,  5.65400720e-02,  1.97789948e-02,
          -3.83810923e-02, -1.90605763e-02,  2.37485260e-01,
          -1.98117003e-01, -4.99725938e-02,  2.33391106e-01,
           4.52132374e-02,  3.31497431e-01,  7.68903345e-02,
           9.45748612e-02, -1.15043767e-01, -5.10513820e-02,
          -4.35723960e-02, -1.38667161e-02]],

        [[-6.23374293e-03, -8.29074457e-02, -8.02951157e-02,
          -2.27343291e-01, -1.26818329e-01, -1.03595862e-02,
          -2.05704838e-01,  1.84361711e-01,  2.90783226e-01,
           3.59481759e-02, -5.11325710e-02, -5.35316244e-02,
          -8.28566868e-03, -9.68438108e-03,  1.28846064e-01,
           1.39771206e-02,  4.49774265e-02,  1.37060821e-01,
           2.82075018e-01, -5.39471582e-02, -3.48659247e-01,
          -1.89920083e-01, -2.35472485e-01,  3.50467376e-02,
          -3.92333604e-02, -2.16842115e-01, -2.84144152e-02,
          -6.18327186e-02,  1.87371925e-01,  4.60742600e-02,
           4.54282276e-02,  2.79537201e-01],
         [-5.40754125e-02, -7.15423897e-02, -2.38187507e-01,
          -1.60157591e-01,  2.07506835e-01,  1.51815221e-01,
           4.85988446e-02,  2.79082619e-02, -5.41182399e-01,
          -2.07087733e-02, -5.07376809e-03,  6.12288296e-01,
          -5.93419820e-02, -2.40707882e-02, -2.53607154e-01,
          -6.58859638e-03, -2.00697109e-02,  5.46411872e-01,
           8.86706710e-02, -3.96372192e-02, -1.38494551e-01,
          -1.54962987e-01,  7.38829151e-02,  2.73409456e-01,
          -9.79921594e-02, -1.51576020e-03,  1.50554988e-04,
           2.38660991e-01, -7.78027028e-02,  4.59456332e-02,
          -5.19506596e-02, -2.79536039e-01],
         [-5.05085103e-03,  2.58460231e-02, -1.13860026e-01,
          -4.62525748e-02,  1.76144034e-01,  1.02977879e-01,
          -1.39012620e-01, -9.65835974e-02,  3.06438267e-01,
          -6.23324234e-03, -1.26024541e-02, -9.96351466e-02,
           2.95084398e-02,  1.22812679e-02, -9.27054584e-02,
           3.95702347e-02, -4.42059152e-02, -2.56203227e-02,
           2.42681652e-01, -8.42390135e-02, -4.35884774e-01,
          -2.58736014e-02, -6.66253686e-01,  1.62070587e-01,
           9.42980424e-02, -3.54009606e-02, -6.09021746e-02,
          -1.96838617e-01,  2.03874528e-01, -2.48440132e-02,
          -8.98786038e-02, -2.02221513e-01],
         [-5.84657639e-02, -5.92486933e-02,  3.69201720e-01,
          -3.14924449e-01,  3.04194510e-01,  1.69266477e-01,
           2.26779997e-01, -1.73965529e-01,  7.29946271e-02,
           5.26716094e-03, -4.56802845e-02,  3.12651396e-01,
           5.26910182e-03, -1.01088189e-01,  1.91998541e-01,
          -7.43327960e-02,  2.74635777e-02,  4.06596273e-01,
           8.90084133e-02,  1.59574542e-02,  1.41411692e-01,
          -7.28610232e-02,  1.41456395e-01,  8.00636187e-02,
           2.44849980e-01, -1.18671052e-01,  3.29831950e-02,
           4.84919548e-02, -1.18196972e-01,  3.08150314e-02,
          -7.36855417e-02,  2.41003618e-01],
         [-5.45179918e-02,  1.11498276e-03, -5.06677665e-02,
          -5.49755394e-01,  1.97077245e-01,  3.62893492e-02,
           3.00179482e-01, -1.06476307e-01, -1.03158411e-02,
           4.27728146e-03,  3.80978286e-02, -2.27744654e-01,
          -8.05130228e-02,  3.62060703e-02,  2.19083071e-01,
          -7.07175136e-02, -9.53433476e-03,  3.67865384e-01,
           3.06719840e-01, -6.25673309e-02,  2.72263378e-01,
          -9.13898926e-03, -1.18219271e-01, -1.68850869e-01,
          -2.07002208e-01,  1.63925551e-02, -7.17547238e-02,
           3.26396711e-02, -6.18809974e-03, -6.60381019e-02,
          -3.53069836e-03,  1.43309847e-01],
         [ 4.81069647e-02, -1.07146747e-01, -2.47650281e-01,
          -3.45028669e-01, -2.23981380e-03,  2.29333818e-01,
          -4.09220718e-02,  2.09707290e-01, -1.07212089e-01,
          -5.40302731e-02, -2.65016202e-02, -8.63618329e-02,
          -7.01332986e-02, -5.77218980e-02,  2.19608191e-02,
           2.42790896e-02, -2.51391679e-02, -1.75410330e-01,
           1.16511561e-01,  2.92635243e-02, -1.80378795e-01,
          -9.32193547e-02, -3.67710263e-01, -2.25103140e-01,
          -2.84949929e-01, -1.32264376e-01,  2.29813834e-03,
           9.94969755e-02, -2.71755129e-01,  1.39936032e-02,
           7.87314121e-03, -4.19407189e-02],
         [-3.24772336e-02, -9.17107612e-02,  3.23915660e-01,
           1.09831788e-01,  1.60019457e-01,  4.23818320e-01,
           8.63076150e-02,  2.82808036e-01,  3.48359168e-01,
          -1.22870998e-02,  5.23118228e-02,  5.17717637e-02,
          -4.83764382e-03, -9.03474018e-02,  1.56828552e-01,
           2.55177580e-02,  3.51523124e-02, -3.65104496e-01,
           5.02785742e-01,  3.98964360e-02,  8.88667941e-01,
           2.97089294e-02,  2.13780254e-01,  1.40605435e-01,
           1.37307718e-01,  5.06904781e-01,  2.32006982e-02,
           1.86486199e-01,  2.47508883e-01, -6.35285601e-02,
          -5.80964424e-02, -6.54739887e-02],
         [ 5.54452045e-03,  2.36136205e-02, -4.58843410e-02,
          -6.85888007e-02,  2.78701670e-02, -2.52557627e-04,
          -4.21337113e-02, -3.67215201e-02, -1.63659863e-02,
           3.85572053e-02, -9.46611073e-03,  2.58169230e-03,
           8.97247996e-03, -4.17092629e-02, -9.33535770e-02,
          -1.39426021e-02, -4.23230901e-02, -2.62852479e-02,
           4.98123579e-02,  9.73020401e-03,  5.41220829e-02,
          -1.05891981e-04,  1.44666992e-02, -1.74939074e-02,
           6.83752745e-02, -6.96791932e-02, -3.76484543e-02,
          -2.02810690e-02, -4.42132130e-02, -5.98073564e-02,
          -6.39588907e-02, -1.15673952e-01],
         [-5.19449823e-02, -1.05261564e-01,  6.07265718e-02,
          -3.73528242e-01,  3.12456131e-01,  1.02986343e-01,
           1.46817803e-01, -1.08005419e-01,  2.27292165e-01,
          -8.85746777e-02, -1.83838350e-03,  1.70801774e-01,
          -2.36954484e-02, -5.06059714e-02,  3.67469877e-01,
           2.50764899e-02, -4.67639975e-02,  3.05523664e-01,
           9.74937603e-02,  2.93488279e-02,  1.19603604e-01,
           8.58500774e-04,  1.67111978e-01,  6.55929372e-02,
           1.81976914e-01,  1.21527947e-02, -5.79424761e-02,
          -1.66932628e-01, -1.53752621e-02, -6.71006814e-02,
           1.65339895e-02,  1.75396338e-01],
         [ 1.04122737e-03,  3.09375301e-02,  1.41469035e-02,
          -2.83717901e-01,  7.00161904e-02,  1.35396600e-01,
           1.36748701e-01,  1.54286008e-02,  1.32246479e-01,
           1.37324631e-02,  2.38525178e-02, -3.38861421e-02,
          -5.01060821e-02, -1.29460841e-01,  7.90840983e-02,
          -6.11594953e-02, -6.37311935e-02,  3.15727323e-01,
           2.09034562e-01, -2.35308260e-02,  1.11077502e-01,
          -6.15132675e-02, -5.20469472e-02,  2.46893037e-02,
           1.48647875e-01,  1.54253572e-01, -3.31043825e-02,
           3.80894803e-02, -1.43893287e-01, -5.37731452e-03,
           1.45201804e-02, -3.48014720e-02],
         [ 5.25751375e-02, -9.40783694e-03, -4.85372022e-02,
           1.62831508e-02,  5.59524447e-02, -4.55444306e-02,
           4.17988375e-02, -3.14905308e-02, -4.77390289e-02,
          -5.56909032e-02,  1.96009651e-02,  7.42407003e-03,
           2.54282542e-02, -1.22002065e-02, -5.93803488e-02,
           3.32042463e-02,  3.15696374e-03,  4.65966202e-02,
           5.18770441e-02,  4.93096821e-02, -3.23755294e-02,
          -1.49401734e-02,  4.96516004e-02, -2.74817627e-02,
           3.24200317e-02, -4.81760204e-02,  4.83937003e-02,
          -3.30184065e-02,  1.49448710e-02,  3.74887250e-02,
          -4.75489311e-02, -1.97215062e-02],
         [ 3.30862775e-02,  3.90719101e-02,  4.17729542e-02,
          -4.42555174e-02,  7.30375350e-02,  7.57939219e-02,
          -7.52477944e-02,  7.27530271e-02,  7.91727304e-02,
          -4.39099856e-02, -5.39813861e-02, -4.82458360e-02,
           4.80221286e-02,  2.51415577e-02, -8.98521021e-02,
          -5.14330082e-02, -6.30874485e-02,  2.55587026e-02,
          -5.00847287e-02,  2.89942715e-02, -2.29520295e-02,
           2.69517712e-02,  2.06126571e-02, -3.67290750e-02,
          -3.55452932e-02, -1.28828719e-01, -3.43787856e-02,
          -1.47347555e-01, -4.80304882e-02,  2.87828352e-02,
          -6.09784797e-02,  7.05780759e-02],
         [-5.19793704e-02, -1.61988363e-02,  1.22394964e-01,
           5.30036017e-02, -1.91108078e-01, -3.79853845e-01,
          -1.54483587e-01, -3.64227831e-01, -9.69816819e-02,
          -4.70215194e-02, -1.59212407e-02,  1.36543065e-01,
          -7.30305687e-02, -7.53645673e-02,  2.14199051e-02,
           2.02473532e-02, -3.73491049e-02,  1.83047518e-01,
          -1.49465397e-01, -3.13498303e-02,  1.63964909e-02,
           5.23530953e-02,  1.58461452e-01, -6.50349539e-03,
           1.49523616e-01,  1.42521307e-01, -8.33016485e-02,
           2.61960834e-01, -3.33399296e-01,  1.60467271e-02,
          -4.88353297e-02,  1.23519219e-01],
         [ 2.53352057e-02, -1.80070236e-01, -3.76556367e-02,
           1.77081432e-02,  1.02108203e-01, -2.69802883e-02,
           1.61443669e-02,  4.15728316e-02,  1.04366094e-01,
          -3.99410054e-02, -9.23785791e-02,  3.45909834e-01,
          -2.97116153e-02, -1.81252360e-02, -1.00545026e-01,
          -6.43160716e-02, -3.83281559e-02,  3.34883720e-01,
          -1.63516831e-02, -7.68340006e-02, -2.36427531e-01,
          -1.51316687e-01,  7.69973174e-03, -4.53584306e-02,
           6.29895777e-02,  2.44485766e-01,  7.78377568e-03,
           3.67138147e-01,  4.67634313e-02, -5.73473275e-02,
          -5.98464049e-02, -5.00889542e-03],
         [ 1.33532174e-02, -3.07933521e-02, -1.71950504e-01,
          -4.05309886e-01,  1.17763884e-01,  2.20265880e-01,
          -2.90780514e-01,  2.53516138e-01,  2.68727511e-01,
           1.68919787e-02,  1.17919582e-03, -4.24355827e-02,
           6.02421071e-03,  4.48097754e-03,  2.05752671e-01,
          -4.29218542e-03, -7.28512928e-03, -1.35844015e-02,
           3.24351907e-01, -4.99182232e-02,  1.14954382e-01,
          -8.37348476e-02, -2.13576257e-02, -1.50441766e-01,
          -5.81134260e-02,  7.62009770e-02, -6.20569512e-02,
          -3.42021212e-02, -3.24209571e-01, -6.82097748e-02,
          -1.85406990e-02,  1.71438590e-01],
         [ 5.07651595e-03, -1.04168236e-01,  8.22855011e-02,
          -1.28863854e-02,  3.02104741e-01,  4.37676460e-02,
           1.75271332e-01, -3.21976453e-01,  1.68901652e-01,
           7.07561476e-03, -9.43721980e-02, -5.61873987e-02,
          -1.31258545e-02,  1.48211792e-02,  8.60894471e-03,
          -1.39424549e-02, -3.95197831e-02,  4.06546354e-01,
           2.20912650e-01,  6.67878799e-03, -1.74392555e-02,
          -4.68568765e-02,  1.87508002e-01, -3.72906215e-02,
          -7.38198459e-02,  4.47583556e-01,  8.72450008e-04,
           4.73190784e-01,  8.79991204e-02,  2.95018945e-02,
          -8.09827149e-02, -1.65933549e-01],
         [ 2.96930335e-02, -1.38340108e-02, -4.84129712e-02,
          -6.11264408e-02, -6.75799884e-03,  4.22656573e-02,
           3.50819575e-03,  2.90105697e-02, -5.77212982e-02,
          -1.24244485e-02,  1.81524288e-02,  2.06708573e-02,
           4.32921164e-02,  3.30755375e-02, -2.77988110e-02,
          -8.21200083e-04, -3.44538167e-02,  5.81519790e-02,
           5.90322725e-03,  1.33732371e-02,  5.31681851e-02,
           3.30555253e-02,  3.75482030e-02,  4.02801856e-03,
          -4.83090691e-02,  1.65114421e-02,  2.89535113e-02,
           4.46793623e-02, -1.96253173e-02,  7.16905668e-03,
           4.45625894e-02,  7.32942298e-03],
         [ 3.30597311e-02, -1.29853319e-02, -1.16421290e-01,
           1.04877345e-01,  5.64749092e-02, -1.29369393e-01,
          -2.05491319e-01, -3.44848037e-01,  1.80976018e-01,
          -5.05724773e-02, -2.57887486e-02,  3.75843346e-01,
          -5.41935377e-02, -5.07815816e-02,  1.59782469e-01,
          -9.46727488e-03,  1.73596863e-03, -1.13603383e-01,
          -2.45333351e-02,  6.80666137e-03, -1.04656346e-01,
          -2.17407476e-03, -3.37783426e-01,  5.04502773e-01,
           2.29617581e-02, -1.21708915e-01, -6.81157708e-02,
          -5.43917179e-01,  1.63260907e-01, -6.03970475e-02,
          -2.94782259e-02, -3.56774300e-01],
         [ 4.80287895e-03, -5.32091595e-02,  6.15374837e-03,
          -3.52406912e-02,  3.69596519e-02,  3.83040532e-02,
           6.87986016e-02,  7.93120936e-02, -1.60148114e-01,
           5.52828871e-02,  4.91225608e-02, -1.09274328e-01,
          -7.09348544e-03,  2.17155851e-02,  8.81017223e-02,
           2.90334858e-02, -4.76673134e-02,  5.11278845e-02,
          -1.54872471e-02, -1.02901459e-03, -1.14282249e-02,
           4.10100184e-02,  9.14747491e-02, -2.75938008e-02,
           1.08309142e-01,  7.53590092e-02, -2.36732252e-02,
           4.18088958e-02, -3.73240113e-02, -4.79978323e-03,
           5.92236258e-02,  1.96390189e-02],
         [ 4.90853228e-02, -1.28495932e-01,  1.08204670e-01,
          -3.09437782e-01,  2.15773374e-01, -1.51238656e-02,
           3.08353990e-01,  6.05383962e-02, -2.05898136e-01,
          -1.97252501e-02,  4.08196263e-02,  6.61925077e-02,
          -4.48322110e-02, -7.56945163e-02,  2.57588774e-02,
          -6.19497113e-02, -7.32402131e-02,  4.85501885e-01,
           1.14983052e-01, -7.77051598e-02, -8.94207656e-02,
          -6.65073469e-02,  1.85332954e-01,  1.34522561e-02,
          -2.09850725e-02, -5.62781608e-03, -1.49727631e-02,
           2.12743267e-01,  2.78805997e-02, -5.72102331e-02,
           1.59912053e-02,  2.03119993e-01],
         [-1.56773496e-02, -3.28853503e-02, -1.46692082e-01,
          -3.10342312e-01,  9.97009277e-02, -2.45556068e-02,
           1.75172910e-01,  1.08179256e-01, -3.22046399e-01,
          -2.39904467e-02,  2.63783485e-02, -4.10802066e-01,
           5.83429867e-03, -7.09170625e-02, -1.44408077e-01,
          -8.83565322e-02,  2.82175597e-02,  2.91376173e-01,
           1.31791130e-01,  2.11372413e-03,  1.26891702e-01,
          -1.08180337e-01,  1.82406038e-01,  2.13655159e-02,
          -6.23565651e-02,  1.61239147e-01, -3.69172469e-02,
          -6.72347918e-02, -3.20882559e-01, -4.48416360e-02,
          -4.77765203e-02, -1.99438035e-01],
         [-3.23610716e-02, -2.30058301e-02,  2.23784983e-01,
          -4.14695501e-01,  3.68876129e-01,  1.18092299e-01,
           2.02026531e-01, -1.89077049e-01,  2.87668318e-01,
          -2.89149443e-03, -4.29618098e-02,  2.17443164e-02,
          -8.41751993e-02,  7.76569126e-03,  1.85079142e-01,
           1.78073104e-02, -1.25062400e-02,  2.95706332e-01,
           1.21718109e-01,  1.50239542e-02,  2.94857502e-01,
          -2.19528209e-02,  2.26260766e-01, -1.14329504e-02,
           4.34833728e-02,  6.15151413e-02,  2.29261927e-02,
          -7.59262815e-02,  1.17358297e-01, -5.21719158e-02,
          -3.23467739e-02,  1.48321018e-01],
         [-4.77121919e-02, -1.34366438e-01, -1.23999894e-01,
          -1.17714360e-01, -9.09553692e-02,  5.80107979e-02,
           1.61919847e-01, -3.56598943e-01, -4.00921911e-01,
          -4.96956520e-02,  1.38453804e-02,  2.92690128e-01,
          -2.39036642e-02, -5.36360517e-02,  8.65663886e-02,
          -7.87561089e-02, -7.56196529e-02, -1.23994015e-01,
          -6.97072372e-02,  4.23512943e-02, -2.88265031e-02,
           1.21295877e-01,  8.37794412e-03,  2.16051061e-02,
           7.54647180e-02, -2.48018607e-01,  2.56283563e-02,
           2.81642199e-01, -1.04006849e-01, -2.40764208e-03,
          -5.29201329e-02, -2.38168091e-01],
         [ 3.44990715e-02, -9.59625170e-02, -1.26234934e-01,
          -9.03743058e-02,  1.57131448e-01,  3.89580950e-02,
           7.90548325e-02,  2.29836285e-01, -2.50957794e-02,
          -2.27643624e-02, -3.63871902e-02,  1.40402958e-01,
          -6.87052384e-02, -1.46908881e-02, -2.55789816e-01,
          -8.10554028e-02, -5.65734617e-02,  6.13056496e-02,
           2.71825582e-01, -8.16042423e-02, -2.47891292e-01,
          -8.18842798e-02, -1.50315940e-01, -4.70464975e-02,
          -7.10916743e-02, -1.36725888e-01, -6.92862412e-03,
           1.95908546e-02,  1.04769923e-01, -3.18400399e-03,
          -4.16667946e-02,  1.83809608e-01],
         [-6.22139499e-02, -8.25769156e-02, -5.36912717e-02,
          -4.80079129e-02,  2.11427689e-01,  1.52263835e-01,
          -6.84600100e-02,  1.63403660e-01,  3.29778463e-01,
           4.28980179e-02, -2.92858351e-02, -4.07406271e-01,
           2.50894632e-02, -7.49365389e-02,  1.37580484e-01,
          -6.66652694e-02, -8.35510790e-02,  1.05582520e-01,
           9.05110836e-02, -2.95749214e-02, -1.49452925e-01,
