[array([[ 3.25227976e-02, -4.90919575e-02, -3.15502100e-02,
         1.67923942e-02, -7.75966644e-02, -2.82925367e-03,
        -1.50766373e-02,  1.83091387e-02, -3.63414101e-02,
         6.82228431e-02, -5.16183972e-02,  2.77445465e-03,
         3.70395184e-02,  4.77243438e-02, -6.96531683e-03,
        -2.77886540e-03,  5.72077110e-02, -1.82537213e-02,
        -3.34099531e-02,  3.91253084e-03,  7.80286565e-02,
        -1.63386092e-02, -2.80066952e-02,  5.36956638e-03,
         2.39036083e-02, -7.24602938e-02, -7.86333531e-02,
        -2.74986438e-02,  4.52586189e-02,  8.06971267e-02,
         8.16369057e-03,  7.98123702e-02, -3.82638574e-02,
         4.14740816e-02,  2.98530087e-02,  2.31145024e-02,
        -5.29967360e-02,  7.86416605e-02,  4.43706661e-03,
         5.42972311e-02, -3.38546634e-02,  2.24509835e-02,
        -3.33185419e-02, -7.23935589e-02,  1.14814267e-02,
        -5.53849749e-02,  2.54351869e-02,  4.08148766e-02,
        -5.27792573e-02, -6.18670583e-02,  8.20985213e-02,
        -1.37419477e-02, -5.38141541e-02, -8.12855586e-02,
         3.72305512e-02,  6.54476061e-02, -5.13204560e-02,
        -3.95049900e-03,  5.80725297e-02, -3.52590494e-02,
         6.63870052e-02,  4.18449268e-02, -6.18582778e-02,
        -2.89740786e-02],
       [ 2.97395568e-02,  6.04621693e-02, -9.92555991e-02,
        -7.02626184e-02,  7.14746565e-02, -2.26512626e-02,
        -7.71434754e-02, -5.70186973e-02,  4.74173352e-02,
        -2.37232074e-02, -1.50614575e-01,  6.34692935e-03,
         1.22790590e-01, -7.36867711e-02,  7.02511147e-02,
         3.94397154e-02,  6.59387335e-02, -3.99962515e-02,
        -5.13152108e-02,  1.92295499e-02, -2.11335090e-03,
        -4.97387610e-02, -5.29757068e-02,  6.32684901e-02,
         1.06714413e-01, -5.62621877e-02, -4.44790870e-02,
        -7.66393729e-03, -6.35136515e-02, -5.40021360e-02,
        -2.37480327e-02,  6.02788962e-02,  4.77026962e-02,
        -1.23692537e-02, -5.61098568e-02, -5.70534496e-03,
         1.54229194e-01, -2.86459327e-02, -7.31412694e-02,
        -5.08945286e-02, -6.46399707e-02,  4.71129492e-02,
         4.19348627e-02, -1.54563226e-02, -6.13455512e-02,
        -5.87205589e-03, -3.72562325e-03, -5.00919372e-02,
        -6.14584200e-02,  5.71359769e-02,  5.87286130e-02,
        -2.81099672e-03, -7.34662265e-02, -4.24052589e-02,
         3.70472707e-02, -1.61551423e-02, -4.22140770e-02,
        -3.56517956e-02,  2.23714132e-02, -4.68909740e-04,
         1.19921360e-02,  7.64525160e-02,  6.39421567e-02,
         1.11640003e-02],
       [ 2.00445205e-02,  6.20852560e-02,  2.29522258e-01,
        -2.50398755e-01,  3.64840068e-02,  3.43398366e-04,
        -1.39086142e-01, -3.99204269e-02, -1.94925517e-02,
         3.43861096e-02, -6.14409242e-03, -4.20761555e-02,
        -3.67307924e-02, -1.15957737e-01,  1.93343148e-01,
        -1.25741437e-01,  2.92306114e-02, -9.98365805e-02,
        -1.03623292e-03, -1.03710614e-01,  1.52034918e-02,
        -1.02411553e-01,  5.09111062e-02, -1.77934512e-01,
        -3.78295146e-02,  4.24774699e-02, -1.02937795e-01,
        -6.93466663e-02,  2.42136747e-01,  3.62593196e-02,
        -6.54212981e-02, -7.73080215e-02,  8.68958831e-02,
        -5.33236526e-02,  1.64244756e-01, -5.47223613e-02,
         9.09746997e-03,  1.53482575e-02, -3.64102125e-02,
         7.11092576e-02, -2.83930730e-02, -4.96784598e-02,
         1.80197760e-01,  2.89478572e-03,  1.13466077e-01,
        -1.83772877e-01, -2.16175437e-01, -1.93517625e-01,
        -1.26786113e-01, -1.65692754e-02,  8.68431292e-04,
        -8.70585367e-02,  2.60875858e-02,  1.57241132e-02,
         3.22251648e-01,  9.44379624e-03,  5.84991043e-03,
         4.40998152e-02, -1.83209509e-01,  4.53371331e-02,
        -2.93473154e-02,  3.30058426e-01,  2.86312196e-02,
        -4.75707650e-02],
       [-4.16005775e-02,  1.60780609e-01,  3.78539562e-02,
         6.48216382e-02,  6.78259432e-02,  4.15043011e-02,
        -4.62352298e-02, -2.70869359e-02, -7.67311305e-02,
        -7.92156681e-02,  3.43133956e-02, -3.05804834e-02,
         2.23118695e-03, -2.55205393e-01, -9.58506018e-02,
        -1.19992003e-01, -4.80479226e-02,  3.13093588e-02,
         3.06393132e-02, -1.03683062e-01,  4.41642851e-03,
        -2.06273392e-01,  1.81057394e-01,  2.08301023e-01,
         1.33924142e-01,  1.81552209e-02,  1.10721745e-01,
         1.89204514e-01,  1.52229294e-01,  5.13368919e-02,
         7.86605012e-03,  1.32222131e-01,  5.31413630e-02,
         4.69671600e-02,  8.90229419e-02, -1.62692323e-01,
         1.31493792e-01,  5.56312874e-02,  1.28546134e-02,
        -3.61119932e-03,  1.07002907e-01,  6.24981001e-02,
         1.01792425e-01, -5.32573462e-02, -1.56681225e-01,
        -9.05797705e-02, -1.49719475e-03,  6.77995607e-02,
        -1.06619097e-01, -4.65812255e-03,  9.07444358e-02,
        -1.59692705e-01,  8.26139674e-02,  3.64217386e-02,
        -1.00481898e-01, -1.04594082e-01,  5.36805019e-02,
         1.14665218e-01,  6.11653626e-02, -9.03687477e-02,
         2.75526226e-01,  2.23774925e-01,  5.00191078e-02,
        -4.51175906e-02],
       [-8.29757154e-02, -3.57676931e-02,  2.57892795e-02,
         2.18954012e-01, -1.88489631e-01, -6.36119843e-02,
        -3.62786464e-02, -7.76152015e-02, -6.88108429e-02,
         3.34967636e-02,  1.57478914e-01, -7.96452537e-02,
         9.68284309e-02,  1.04959108e-01, -2.39928320e-01,
         1.73439637e-01, -3.45061570e-02, -5.67075536e-02,
         4.65734256e-03, -1.31626129e-01, -1.08531499e-02,
         4.49268639e-01,  4.48968485e-02,  1.45187951e-03,
         1.56231895e-01,  1.89850237e-02,  2.14667320e-01,
        -8.71755928e-03,  3.82597074e-02,  1.50252223e-01,
        -9.26388651e-02, -3.40509504e-01,  1.34552598e-01,
        -7.35043585e-02,  8.80796760e-02,  4.45749285e-03,
        -1.30236208e-01,  7.50371814e-03, -2.11060271e-02,
        -1.38681963e-01, -8.10890347e-02, -2.26931479e-02,
        -2.82872412e-02,  1.58811435e-01, -2.45614350e-01,
        -6.67031929e-02,  1.19028762e-01,  2.79945672e-01,
         1.80821382e-02, -2.67412830e-02, -2.54814416e-01,
        -2.51138926e-01, -9.22534689e-02, -8.35340917e-02,
         1.74119145e-01,  1.80536002e-01,  1.45194560e-01,
         2.66131610e-01,  3.44417274e-01,  1.10408501e-03,
         1.21120885e-01, -4.10650432e-01,  1.25346538e-02,
        -1.06525524e-02],
       [-1.72182888e-01,  7.51060918e-02,  7.50067383e-02,
        -9.68202278e-02,  2.70586848e-01,  5.60435615e-02,
         7.14990050e-02, -2.23683771e-02,  2.81519978e-03,
         1.50409453e-02, -1.42106429e-01,  9.80206672e-03,
         1.16529569e-01, -2.51162946e-01, -1.14656404e-01,
         5.46323806e-02, -1.71305072e-02, -1.67758867e-01,
        -2.66347118e-02,  7.82725140e-02, -9.99690145e-02,
        -1.25572532e-01,  1.47135764e-01, -4.99706939e-02,
         1.10079283e-02,  5.74613363e-03, -2.22065955e-01,
        -2.28243060e-02,  4.55609858e-01, -2.77746707e-01,
         7.33662620e-02, -1.31281540e-01,  1.93978712e-01,
         1.27075925e-01, -6.99967965e-02, -1.32041248e-02,
         3.20673704e-01,  4.16577384e-02, -1.06040910e-01,
         1.94397923e-02,  1.72395781e-01, -5.36877401e-02,
         7.92278349e-02,  4.45924811e-02, -3.64181101e-02,
         7.92920217e-02, -8.41671973e-02,  1.12214409e-01,
        -3.83307815e-01, -2.44370684e-01,  1.79997813e-02,
         1.32461652e-01,  9.24054347e-03, -2.24712417e-02,
         1.85479775e-01, -3.04479338e-02, -1.08043656e-01,
         1.55761406e-01,  7.15593994e-02,  6.50310814e-02,
         8.78367051e-02, -4.14144062e-02, -6.40018806e-02,
         7.12782070e-02],
       [ 1.33249328e-01, -1.67237893e-01,  8.83813053e-02,
        -1.72593281e-01, -3.14989746e-01, -1.97719540e-02,
        -1.28218800e-01,  4.45363484e-02,  5.02186641e-02,
        -3.05135995e-02, -1.16652727e-01,  5.60910776e-02,
         3.50562096e-01, -5.63836247e-02,  5.38433433e-01,
         8.27602819e-02,  2.58656684e-02, -2.25501731e-01,
         4.36388142e-02,  3.43159288e-01, -2.54651252e-02,
        -6.43921783e-03,  1.53397145e-02, -2.51278967e-01,
         1.09084792e-01,  2.98985451e-01, -3.58243138e-01,
         2.90585786e-01,  1.57933831e-01, -9.80819836e-02,
         1.42443940e-01, -3.28004882e-02, -2.74497747e-01,
        -1.45623490e-01, -1.91045448e-01,  1.15260519e-01,
        -1.44009113e-01,  5.38809504e-03, -5.22987805e-02,
         1.42073780e-01, -4.77450788e-02,  4.61671501e-02,
         1.26076385e-01,  1.18521592e-02, -2.35237062e-01,
         1.19605035e-01,  3.49770963e-01,  8.20339918e-02,
        -7.96423629e-02, -5.73292095e-03,  4.18710373e-02,
        -4.23043817e-02, -6.62850961e-02, -2.75281034e-02,
        -2.10821390e-01, -1.13557369e-01,  1.10745788e-01,
        -6.87232763e-02,  3.43246274e-02, -1.34002760e-01,
        -1.37749508e-01, -3.04413494e-02, -5.55522293e-02,
        -7.92648941e-02],
       [-1.93654612e-01, -3.33069451e-02, -1.23024911e-01,
         1.68950349e-01, -1.82181206e-02, -3.42921317e-02,
        -7.02128783e-02,  5.95918000e-02, -3.55858617e-02,
        -9.36777964e-02, -3.06229621e-01,  4.86411192e-02,
        -1.48016950e-02, -1.40464738e-01,  1.82674244e-01,
         2.04880416e-01,  1.17909983e-02,  2.09397869e-03,
         6.92753121e-02, -1.04989611e-01,  4.18079831e-02,
        -1.80573836e-01,  1.62002131e-01, -1.00748129e-02,
         6.44179061e-02,  2.40905911e-01,  3.06252539e-02,
        -3.27215701e-01,  3.14649791e-02,  7.74537474e-02,
         4.35832553e-02,  2.91719317e-01,  1.57179326e-01,
        -1.61915615e-01,  4.81154621e-02, -8.55811983e-02,
         1.05139598e-01,  2.44264975e-02, -1.52784716e-02,
        -6.00808747e-02,  1.81071192e-01,  2.15452891e-02,
         2.05351219e-01, -4.81128782e-01, -7.76182115e-02,
         9.97410640e-02,  1.49947405e-01,  6.54945374e-02,
         3.34629156e-02, -4.53331202e-01, -8.30900148e-02,
         4.86036390e-01, -1.23178791e-02, -9.80056971e-02,
        -2.20056877e-01,  9.34166014e-02, -7.43633136e-02,
         3.60679805e-01,  4.04685706e-01, -6.90336674e-02,
        -4.87329103e-02,  1.82716511e-02,  6.10711500e-02,
        -2.06521213e-01],
       [ 1.40897349e-01,  1.95702285e-01,  9.20649320e-02,
         2.71579772e-01, -9.18389857e-02, -2.93450933e-02,
        -9.40341353e-02,  2.57809311e-02, -4.22432795e-02,
        -3.23359780e-02, -1.62482291e-01,  5.36454003e-03,
        -5.73144734e-01,  4.31689434e-02,  1.29017904e-01,
         1.39230996e-01, -2.14588903e-02, -1.75063666e-02,
         2.55789724e-03, -1.28162205e-01, -6.78787455e-02,
         1.16100600e-02,  2.06411835e-02, -1.98303908e-02,
        -2.60045826e-01, -5.17224252e-01,  1.86394379e-01,
         3.64673696e-02,  4.57469374e-01, -2.71872990e-02,
        -5.92914484e-02, -1.46682784e-02,  2.84144014e-01,
        -6.91907406e-02,  1.88219979e-01, -1.83846876e-01,
        -1.05975471e-01, -3.25532593e-02,  7.82767404e-03,
         3.50952834e-01, -1.78286999e-01, -4.82754558e-02,
         2.27100383e-02,  1.55904189e-01, -4.21505958e-01,
        -5.02288081e-02, -2.66736805e-01, -5.18071093e-02,
        -1.67919695e-01,  6.60100430e-02, -3.16667631e-02,
        -1.58680081e-01, -8.03073645e-02, -3.51920761e-02,
         2.11619496e-01,  3.31326842e-01,  1.36190936e-01,
        -1.37735307e-01,  1.69017464e-01, -4.35377136e-02,
         1.24522492e-01, -1.75072551e-01,  1.09444372e-02,
        -1.18171118e-01],
       [-1.42208934e-02, -4.27148491e-03,  6.20606504e-02,
         1.40551506e-02,  2.70770118e-02, -5.78196049e-02,
         2.30192244e-02,  4.30659428e-02, -3.50979790e-02,
         5.32682315e-02, -1.39603391e-02,  7.00304881e-02,
        -2.96938084e-02,  1.26253050e-02, -3.86321470e-02,
         6.36313483e-03,  5.19847758e-02,  1.87166110e-02,
        -2.39910893e-02,  6.55458793e-02,  7.22236857e-02,
         7.00189993e-02,  5.16530648e-02, -1.42932031e-02,
         3.14581604e-03,  2.43016705e-02,  5.23187146e-02,
         5.27773760e-02, -9.09939408e-05,  4.93815020e-02,
         1.87755600e-02, -1.96854025e-03, -1.61061436e-03,
        -5.38667776e-02,  2.38876566e-02,  1.74738988e-02,
         8.79686847e-02,  8.23496059e-02, -2.79129148e-02,
         7.70734102e-02,  6.17771931e-02, -7.90492296e-02,
        -8.47510025e-02,  6.10999353e-02, -1.81822032e-02,
        -3.08133364e-02,  5.29452711e-02, -1.39749646e-02,
         1.66966318e-04, -8.63365829e-02, -1.14316568e-02,
         6.09309152e-02,  6.12578355e-02,  6.44812658e-02,
         1.16332872e-02, -4.89776880e-02, -6.13913685e-03,
        -1.46122715e-02, -5.24208695e-03,  4.64232191e-02,
         6.42025918e-02,  6.78805783e-02,  6.07560501e-02,
         5.48213720e-03],
       [-5.24707250e-02, -2.93612815e-02,  8.48291740e-02,
        -4.05498892e-02,  7.39191249e-02, -3.76006030e-02,
        -2.24882029e-02,  5.16180657e-02, -1.55271059e-02,
        -6.42414093e-02, -5.73031269e-02, -2.02851724e-02,
        -8.99877995e-02, -4.98866849e-02, -6.07534498e-03,
        -9.43061151e-03,  1.59518868e-02, -1.08257690e-02,
        -1.90763250e-02,  7.09442571e-02,  7.99486935e-02,
         7.28409141e-02, -2.85448004e-02, -3.73109356e-02,
         1.14549883e-03,  2.65017152e-02,  1.97469369e-02,
        -6.87228814e-02, -2.79954411e-02, -4.26438116e-02,
         6.21356331e-02,  6.89942017e-02, -3.58823687e-03,
         5.80672547e-03, -5.50905392e-02, -1.80387199e-02,
         9.23563167e-02, -3.50617766e-02, -4.61581862e-04,
         4.18496914e-02, -5.16654849e-02,  7.65154585e-02,
         6.91428259e-02,  6.16830774e-02, -3.41116488e-02,
         2.56437901e-02,  1.10266097e-02,  8.26444849e-02,
        -8.14182758e-02, -4.92191948e-02,  6.02536425e-02,
        -1.93295479e-02, -8.06258395e-02,  2.02222466e-02,
         8.39069635e-02, -3.05282976e-02, -1.51951313e-02,
         1.13396172e-03,  6.68743700e-02,  1.66872963e-02,
         6.17468096e-02,  2.55104620e-02,  4.80943099e-02,
         2.98428088e-02],
       [ 5.39842024e-02, -1.75573677e-01, -1.57816820e-02,
         1.84705108e-01, -1.50120826e-02, -8.42882022e-02,
        -2.17032414e-02, -1.07667550e-01, -2.85994597e-02,
        -9.90520194e-02, -8.35453346e-03, -1.33555708e-02,
         3.24217796e-01,  2.66254265e-02,  1.36056051e-01,
        -8.28352273e-02,  4.55270372e-02,  1.25317335e-01,
        -5.47448024e-02,  6.91430792e-02,  4.06229347e-02,
         2.01113746e-01,  2.05084309e-01,  2.32474312e-01,
         2.20556602e-01, -2.07076818e-01,  9.52090919e-02,
        -4.35305797e-02, -2.20412657e-01, -9.69338343e-02,
        -1.48271859e-01,  7.28303790e-02,  5.59575018e-03,
         2.17192471e-02,  1.13338791e-01, -5.57962619e-02,
        -1.79787219e-01, -8.56961086e-02,  1.93657093e-02,
        -2.19454870e-01, -5.03988937e-02, -1.03564024e-01,
        -2.52209961e-01,  2.87000537e-01, -2.63371523e-02,
        -2.72686835e-02,  2.37141728e-01,  1.91117778e-01,
         1.36795327e-01,  2.98128333e-02,  1.34236485e-01,
        -5.18394448e-02, -1.23854727e-02, -8.63280892e-02,
        -1.36772782e-01, -1.57615781e-01,  2.38509644e-02,
         1.38652816e-01, -2.60240734e-01,  7.06831831e-03,
        -1.18460208e-01, -1.49814352e-01, -7.90168568e-02,
        -2.73023359e-02],
       [ 5.81766665e-02,  5.94180487e-02,  1.44871576e-02,
        -1.60420258e-02,  9.82080251e-02,  3.66466269e-02,
        -2.46382952e-02,  9.65356827e-04, -3.48373428e-02,
        -8.02314281e-02, -3.66374366e-02,  1.79659575e-02,
        -5.49751185e-02, -2.67446488e-02, -2.51016393e-03,
        -3.63780260e-02, -3.14210728e-02,  3.72003652e-02,
        -3.00340652e-02, -3.87821719e-02, -6.89870045e-02,
         1.09143311e-03,  9.91696343e-02,  1.81298666e-02,
         7.06770644e-02, -2.31765434e-02,  5.64705953e-02,
         6.16796352e-02, -6.25007600e-02, -5.10868430e-02,
        -6.85617179e-02,  7.37694725e-02,  4.13059033e-02,
        -5.38516715e-02, -9.48139408e-04, -2.16140356e-02,
        -2.39285491e-02, -1.54738799e-02, -4.90258150e-02,
         4.43532541e-02, -4.86930944e-02, -1.65589899e-03,
         6.62396401e-02, -1.01801679e-01, -4.36566062e-02,
        -4.10562158e-02,  8.27745795e-02, -6.96609616e-02,
        -1.78365894e-02, -3.82610150e-02, -3.51541042e-02,
        -9.47014391e-02, -2.51007844e-02,  4.41582873e-02,
        -3.89080010e-02, -3.52874100e-02, -2.58555040e-02,
        -1.29754916e-02, -3.18045393e-02,  4.46374044e-02,
        -7.89565668e-02,  3.28667392e-03, -3.49457078e-02,
         6.16581216e-02],
       [-8.34269524e-02, -7.16718361e-02, -2.77908016e-02,
        -2.82072350e-02, -7.09817931e-02,  1.45597830e-02,
        -8.16163979e-03, -3.54064107e-02,  3.97584513e-02,
        -3.82819995e-02,  4.25907746e-02,  2.78288182e-02,
        -3.28531936e-02,  1.31947115e-01, -7.48412088e-02,
         6.82163686e-02,  4.19703014e-02, -3.77294943e-02,
         3.57897505e-02, -2.08015330e-02, -9.48915537e-03,
         6.85262159e-02,  2.52780598e-02, -3.94908711e-02,
        -2.92561837e-02,  1.17365964e-01, -8.43746141e-02,
        -7.00882152e-02,  8.63472894e-02,  5.75361028e-02,
         2.31335983e-02, -4.13885936e-02,  8.31978321e-02,
        -7.64557335e-04, -6.61241710e-02, -4.55831923e-02,
         4.23185937e-02,  4.01038304e-02, -7.85770565e-02,
        -7.25329518e-02,  2.62456723e-02,  5.10207638e-02,
         6.81156386e-03, -7.25983381e-02,  4.03737351e-02,
         5.55343069e-02, -7.64734298e-02, -3.44514847e-02,
         4.47018519e-02,  1.18652537e-01,  4.35411111e-02,
        -9.40823480e-02,  3.66491564e-02, -2.04408169e-03,
        -3.50285210e-02,  1.31740961e-02,  4.57978323e-02,
        -8.32166076e-02,  8.82879570e-02, -1.12930313e-02,
        -1.52969640e-02, -7.42496103e-02, -6.70925006e-02,
         2.24147663e-02],
       [ 8.68576113e-03, -1.11803122e-01, -1.52266428e-01,
         1.87084615e-01,  2.29774237e-01,  6.12956062e-02,
         1.71915106e-02,  4.61739302e-02,  4.03638966e-02,
         4.28868830e-02,  1.69241056e-01,  5.07578589e-02,
         3.87763321e-01,  7.18549415e-02, -1.02281235e-02,
         1.90592974e-01, -5.57926204e-03, -1.02873869e-01,
         4.32551978e-03,  5.47653325e-02,  1.41786607e-02,
         1.28812194e-01, -3.74864005e-02,  1.73894852e-01,
        -6.49654791e-02,  2.05403581e-01, -2.21087351e-01,
         4.84984107e-02,  1.26174688e-01,  1.00674339e-01,
         5.96133806e-02, -1.34851672e-02, -6.20605759e-02,
         1.02788173e-01, -1.26418378e-02,  1.53751165e-01,
        -5.01863323e-02,  1.06027750e-02, -2.96866409e-02,
        -1.03566349e-01,  2.59159375e-02, -7.05896169e-02,
        -3.59139666e-02, -4.12788205e-02,  1.98829979e-01,
        -1.62496239e-01,  3.01232077e-02,  1.02511391e-01,
        -4.04492617e-01,  1.89031988e-01, -5.77703528e-02,
         1.71791717e-01,  3.43690738e-02,  4.71890643e-02,
         4.46776636e-02, -1.58134803e-01,  7.37942159e-02,
         1.04278587e-01,  3.22700053e-01,  2.84375120e-02,
        -3.82806063e-01,  7.76578635e-02, -7.89285898e-02,
         5.25462478e-02],
       [ 3.62710543e-02, -1.54511258e-02, -2.31883638e-02,
         8.31755996e-02,  5.28751239e-02, -2.22932324e-02,
        -7.31970221e-02,  6.11103550e-02, -5.53395934e-02,
        -6.45097718e-02, -1.21112682e-01, -7.89665878e-02,
         1.12867758e-01, -5.46683930e-02, -8.65698531e-02,
        -2.40233378e-03,  3.72518562e-02, -4.20161374e-02,
         3.82248536e-02,  2.44450178e-02, -8.53006914e-03,
        -8.29037130e-02,  3.27870771e-02,  6.57969490e-02,
        -7.62308463e-02, -9.98997465e-02,  2.04353277e-02,
         3.99661809e-02,  2.73170415e-02, -7.50639290e-03,
         5.31439073e-02,  7.28438273e-02,  5.18690795e-02,
         1.23747051e-01, -7.86114112e-02, -1.09637016e-02,
         6.12325082e-03,  3.09803858e-02,  5.53428084e-02,
         2.11813953e-02, -6.32517040e-02, -7.89341778e-02,
         7.14724977e-03, -2.91220415e-02,  1.02522545e-01,
         8.67996216e-02, -2.94179525e-02,  7.05407262e-02,
         2.37229932e-02, -1.79446349e-03,  7.10010305e-02,
        -4.06729914e-02,  3.22661661e-02,  6.01602867e-02,
        -8.42806399e-02,  2.51985807e-03, -6.21045046e-02,
         5.93218626e-03, -5.14166690e-02,  3.41029987e-02,
         2.31527593e-02,  8.83228183e-02, -9.56344604e-03,
         2.05533728e-02],
       [ 7.09310025e-02, -1.36169652e-02,  9.00310744e-03,
        -5.07463701e-02,  7.87911192e-02,  2.32974440e-03,
        -2.75815781e-02,  6.31370619e-02, -6.50070086e-02,
         4.37751487e-02,  7.30430856e-02, -7.74424747e-02,
        -9.96011589e-03,  3.75601910e-02,  5.89782521e-02,
        -6.44370914e-02,  7.86117241e-02, -4.46327291e-02,
        -1.36466250e-02, -6.15267754e-02,  6.07805811e-02,
         4.59656119e-02, -2.95804143e-02, -3.89314704e-02,
        -7.81691521e-02, -3.78616676e-02, -6.96283430e-02,
        -7.66228437e-02, -6.51658839e-03, -2.14755945e-02,
        -3.83224897e-02,  5.37711009e-02, -4.39868383e-02,
        -1.29506811e-02, -4.01775315e-02,  3.53164673e-02,
         6.38761371e-03, -9.20722634e-03,  2.66714003e-02,
        -2.13769488e-02, -2.56784782e-02, -2.80642323e-02,
        -5.43302670e-02, -5.53382263e-02, -7.29915574e-02,
        -6.81660026e-02, -4.93729934e-02, -1.71012878e-02,
         1.23108253e-02, -2.30888519e-02, -7.62109160e-02,
         5.06590679e-02, -1.05235763e-02, -2.63655186e-03,
         5.59268286e-03, -4.14950661e-02,  7.47159943e-02,
        -1.59113761e-02, -4.19330560e-02,  5.69308773e-02,
        -2.24237945e-02,  1.52533074e-04,  7.59918168e-02,
         3.63935456e-02],
       [-1.34951681e-01,  6.43369334e-04,  5.30707091e-02,
         1.01509467e-01, -7.36033916e-02, -9.38728675e-02,
        -4.12201583e-02,  2.85955407e-02, -2.94874492e-03,
        -3.33058722e-02,  2.08410293e-01,  1.33185880e-04,
        -1.59261361e-01, -9.21278372e-02,  5.76713458e-02,
        -6.63940236e-02, -6.94542751e-02,  5.25931315e-03,
        -4.79909442e-02, -5.20075709e-02, -9.21105221e-02,
         8.41687769e-02, -2.85953674e-02,  7.08399713e-02,
        -6.23706244e-02, -1.85849249e-01, -7.49999508e-02,
        -9.55977514e-02,  1.05932482e-01,  5.02833314e-02,
         6.55953772e-03, -3.85299958e-02,  3.09678670e-02,
        -3.60579491e-02, -3.16183008e-02,  4.12552021e-02,
         1.56164959e-01,  3.47537622e-02, -8.90234932e-02,
        -2.25841254e-01,  2.36389920e-01, -3.75104696e-02,
         2.57561117e-01, -4.18291949e-02,  2.87988596e-02,
        -2.02631027e-01, -1.18269667e-01,  3.07827055e-01,
        -5.72229326e-02, -3.62864286e-01,  1.26663014e-01,
        -8.68120492e-02, -9.67976227e-02, -8.69871452e-02,
         5.30666299e-02, -4.63941582e-02,  7.69544616e-02,
        -1.54703707e-01,  5.19770198e-02, -6.59032837e-02,
         1.56799287e-01,  2.58077562e-01, -3.72067876e-02,
        -1.81281492e-02],
       [-1.98139980e-01,  5.32240421e-03,  1.73886970e-01,
         1.24523938e-01, -4.07492816e-01, -3.79881188e-02,
        -1.68504026e-02,  1.05587328e-02,  2.95971334e-02,
        -6.00804277e-02, -1.69412121e-01, -3.14686410e-02,
         1.08261138e-01,  1.37680285e-02,  1.27069265e-01,
        -4.09012213e-02, -1.12556279e-01, -1.19150572e-01,
         1.95911787e-02,  1.43478915e-01, -8.80377293e-02,
         2.19664752e-01, -7.18955100e-02, -1.38259292e-01,
        -4.02242616e-02,  1.23793148e-01, -1.47270069e-01,
         1.00179082e-02, -3.95450741e-02, -4.67840098e-02,
        -3.73048522e-03, -3.22016239e-01,  1.53497290e-02,
        -2.22254112e-01,  1.79550990e-01,  3.48247379e-01,
         3.50878201e-02, -9.01661888e-02,  5.41375857e-03,
        -1.93176270e-01,  2.33447686e-01, -6.76403791e-02,
         1.60985336e-01,  3.12755555e-02, -5.59896529e-02,
         7.91669711e-02,  1.82655334e-01,  1.18474372e-01,
         1.85189337e-01, -3.13666947e-02,  1.62123278e-01,
         1.36230215e-01, -1.08700521e-01, -4.22814563e-02,
        -3.38704765e-01, -1.60592005e-01, -2.63346955e-02,
        -1.28736302e-01, -8.48579630e-02, -6.44297078e-02,
        -1.58094928e-01,  8.31518471e-02, -8.29051435e-02,
        -3.84837985e-02],
       [-1.80785656e-02,  5.50149456e-02,  5.10130525e-02,
        -1.07293967e-02,  5.81619218e-02,  6.83800131e-03,
         8.14221576e-02,  6.08160347e-03,  7.05753937e-02,
        -7.84796923e-02, -6.28119931e-02,  3.53906974e-02,
        -6.81406772e-03,  3.36012617e-02,  6.13685101e-02,
        -4.17794585e-02,  1.81423649e-02,  5.55770472e-02,
        -7.82660246e-02,  1.25065828e-02,  2.92099491e-02,
         1.07486621e-02, -4.90146466e-02, -5.71768284e-02,
        -5.69709763e-02,  8.94370954e-03,  7.62190446e-02,
        -1.41486886e-03, -3.06516644e-02,  2.86392346e-02,
        -3.42294201e-02, -5.50607443e-02, -6.36520386e-02,
         5.73286451e-02,  8.02648142e-02,  6.99007837e-03,
        -5.12285940e-02,  7.58443847e-02,  5.63988164e-02,
        -1.43340454e-02, -5.67559078e-02, -4.01773304e-03,
         6.84236214e-02,  3.17009017e-02,  3.59289572e-02,
        -7.68576115e-02,  3.09692174e-02, -5.03215604e-02,
        -1.08007789e-02, -2.40944345e-02,  6.61216006e-02,
         4.24353592e-02,  5.32375351e-02, -1.41718015e-02,
        -5.81896165e-04, -2.61704959e-02, -6.26446232e-02,
         1.17106438e-02,  8.05477276e-02, -5.00755124e-02,
        -5.93030229e-02,  3.47540155e-02,  1.37875304e-02,
        -7.51090273e-02],
       [ 1.94968104e-01, -2.93620974e-01, -1.17920160e-01,
         1.37759268e-01,  8.40709284e-02,  2.95715686e-02,
         1.88885033e-02, -5.45943119e-02, -6.85710907e-02,
         1.25928791e-02, -4.47353385e-02, -6.12556078e-02,
         7.07765818e-02,  1.41118377e-01, -2.82466635e-02,
        -3.33598495e-01,  3.47811691e-02,  8.01710635e-02,
         2.93933805e-02, -5.82332201e-02, -6.01612441e-02,
         3.58164012e-01,  1.39465556e-01, -1.61298051e-01,
         7.24687800e-02, -1.31861240e-01,  8.00465420e-02,
        -1.63972571e-01,  2.12261587e-01,  2.53923014e-02,
         1.92929730e-01, -5.10091819e-02, -2.77053472e-02,
         2.60120686e-02, -5.17650008e-01, -1.00998409e-01,
         2.80246019e-01, -2.50130370e-02, -8.93766060e-02,
         1.54936656e-01, -5.32474555e-02, -7.94847310e-02,
         4.76142824e-01,  1.79510325e-01,  3.11866283e-01,
         4.00058985e-01, -1.92718446e-01,  3.46609205e-01,
        -6.77962229e-02, -9.39212367e-02, -6.37451485e-02,
         1.47574991e-01, -2.46879142e-02, -6.02221489e-02,
        -2.72007436e-01, -3.70669156e-01, -5.10919355e-02,
         2.06975251e-01, -2.56554987e-02,  1.37335166e-01,
         2.68377811e-01,  1.68276548e-01, -5.27672991e-02,
         5.09467609e-02],
       [ 4.72384738e-03,  7.07130060e-02, -5.55833653e-02,
         2.53804699e-02,  2.08116382e-01, -2.67014536e-03,
         6.43690675e-02, -8.65518898e-02,  4.73795608e-02,
        -2.62931734e-03, -2.55393051e-02, -7.70893246e-02,
        -7.10558742e-02,  1.18536994e-01,  1.68866739e-01,
         7.91859999e-02, -3.04685440e-02, -5.98631799e-02,
        -6.36048540e-02,  7.74946734e-02,  5.22039905e-02,
        -8.12350437e-02,  5.38202897e-02, -6.01698197e-02,
         6.54745707e-03,  5.68416007e-02,  1.52578093e-02,
        -4.15039435e-02, -1.97063312e-02,  1.75168514e-02,
         9.49191079e-02,  1.07181542e-01, -1.06562056e-01,
         1.89266875e-02,  3.60192475e-03, -5.89713864e-02,
         7.93059915e-02,  5.60229495e-02, -3.41321453e-02,
         1.04935423e-01,  1.06320672e-01,  4.25672159e-02,
         2.50006080e-01, -4.99634743e-02, -1.44970283e-01,
         2.15097383e-01, -8.34105983e-02,  5.29917479e-02,
        -9.46571901e-02, -8.10681507e-02,  4.56565619e-02,
         7.07521439e-02, -6.87048286e-02,  1.15957549e-02,
        -2.40822911e-01,  8.21525529e-02,  5.62450886e-02,
        -6.82178736e-02,  1.46822125e-01,  1.40567705e-01,
        -8.99941623e-02,  7.86790773e-02,  4.32687178e-02,
        -9.00600478e-02],
       [-7.58396927e-03,  6.96151480e-02, -8.57800990e-02,
        -5.46926260e-03,  2.25236148e-01,  1.81193985e-02,
        -1.04858309e-01, -8.02304875e-03,  5.96131459e-02,
        -1.84853636e-02, -1.83955491e-01, -7.50817731e-02,
         1.54150337e-01,  1.91537470e-01, -7.08167255e-02,
         2.82679766e-01,  2.74404809e-02, -9.19326469e-02,
        -7.98071995e-02,  3.21734250e-01, -6.61593750e-02,
        -9.06318724e-02, -2.22741291e-01,  1.70571953e-01,
         1.53775766e-01,  1.98614344e-01,  1.77584395e-01,
         3.96867506e-02,  2.78876603e-01,  1.67204455e-01,
         2.51124114e-01, -2.14459687e-01, -5.77384233e-02,
        -1.04650175e-02,  1.85428299e-02, -3.10343117e-01,
         1.44401759e-01, -9.46640819e-02, -1.05631500e-01,
         2.40515605e-01, -1.27865359e-01, -6.27442822e-02,
         7.56940991e-02, -1.29849613e-01, -1.50767028e-01,
         1.61482349e-01, -3.17332923e-01, -6.25160187e-02,
         1.08116709e-01, -2.09198743e-02, -3.77369076e-01,
         2.13597622e-03, -3.08881048e-02, -2.47549862e-02,
        -5.98321669e-02, -1.68844789e-01, -1.35727480e-01,
         2.21143305e-01,  3.20743322e-02,  1.24673821e-01,
        -4.66780424e-01,  1.80829525e-01,  1.71328150e-02,
        -1.90462694e-01],
       [ 1.38458414e-02,  3.38749518e-03, -9.08255652e-02,
         2.29851399e-02,  6.48745835e-01, -2.91460343e-02,
         6.44743890e-02,  5.72443046e-02,  5.42444177e-02,
        -3.80139872e-02, -1.14159741e-01, -3.46860029e-02,
        -1.67673100e-02,  2.96797440e-03, -9.14193988e-02,
         2.47537103e-02, -1.23328730e-01, -5.82920797e-02,
         1.28922418e-01,  2.33463186e-04, -2.73630656e-02,
         4.48213488e-01,  6.52569011e-02, -5.31188846e-02,
        -5.46641052e-01, -3.13123405e-01, -2.76983686e-04,
         4.00889218e-02,  1.78320929e-01,  1.87187940e-01,
        -1.46024287e-01, -1.20350480e-01,  3.71383466e-02,
         1.86544791e-01, -1.28789350e-01, -2.11705610e-01,
         4.89237346e-02,  3.21055651e-02, -8.94185677e-02,
        -3.93728644e-01, -2.24780571e-03, -1.09047502e-01,
         7.64946565e-02,  3.21883887e-01, -3.62415701e-01,
         1.71514452e-01, -2.94913352e-02,  2.06098124e-01,
         7.37989843e-02, -1.20938905e-01, -8.92549232e-02,
        -2.69079655e-02,  2.52148360e-02,  3.04266550e-02,
        -8.57568979e-02,  7.19680935e-02,  1.27524003e-01,
         2.60018229e-01,  1.25742987e-01,  4.98558171e-02,
         5.92537701e-01, -1.62465811e-01, -3.78380232e-02,
        -2.34560683e-01],
       [ 1.62951753e-01,  2.03364552e-03, -1.14094935e-01,
        -3.12896036e-02,  2.40774509e-02, -8.61053020e-02,
         8.98518264e-02,  4.77239639e-02,  1.08487010e-02,
        -5.74790034e-03, -3.57263863e-01,  1.43844774e-03,
         2.62591422e-01, -2.22248286e-02, -9.47787911e-02,
         2.55123913e-01, -7.91979358e-02, -1.61454365e-01,
         8.70140865e-02, -1.22373603e-01,  4.94099297e-02,
         1.37812838e-01, -1.01694264e-01, -3.61577906e-02,
         8.34151283e-02,  4.88687493e-02, -8.07402935e-03,
         3.57665837e-01, -1.01120621e-01,  2.93994367e-01,
         5.28738052e-02,  1.60797089e-01,  1.31957844e-01,
         8.21920559e-02,  1.33732736e-01, -1.23168372e-01,
        -9.46057364e-02, -8.54667798e-02, -1.43650798e-02,
         3.12156584e-02,  3.80120546e-01, -6.91173598e-02,
         5.17688058e-02, -9.78815109e-02, -1.38772458e-01,
         2.54024357e-01, -1.21042393e-01, -2.21429601e-01,
        -1.28350139e-01,  7.17977062e-03, -7.84159824e-02,
         1.69781819e-01,  1.70182083e-02, -8.52805451e-02,
        -3.37413788e-01, -2.21530214e-01,  1.68524366e-02,
         3.91284041e-02,  2.20564991e-01,  7.46579841e-02,
         3.53851438e-01,  6.89551085e-02, -8.31746981e-02,
         6.28609434e-02],
       [-1.01629168e-01, -4.20635827e-02, -1.39414147e-01,
         1.96829036e-01, -2.35561475e-01,  4.12171483e-02,
        -1.76165272e-02,  1.57284760e-03, -6.36011064e-02,
        -5.43639027e-02,  1.46398142e-01, -3.81354317e-02,
        -7.45065585e-02,  3.07837635e-01,  3.15723777e-01,
         2.24426370e-02,  3.66768576e-02,  4.16398086e-02,
         6.78866683e-03,  1.16148241e-01, -7.08273649e-02,
         2.04022259e-01, -3.04671824e-01,  3.16828154e-02,
        -4.11187522e-02,  1.57423481e-01, -8.14034268e-02,
         1.91896245e-01, -2.08007470e-01, -1.14574537e-01,
         9.19711892e-04, -2.75148958e-01, -2.10952610e-02,
         1.80241302e-01,  1.23630771e-02,  9.53897536e-02,
        -2.63244390e-01, -9.60898548e-02, -2.59025265e-02,
        -1.50501594e-01,  2.52555907e-01, -4.84083295e-02,
        -9.96499062e-02,  1.37623191e-01, -9.18711647e-02,
         1.33512974e-01, -1.41772866e-01, -1.99779626e-02,
         7.89892003e-02,  3.72778296e-01, -1.19116440e-01,
        -6.91833124e-02, -9.81225595e-02, -9.09714401e-03,
        -1.22355334e-01, -1.59336627e-01, -1.66401774e-01,
         3.79132539e-01, -1.92734867e-01,  8.57081488e-02,
         4.79173940e-03, -2.60756582e-01,  1.31026879e-02,
        -2.37194106e-01],
       [ 1.18542388e-01, -3.66310887e-02, -4.33261320e-02,
         1.29968166e-01, -2.15407852e-02,  3.79852876e-02,
        -1.75376758e-02, -3.15188989e-02, -4.15286645e-02,
         4.07415256e-02,  1.06009552e-02,  7.70474151e-02,
        -2.05437228e-01,  4.15725335e-02,  1.76540706e-02,
        -3.82438712e-02, -2.15352178e-02,  6.59169033e-02,
        -4.15727124e-02, -5.66852987e-02, -7.56369233e-02,
        -1.82667337e-02,  1.59848973e-01,  8.93101469e-03,
         4.39742208e-02, -3.50380987e-02,  4.75340672e-02,
        -9.23080835e-03,  2.94902492e-02,  7.33013898e-02,
        -2.24888325e-02,  5.48251830e-02,  1.05756456e-02,
         1.09225223e-02,  6.25410527e-02, -5.79687543e-02,
         8.35372433e-02,  1.91358924e-02,  7.84126744e-02,
         1.80342138e-01,  1.98127422e-02,  4.01404500e-02,
         7.17602149e-02,  9.51949209e-02,  3.94799821e-02,
         3.00446525e-02, -5.29278703e-02, -5.02999723e-02,
         2.44827513e-02, -4.61188145e-02, -5.01835607e-02,
         8.73320177e-03,  2.08648443e-02, -8.32744837e-02,
         2.11467743e-02,  1.13459587e-01, -1.51703581e-02,
         9.02339816e-02, -6.53578416e-02,  6.94048405e-02,
         5.08373650e-03, -3.27863060e-02,  6.81705251e-02,
        -7.36358240e-02],
       [ 2.12034583e-02,  3.51771414e-01,  1.32235825e-01,
        -1.48043036e-01, -2.24847533e-02,  1.95509642e-02,
        -9.11007971e-02, -1.12522021e-02, -8.77436921e-02,
        -7.12370053e-02, -1.60084203e-01, -3.14931013e-02,
         6.27183169e-02,  1.54938605e-02,  4.06092294e-02,
        -2.43516415e-01,  1.98518187e-02, -2.62340647e-03,
        -2.25590188e-02, -1.61627084e-01,  1.44423377e-02,
         3.22867513e-01,  1.20674439e-01,  6.45360723e-02,
         1.48457140e-01, -4.44730371e-02, -9.98586640e-02,
         2.26696625e-01, -8.68570730e-02,  2.26291031e-01,
         6.24678135e-02, -1.82029963e-01, -2.50061993e-02,
        -3.26442011e-02, -2.21146923e-03,  2.38933191e-01,
        -1.17975309e-01,  5.48115186e-02, -8.48414153e-02,
        -2.10639358e-01,  2.13150367e-01, -4.37464938e-02,
         2.79740803e-02,  1.94348902e-01, -1.04563415e-01,
         2.18948260e-01, -5.04240133e-02, -1.03437334e-01,
         3.78293097e-01,  2.11991053e-02, -1.52730033e-01,
         1.11339599e-01, -1.16484031e-01, -2.12917011e-02,
        -3.67656201e-01,  5.10319415e-03,  7.13293031e-02,
         2.51873732e-01,  2.93753654e-01,  1.76626727e-01,
         4.62610759e-02,  7.69245476e-02, -3.75200026e-02,
         1.93521455e-01],
       [-9.20525659e-03, -1.01358786e-01,  2.36320794e-01,
        -1.57771274e-01, -2.41296694e-01, -1.67198889e-02,
        -3.42496708e-02, -1.00067072e-01, -2.47476529e-02,
         2.79450677e-02, -3.71668078e-02,  3.57158221e-02,
         5.79120852e-02, -6.18984923e-02,  2.33962774e-01,
         2.47604512e-02,  8.45850352e-03,  9.83091816e-02,
        -8.73883218e-02,  9.95374471e-02,  1.47864185e-02,
        -3.03124875e-01,  1.99300557e-01, -1.21305332e-01,
         5.04661631e-03,  1.22073367e-01,  6.19817935e-02,
         9.17322114e-02, -5.23901105e-01, -1.51331723e-01,
         2.32977957e-01, -2.26312399e-01, -6.22023083e-02,
        -1.63822293e-01, -3.45095210e-02,  5.99344671e-02,
         2.05229044e-01, -3.47277671e-02,  1.83565486e-02,
        -3.50962162e-01, -9.04603079e-02,  5.94433583e-02,
         1.35582443e-02,  2.55805731e-01,  4.12244983e-02,
         2.27462336e-01,  3.76274139e-01,  1.93059333e-02,
        -1.71318650e-01,  1.34312242e-01,  1.04351312e-01,
        -1.77738927e-02, -6.78117275e-02, -6.58364818e-02,
         2.73731183e-02, -1.48807287e-01, -1.32341683e-01,
         1.44130975e-01, -3.64499055e-02,  2.34342009e-01,
        -1.58004984e-01, -7.26681203e-02, -3.45691033e-02,
        -2.71248724e-02],
       [ 6.70225248e-02,  8.16015229e-02, -6.84362277e-02,
         6.60519823e-02, -4.77711968e-02,  6.72130361e-02,
        -7.44411573e-02, -6.44100308e-02,  7.62680843e-02,
        -4.06176262e-02, -4.27478775e-02,  8.14001039e-02,
         7.90037885e-02, -2.57482342e-02, -1.93167701e-02,
        -4.98167872e-02, -1.80676803e-02, -2.62677670e-02,
        -2.93417573e-02,  5.64090833e-02, -1.42991543e-03,
        -5.58018684e-04,  6.36698678e-02,  5.73372319e-02,
        -3.57414484e-02,  1.51822567e-02, -2.69449949e-02,
        -3.78303155e-02,  4.35092226e-02, -7.76749849e-03,
        -3.92755121e-03,  2.29417682e-02,  5.24550751e-02,
         7.56037235e-03, -2.31932625e-02,  3.07403579e-02,
         6.76643476e-02,  4.34910730e-02, -3.01999673e-02,
        -5.89199886e-02, -8.60246271e-03, -1.23915821e-03,
         4.76090536e-02,  4.23492268e-02, -4.54390049e-02,
        -3.98377329e-03, -3.86506319e-02, -1.74220800e-02,
         8.06416646e-02, -6.65523857e-02,  3.88837084e-02,
         3.17701697e-02, -7.57435188e-02, -4.27964740e-02,
        -7.40385056e-03, -3.69929299e-02,  1.70224309e-02,
         8.16101506e-02,  7.90509358e-02, -2.92577557e-02,
        -6.84015602e-02,  8.28544050e-03, -2.94137411e-02,
        -6.66387677e-02],
       [-1.98920108e-02, -8.04184228e-02, -6.48431107e-02,
        -5.56138642e-02, -5.78705482e-02, -4.87330966e-02,
         5.44778630e-02, -5.43920137e-02,  4.91119288e-02,
         1.53526932e-03,  1.79964732e-02,  5.56939282e-02,
         5.11354767e-02, -6.80683032e-02,  5.61203212e-02,
         1.47563349e-02,  7.59743676e-02,  8.01245100e-04,
        -7.61990994e-02, -2.69833803e-02,  2.46593636e-02,
         4.49765958e-02, -8.74890294e-03,  3.27682346e-02,
        -7.59571493e-02,  2.28147879e-02,  9.07809567e-03,
         8.14799890e-02, -2.47569904e-02, -7.02026859e-02,
         4.27275375e-02,  1.60885155e-02,  6.25506267e-02,
        -2.28346065e-02, -8.56271163e-02,  1.55006745e-03,
         1.31965000e-02,  4.19308543e-02,  5.19422330e-02,
        -3.87684666e-02,  2.25727204e-02,  6.80524483e-02,
         2.15985859e-03,  8.42050016e-02,  6.94464073e-02,
         5.98752126e-02,  6.35773093e-02, -3.24200653e-02,
         2.34237351e-02, -6.96602166e-02,  9.06124152e-03,
         3.84217650e-02, -5.84335700e-02,  5.31770997e-02,
        -3.32836583e-02,  7.66739249e-02, -3.36895399e-02,
        -2.17199475e-02, -4.64854501e-02,  4.32214215e-02,
        -2.34637912e-02, -7.45259449e-02, -4.19654697e-03,
         7.02868477e-02],
       [-2.31049992e-02, -1.11503124e-01,  1.70047686e-01,
        -3.59904379e-01,  1.02341197e-01, -1.48138944e-02,
        -7.73383677e-02, -6.58637434e-02,  3.19694616e-02,
         2.62971334e-02,  3.04190993e-01, -8.95626619e-02,
        -3.17136897e-03, -8.96132365e-02, -2.14793142e-02,
        -1.60878643e-01, -1.00413159e-01, -1.64827093e-01,
        -4.90140840e-02, -9.86310188e-03, -2.53719725e-02,
         2.28820026e-01,  2.07957178e-01, -1.45497590e-01,
         4.37960634e-03,  4.48310412e-02, -2.79579014e-01,
        -8.09901953e-02,  1.24238610e-01,  1.80172399e-02,
        -1.61302403e-01, -1.30974591e-01, -1.44479677e-01,
        -9.16570723e-02,  9.03589875e-02, -3.45075466e-02,
         1.62772432e-01, -6.97559193e-02, -6.98840171e-02,
         4.81988490e-02, -9.96261686e-02,  2.47328151e-02,
         2.00682968e-01,  8.94403011e-02, -2.67691582e-01,
        -8.32473785e-02,  7.93341845e-02,  3.28847885e-01,
        -1.57472655e-01,  1.12899795e-01, -8.58718827e-02,
         7.45264217e-02, -1.62890758e-02, -3.19204889e-02,
         2.84679532e-01,  1.66647375e-01, -3.68546620e-02,
         1.31689534e-01,  9.85030457e-02,  2.84165284e-03,
        -1.17670134e-01, -9.46496353e-02,  8.38117823e-02,
        -1.47029862e-01],
       [ 3.80138196e-02,  2.35627610e-02,  5.64683340e-02,
         4.11534645e-02, -9.82588623e-03, -5.83654642e-02,
        -2.27377582e-02, -3.09549272e-04,  5.27848974e-02,
        -2.04008222e-02, -3.56236659e-02, -2.52848528e-02,
         3.55994888e-02, -4.34608310e-02, -3.89515236e-02,
        -7.82161877e-02,  3.06374412e-02, -3.80641520e-02,
         5.16224280e-02, -7.95780420e-02,  6.07889630e-02,
         5.94868734e-02, -5.82127795e-02,  1.57842636e-02,
        -3.74200158e-02, -1.78439617e-02, -1.79427862e-02,
        -6.20243549e-02, -4.99143787e-02, -6.15972094e-02,
        -3.26113924e-02,  6.77045211e-02,  1.30114928e-02,
         2.81326771e-02,  4.42770012e-02, -5.85168004e-02,
        -2.59387866e-02, -4.07875180e-02, -6.91093430e-02,
         7.80832246e-02,  2.28662491e-02,  5.72166666e-02,
        -5.79257905e-02, -4.82925326e-02, -3.74699496e-02,
         5.18062785e-02, -3.06087732e-03, -2.72475891e-02,
        -4.25781608e-02, -8.06359053e-02,  3.60637531e-02,
        -1.39274821e-02, -7.94418901e-02,  7.41362050e-02,
        -3.51071544e-02, -3.36091369e-02, -4.04789858e-02,
        -2.02227011e-02, -7.01615438e-02, -3.30765247e-02,
        -1.61999762e-02,  7.49427602e-02,  3.66102681e-02,
        -1.15650892e-03],
       [ 3.90539989e-02, -8.44150335e-02, -1.01200327e-01,
        -4.35998440e-02, -1.12267897e-01,  3.85814793e-02,
         5.63536584e-02,  4.05585356e-02, -2.25358326e-02,
         5.83504811e-02, -1.10874481e-01,  7.18034357e-02,
         1.04634784e-01,  1.01925917e-01,  1.41762542e-02,
         2.14944091e-02,  7.40761161e-02, -3.84348892e-02,
         7.64024034e-02,  1.05147492e-02, -6.25094920e-02,
         4.10218984e-02,  1.83011182e-02,  4.28877771e-02,
         1.87574383e-02,  7.53372312e-02, -6.31965324e-02,
        -1.08806163e-01, -1.05528571e-01,  2.38993783e-02,
        -2.83662081e-02, -7.73475273e-03,  4.75034304e-02,
         2.68108938e-02, -6.02000505e-02, -3.47067229e-02,
         8.38196129e-02,  7.03413710e-02, -7.99790397e-02,
        -3.38666774e-02,  2.17675678e-02,  4.14000377e-02,
         8.47886428e-02,  2.56337356e-02, -6.96722269e-02,
         6.38713464e-02, -2.56831590e-02,  1.04659349e-01,
         2.94104218e-02,  3.03092820e-04, -3.41456011e-02,
        -1.43228859e-01,  1.06465193e-02,  4.16105986e-03,
        -1.36491342e-03,  1.06397070e-01, -3.45876217e-02,
         2.08296329e-02,  6.05273992e-02,  2.42939219e-02,
         8.71336311e-02, -2.58886479e-02,  7.16154650e-02,
        -5.49356937e-02],
       [-9.05433670e-02,  1.28463447e-01,  2.76252441e-02,
        -1.93455592e-01,  2.20161274e-01,  6.91502839e-02,
        -2.87664719e-02, -1.88323185e-02, -1.10517725e-01,
         1.10880539e-01, -4.64184672e-01, -8.10288116e-02,
        -8.46370906e-02, -5.23200631e-02,  2.96826005e-01,
         1.72724247e-01, -1.33354202e-01,  3.89996767e-02,
         1.63789187e-02,  3.02977651e-01,  1.83342025e-02,
        -1.35903478e-01, -1.78182960e-01,  1.32578209e-01,
        -1.53819799e-01, -3.79088342e-01,  4.57309596e-02,
         4.36662138e-02, -2.63402998e-01, -4.85588871e-02,
        -2.63542742e-01,  3.34092826e-01,  2.84649640e-01,
         1.70251966e-01,  9.94588882e-02, -2.52844691e-01,
        -1.51163191e-01, -1.14239929e-02, -4.73305881e-02,
        -4.98607606e-02,  3.02889436e-01, -6.13478012e-02,
         2.18311429e-01,  2.21742213e-01, -2.82193795e-02,
         3.03655177e-01, -4.49050851e-02, -8.63702968e-02,
        -3.63553673e-01,  5.01932502e-01,  7.04466701e-02,
        -3.53656679e-01, -7.96262622e-02, -4.86279018e-02,
         2.27020800e-01,  1.94398671e-01, -5.91735728e-02,
         9.99562144e-02, -3.94679373e-04,  1.79976732e-01,
        -9.54948142e-02,  3.09988052e-01, -2.70345211e-02,
        -5.03853932e-02],
       [ 1.35134548e-01,  4.88069057e-02,  1.92363560e-01,
         1.43701464e-01,  3.82429034e-01, -5.48569113e-03,
         1.91460252e-02,  2.68141627e-02,  3.33564281e-02,
        -2.31926348e-02,  7.08220303e-02,  4.93558124e-02,
        -7.12120682e-02, -1.91969082e-01,  3.47844139e-02,
        -1.87363505e-01,  5.70801646e-03, -1.07389614e-01,
        -8.13082457e-02, -1.34228498e-01, -1.17497668e-02,
        -3.14448208e-01,  2.92778611e-01, -4.43863533e-02,
        -2.09361255e-01, -2.22590044e-01,  4.14076634e-02,
        -5.68255931e-02, -3.99475023e-02, -1.80991050e-02,
        -2.18191877e-01,  7.89401215e-03, -3.74364227e-01,
         3.77851158e-01, -6.94889575e-02, -4.29982804e-02,
        -1.07697532e-01,  2.19532028e-02, -5.83544187e-02,
         1.25673622e-01,  2.33213946e-01,  1.18943304e-03,
        -1.43563002e-02,  2.65391260e-01, -2.09508464e-02,
         9.11038443e-02,  2.09644884e-01, -1.29412889e-01,
        -8.13414752e-02, -2.26265714e-01, -6.36831075e-02,
        -9.69218835e-02, -6.36142343e-02, -2.81561427e-02,
        -1.51955977e-01, -2.88806379e-01, -3.53255309e-02,
         6.98502064e-02, -8.35676095e-04, -7.23851398e-02,
         1.29780859e-01, -1.12161793e-01, -8.18607956e-03,
         1.05668036e-02],
       [-1.22262783e-01, -1.88833356e-01,  2.90584844e-02,
         1.23602577e-01, -2.54584461e-01, -5.37349470e-02,
        -9.87441912e-02, -3.28086503e-02, -6.46807328e-02,
        -9.04367790e-02, -2.77558088e-01, -5.38943037e-02,
         2.49848157e-01, -1.30320683e-01, -2.99368471e-01,
        -1.17835283e-01,  5.59469648e-02,  3.51596884e-02,
        -1.02342824e-02,  4.46877927e-01,  7.72001036e-03,
        -2.23770455e-01, -7.18431622e-02,  1.80388615e-01,
         7.13753328e-02,  4.08400893e-01,  2.12629855e-01,
        -2.90509254e-01, -1.69768259e-02,  7.08663985e-02,
        -4.52454090e-02, -7.77302906e-02,  1.51927218e-01,
        -9.26336199e-02, -7.98199847e-02,  2.19452873e-01,
         2.53426224e-01, -5.99639006e-02, -9.39439237e-03,
        -6.75252378e-02, -2.02041745e-01, -2.77994182e-02,
        -2.38290608e-01,  3.43188077e-01,  1.57980278e-01,
        -2.15815902e-01, -1.67332534e-02, -2.95527522e-02,
        -2.01422289e-01,  5.51047595e-03, -3.14259440e-01,
        -2.77631432e-01, -4.79294360e-02, -7.43048191e-02,
         2.32064500e-01, -1.80810779e-01,  1.26379598e-02,
        -5.21669462e-02,  8.08620974e-02, -8.32068324e-02,
         2.77990103e-01, -9.03036743e-02,  4.09523621e-02,
         1.88994437e-01],
       [-1.18769512e-01,  2.02054884e-02, -6.49758130e-02,
         1.28951862e-01, -2.03062762e-02, -1.66799761e-02,
         1.74848381e-02, -4.32410687e-02, -9.43413675e-02,
        -6.96168095e-02,  7.15738386e-02, -1.21423211e-02,
         4.87309368e-03, -1.45525247e-01, -1.01921819e-01,
         1.20120130e-01, -1.09679727e-02,  3.66081409e-02,
        -5.27814962e-02,  3.06502376e-02,  3.08665466e-02,
        -1.34759262e-01,  1.15762107e-01, -1.48016036e-01,
         1.09024853e-01,  6.81166574e-02,  3.01456600e-02,
        -1.04416355e-01,  1.65138915e-01, -2.35127017e-01,
         6.43096194e-02, -6.46967515e-02, -8.54410157e-02,
        -1.61180124e-01, -1.95763201e-01, -1.17755368e-01,
        -3.64117846e-02,  5.20281587e-03, -6.12216964e-02,
         2.02730615e-02, -1.16829833e-04, -8.80105793e-02,
        -4.45240140e-02,  2.89733447e-02,  7.55766556e-02,
        -1.74481794e-01, -3.31334071e-04, -1.46359339e-01,
         4.66461256e-02, -1.57691929e-02,  1.49908392e-02,
         6.10298552e-02, -4.34996486e-02, -8.81609619e-02,
         1.29377112e-01, -2.51426431e-03, -6.23326562e-02,
         1.56632304e-01, -4.47623245e-02,  1.09915785e-01,
        -1.62869602e-01, -1.51327237e-01,  5.72133530e-03,
        -8.18198919e-03],
       [ 5.34086823e-02, -4.34994064e-02, -1.23116812e-02,
         3.08698136e-02,  1.08585186e-01, -5.47841825e-02,
        -5.11111729e-02, -2.19726488e-02, -6.67282492e-02,
        -3.95337641e-02,  1.66492999e-01,  2.68119890e-02,
         3.72205198e-01, -2.59123623e-01,  1.73000336e-01,
        -1.84899852e-01, -7.70044550e-02, -7.65498802e-02,
        -5.60936555e-02, -2.03352422e-01, -4.08310024e-03,
         1.20353863e-01,  2.05467835e-01, -5.91960773e-02,
         2.68804729e-01,  1.38034284e-01,  2.02292856e-02,
        -2.24200875e-01, -9.08162631e-03, -7.83727542e-02,
         3.36383120e-03, -4.96476330e-02,  1.09098218e-01,
         2.65964478e-01, -1.18891641e-01,  3.06836009e-01,
        -1.69891566e-01,  2.93319654e-02, -2.91241631e-02,
        -2.83504635e-01,  7.96098635e-02, -1.50729362e-02,
        -2.93453466e-02,  8.18619728e-02, -1.12084471e-01,
        -1.17337860e-01,  3.39059383e-01,  1.47280559e-01,
        -1.43040763e-02,  3.43465991e-02,  1.10625573e-01,
        -2.56447226e-01, -5.21664023e-02, -7.91840907e-03,
         2.31393516e-01, -2.43273880e-02, -1.84458062e-01,
        -2.63600528e-01, -6.12863563e-02, -1.19675666e-01,
         1.15709566e-01, -1.37732148e-01,  2.08484158e-02,
        -1.23769045e-01],
       [ 1.21118657e-01, -1.31760895e-01,  9.52400789e-02,
         1.62245363e-01, -1.63558856e-01, -2.69790944e-02,
        -1.00122411e-02,  3.74727808e-02,  1.68598462e-02,
        -7.62523115e-02, -9.27721187e-02,  3.23498435e-02,
         1.84780255e-01, -4.19678539e-02,  5.98733485e-01,
        -2.73786157e-01,  3.24608982e-02, -3.02350789e-04,
        -5.09089120e-02,  5.18670008e-02, -6.97343275e-02,
        -2.01978698e-01,  1.92036361e-01,  3.79244722e-02,
        -1.99699670e-01, -8.62120017e-02,  7.83223957e-02,
        -5.04040658e-01, -1.85716584e-01,  1.16988905e-01,
         2.83064544e-01,  1.50722906e-01, -8.13907534e-02,
        -3.23665321e-01, -1.38849422e-01, -4.12035920e-02,
         3.72204557e-03, -1.91557128e-02,  5.42062484e-02,
        -1.16080577e-02,  2.07994252e-01, -8.80718455e-02,
         2.11319122e-02,  4.00955409e-01, -2.22935036e-01,
         3.23420428e-02,  2.00274214e-01, -4.02228683e-02,
         2.28008591e-02,  1.60558615e-02,  4.93369438e-03,
         5.82333431e-02, -3.78605202e-02, -2.85740402e-02,
         2.11523816e-01,  1.19240142e-01, -1.41719192e-01,
         3.55552807e-02, -1.73823044e-01, -1.56649843e-01,
         3.52338813e-02, -1.10994354e-01, -6.79611936e-02,
        -3.41717377e-02],
       [ 2.06540093e-01, -4.26325388e-02, -2.95310676e-01,
         1.92608573e-02,  3.27013224e-01, -3.59641202e-02,
         9.98726189e-02, -7.13588968e-02, -4.62465920e-02,
         4.71506827e-02,  3.56101635e-04, -5.27780969e-03,
        -8.95488560e-02,  2.67205760e-02,  2.98447222e-01,
        -1.00169949e-01, -2.07586447e-04, -6.07592128e-02,
         7.46519044e-02,  2.76922345e-01, -5.51819243e-02,
        -3.69229913e-02,  1.53209165e-01,  1.29065111e-01,
        -3.10297728e-01, -4.89148833e-02, -7.72738755e-02,
         1.51204839e-01, -3.08446102e-02, -4.67647351e-02,
        -1.80614859e-01, -1.37039334e-01,  2.75241472e-02,
        -1.00095771e-01, -1.71372280e-01,  2.30920352e-02,
        -1.13979891e-01, -7.39548132e-02, -1.10353149e-01,
         2.65386939e-01,  2.90062129e-01,  1.07337139e-03,
         2.16981098e-01, -1.59487605e-01, -1.15850431e-04,
         3.33569139e-01, -1.88526765e-01, -4.27798666e-02,
        -3.43727142e-01,  2.99313162e-02, -2.64404386e-01,
         1.79205909e-01,  1.22372422e-03, -2.12169886e-02,
         6.77528232e-02,  1.04961380e-01, -1.18186720e-01,
        -1.02474220e-01,  7.27320760e-02,  6.67930096e-02,
        -8.64617229e-02,  3.03958476e-01, -1.01390377e-01,
         2.05427736e-01],
       [ 5.13966307e-02, -2.74806023e-02,  6.68900162e-02,
         5.82805946e-02, -7.93908462e-02,  7.92610645e-03,
        -4.27075066e-02, -2.89676599e-02, -4.89736423e-02,
        -3.71249244e-02,  4.69871983e-02,  1.34770647e-02,
        -7.65334219e-02, -6.61538541e-02,  6.06610811e-05,
         6.89473152e-02, -7.53825083e-02,  1.89732090e-02,
         2.34173536e-02, -1.98685210e-02,  3.50796208e-02,
        -4.95028459e-02,  3.03096268e-02,  7.60484189e-02,
        -3.08983028e-02, -6.51116371e-02,  1.58858895e-02,
         1.40202576e-02,  6.10217825e-02, -4.50851135e-02,
        -2.62792930e-02,  5.22447452e-02,  5.09720258e-02,
        -2.51686014e-02,  6.88012615e-02, -1.38680330e-02,
         5.81179298e-02, -3.42223272e-02, -5.22057414e-02,
        -5.82315400e-02,  2.55043469e-02,  8.24592486e-02,
        -7.17691099e-03,  5.62199131e-02,  4.26711403e-02,
         7.90365785e-03,  1.20268054e-02, -5.75083643e-02,
        -7.96581880e-05,  6.66613802e-02, -4.60060649e-02,
         9.90374479e-03, -7.04262257e-02, -6.09380007e-02,
         4.85522747e-02, -5.73161198e-03, -2.87833810e-02,
        -5.48683945e-03,  3.63807902e-02, -6.03377447e-02,
         1.10620055e-02,  7.26469308e-02, -4.58542928e-02,
         5.87257445e-02],
       [ 5.55375591e-02, -4.24893983e-02, -6.36590272e-02,
         5.24599105e-03,  5.03689572e-02,  3.73188183e-02,
        -5.52045964e-02,  4.18315381e-02, -3.02564967e-02,
        -7.69669861e-02,  7.04410598e-02,  3.25546563e-02,
         2.54667853e-03, -1.84475929e-02,  5.49472272e-02,
        -7.51823932e-02, -2.63926946e-02,  3.83788720e-02,
         3.96686420e-02,  1.09229684e-02,  6.61217570e-02,
         7.18237609e-02, -6.29814640e-02,  6.38499483e-02,
         3.10686156e-02, -8.20659250e-02,  2.20932849e-02,
         1.72830420e-04, -8.08914006e-02,  3.61837745e-02,
        -1.79568082e-02, -7.01490045e-02, -6.78444132e-02,
        -4.26488463e-03,  6.52713627e-02, -6.40041232e-02,
         5.81319630e-02,  5.73508367e-02,  4.34539244e-02,
         2.16031577e-02,  7.71141648e-02, -2.87659168e-02,
        -5.39364070e-02,  7.83693641e-02,  6.94459677e-02,
         1.46210697e-02, -6.66546598e-02, -5.77362487e-03,
         6.99834526e-02,  5.26861250e-02, -2.21780688e-02,
        -6.19006492e-02, -8.33159089e-02,  1.64865106e-02,
         2.27555707e-02,  3.53571288e-02, -6.85616732e-02,
         5.22958674e-03,  2.13488601e-02, -2.09528804e-02,
         6.51931688e-02,  5.13648689e-02,  2.85281911e-02,
         6.35475963e-02],
       [-4.60823439e-02, -8.51613805e-02, -4.01926562e-02,
        -2.57511497e-01, -1.67635947e-01,  4.12147604e-02,
         2.73285490e-02, -8.89430568e-02, -6.01256639e-02,
        -5.56553863e-02, -1.13617420e-01, -4.52323407e-02,
        -1.42010644e-01, -3.41271996e-01, -1.13608591e-01,
         1.36256561e-01, -6.28282428e-02, -1.11704335e-01,
        -3.03761363e-02,  3.19848694e-02, -1.69194359e-02,
         3.18785429e-01, -2.10243121e-01,  2.27975771e-01,
         2.08299100e-01,  6.67635649e-02,  2.51583364e-02,
         1.17428109e-01, -6.30517378e-02, -2.58537382e-01,
        -5.05739227e-02, -2.75771450e-02,  2.39765272e-01,
        -1.08596861e-01, -7.52642751e-02, -2.13403016e-01,
        -1.97763309e-01, -6.03897125e-02, -2.98705418e-02,
        -3.68727148e-01,  4.59356643e-02, -9.24186409e-02,
         1.10321812e-01,  3.00638308e-03,  3.25598419e-01,
        -1.21002868e-01, -1.50865957e-01, -1.15677036e-01,
        -1.57824099e-01, -2.22781096e-02,  2.61011124e-01,
        -3.28427225e-01,  8.30889959e-03, -1.06436230e-01,
         3.27173620e-01, -1.12414090e-02,  1.44078791e-01,
        -1.30455680e-02,  2.05816701e-01,  1.42335044e-02,
         1.07843377e-01,  6.78995475e-02, -1.02299238e-02,
         1.15382105e-01],
       [-6.56907707e-02,  6.40950575e-02,  2.62503512e-02,
        -8.26082677e-02,  8.26134011e-02,  2.68862396e-03,
         2.12631393e-02, -1.51198506e-02,  6.90759495e-02,
        -1.27413496e-02, -4.97014783e-02, -5.31232469e-02,
         4.74952906e-02, -7.27330372e-02, -3.10729276e-02,
         7.13502616e-02,  2.04975512e-02, -8.20361152e-02,
        -5.75618371e-02,  4.16981988e-02, -3.72480825e-02,
        -6.07200451e-02,  9.63266045e-02,  1.41490316e-02,
         6.23301640e-02, -3.01828282e-03, -4.53915596e-02,
         1.91513654e-02,  7.12688118e-02, -3.75748277e-02,
        -7.32181892e-02,  2.46708021e-02,  6.06805496e-02,
        -4.30453718e-02, -5.52934296e-02, -3.95834558e-02,
         1.08018376e-01, -4.88776378e-02, -7.16113672e-02,
        -4.57300767e-02, -9.40880030e-02,  5.73607162e-02,
         6.31920546e-02, -1.08803146e-01, -8.95362813e-03,
        -3.36705446e-02,  3.94148044e-02, -5.81548028e-02,
        -3.19439918e-02, -5.46699874e-02,  2.77602300e-02,
        -5.54406308e-02,  5.84764034e-02, -2.97688842e-02,
        -2.26262696e-02,  7.40900710e-02, -4.51792888e-02,
        -8.83549452e-03, -1.97403021e-02, -6.97310194e-02,
         4.57443669e-02,  1.95987895e-02,  7.57164434e-02,
         6.15742281e-02],
       [-3.92722115e-02, -4.16039675e-02, -3.95869687e-02,
         4.65840735e-02, -7.12465942e-02,  5.53888902e-02,
         7.91389197e-02,  6.20118529e-03, -4.65812441e-03,
         4.25893143e-02,  5.65073676e-02, -2.09103357e-02,
         1.54120987e-02,  6.17923476e-02, -9.90676582e-02,
         2.64690239e-02,  4.20714989e-02, -5.68055771e-02,
        -6.44664168e-02, -1.18282840e-01, -9.06843226e-03,
         5.06027304e-02,  8.02585706e-02, -8.94374922e-02,
         1.03029214e-01,  8.04414302e-02, -3.46199423e-02,
        -5.52295111e-02,  4.83339801e-02,  6.95504323e-02,
         3.83615866e-02, -4.20156866e-03,  7.14045390e-02,
         2.81655118e-02,  7.36794993e-02, -7.76506513e-02,
        -9.00092535e-03,  1.33850798e-02,  3.39586511e-02,
        -4.82970290e-02, -6.48561446e-03, -7.74905309e-02,
         7.43641034e-02,  5.03440648e-02,  3.78737822e-02,
        -1.18109688e-01, -5.65998033e-02, -2.33422145e-02,
        -4.38858680e-02,  6.13608994e-02,  1.47484541e-02,
         5.85930888e-04, -3.06715835e-02,  4.13850769e-02,
         3.78533565e-02,  9.27876905e-02, -1.36027485e-03,
         8.32937434e-02,  9.85609367e-02, -2.20976695e-02,
        -3.86133119e-02, -5.35035320e-02,  7.43624792e-02,
        -6.01872206e-02],
       [-7.04807192e-02,  1.93748642e-02, -4.34673205e-02,
         1.77784711e-01,  4.25992578e-01, -3.58835645e-02,
         1.61029436e-02,  5.59875334e-04, -3.92286517e-02,
         1.06926169e-02, -1.59405917e-01, -4.85976413e-02,
         1.99343488e-01, -7.20098168e-02,  2.14552358e-01,
        -8.73275325e-02,  1.32590737e-02, -9.75807011e-02,
         2.83081681e-02, -3.43426734e-01, -2.74162572e-02,
        -3.97242084e-02,  1.07141718e-01,  2.74774194e-01,
         1.70879468e-01,  1.38783410e-01, -3.16040441e-02,
         9.40143988e-02, -2.04340681e-01,  7.22374097e-02,
        -1.00795224e-01, -2.57033795e-01, -8.90170634e-02,
        -2.41118725e-02, -2.45089650e-01, -1.89205091e-02,
        -4.46290612e-01, -2.49675922e-02, -7.68133346e-03,
         1.76420435e-01,  3.93020272e-01, -1.25230148e-01,
         1.53205946e-01, -1.09868869e-01,  3.30616176e-01,
         1.76032037e-01, -1.43190771e-01, -2.21581176e-01,
        -1.47649929e-01, -2.56680883e-04, -2.98604190e-01,
         2.94077635e-01,  1.50540695e-02,  5.54740280e-02,
        -4.51054424e-02,  1.39337555e-01, -1.24507219e-01,
        -9.04437304e-02,  2.00795889e-01, -3.01028546e-02,
        -2.27994025e-01,  2.49997258e-01,  2.94268411e-02,
         1.02603756e-01],
       [ 9.06100962e-03,  6.70847669e-02, -9.01795458e-03,
        -4.35821749e-02,  1.07010558e-01, -1.41312927e-03,
        -2.70640175e-03,  6.70125335e-03,  4.10003737e-02,
        -8.28970671e-02, -8.81672055e-02,  3.74642313e-02,
         1.06089979e-01,  2.08109077e-02, -1.05341084e-01,
         3.60542908e-02,  6.97564632e-02, -6.07398786e-02,
         1.97993889e-02,  6.78485855e-02,  4.04230393e-02,
         1.50331818e-02,  7.37882107e-02, -3.09490114e-02,
        -1.00565972e-02, -1.18091635e-01, -7.19760731e-02,
        -8.62711370e-02,  3.11032478e-02, -2.78543830e-02,
        -2.07109842e-02, -6.12035990e-02, -4.76223305e-02,
         7.68346116e-02,  7.91763654e-04, -1.34716770e-02,
         2.04431675e-02,  1.52770281e-02,  3.60836345e-03,
        -3.43536958e-02, -8.17189552e-03,  1.97990984e-03,
        -1.28668044e-02, -1.19902916e-01,  3.16491537e-02,
        -4.96446155e-02,  1.25606388e-01,  6.98604807e-02,
        -7.47801212e-04,  7.87597802e-03, -3.87660488e-02,
         1.22896738e-01, -6.15640692e-02,  5.00624403e-02,
        -1.06912769e-01, -6.41461238e-02,  3.14817056e-02,
         3.58979367e-02,  1.26162749e-02, -2.61617526e-02,
         8.57402980e-02, -1.23400204e-02,  1.54218823e-03,
        -1.50380405e-02],
       [-6.92328662e-02,  1.89651623e-02,  7.66946301e-02,
        -2.43892521e-03,  3.52727771e-02,  3.90962958e-02,
        -3.79549488e-02,  4.27925959e-02,  2.82186642e-02,
         4.98770848e-02, -7.39949197e-02, -6.33240789e-02,
         3.05343494e-02, -5.03568277e-02, -3.92353944e-02,
        -8.03099871e-02,  6.37722835e-02, -3.69043350e-02,
         6.07228652e-02, -2.01750994e-02,  6.72766641e-02,
         5.79658225e-02, -6.02951273e-02,  7.99824223e-02,
         3.62499133e-02,  7.47322664e-02, -6.17573671e-02,
        -7.70706758e-02, -3.14786285e-03,  2.10172161e-02,
        -5.16445637e-02,  6.96583614e-02,  2.69480124e-02,
         3.22923660e-02,  4.06379923e-02,  3.63275409e-02,
         8.27038288e-03,  1.83764100e-02, -3.54595184e-02,
         8.31471905e-02,  7.65499100e-02, -6.62197918e-02,
        -7.87730217e-02,  3.41430679e-02, -2.82271728e-02,
         4.68456224e-02, -6.34521469e-02, -9.82230902e-03,
         7.01766834e-02, -7.55526423e-02, -4.13618684e-02,
         6.61678389e-02,  1.61657557e-02, -3.21481377e-03,
        -3.33133563e-02,  4.21831086e-02, -3.95150408e-02,
         8.30288306e-02, -4.10867333e-02, -4.96438555e-02,
         3.56462374e-02, -3.57327461e-02,  7.31996074e-02,
        -2.86504030e-02],
       [-1.82035178e-01,  6.04509898e-02,  1.58746913e-01,
         2.10015431e-01, -1.19262449e-01,  1.47032356e-02,
        -7.24382028e-02, -8.60836357e-02, -1.02678984e-01,
        -4.27257493e-02,  1.97478309e-01, -1.28475666e-01,
        -2.87796259e-01, -1.73745111e-01, -4.64339517e-02,
        -2.41774872e-01, -2.54919585e-02,  6.25882000e-02,
        -6.92170635e-02, -2.39799917e-01, -6.87910318e-02,
        -4.09206778e-01,  1.13521365e-03, -1.07199766e-01,
        -1.11627363e-01, -4.81969379e-02,  5.88776544e-02,
        -2.08829865e-02, -2.34797314e-01, -8.80596414e-02,
         1.09498568e-01, -1.83681250e-01, -4.43472750e-02,
         1.35355935e-01, -2.90125012e-01, -5.85440509e-02,
         3.11713517e-01,  4.77891192e-02, -1.18776575e-01,
         2.35033669e-02,  1.86773121e-01,  2.21939813e-02,
         3.17114517e-02, -7.42804185e-02, -7.25438595e-02,
        -1.02270901e-01, -3.26982364e-02, -1.52404472e-01,
         4.92611229e-02,  2.95131486e-02, -3.34761590e-01,
        -1.34581566e-01,  3.26417871e-02,  5.62415551e-03,
         1.44793034e-01, -7.31718168e-02,  7.81385079e-02,
         9.01382342e-02,  1.99554041e-01, -1.19801406e-02,
         9.81196463e-02,  1.31038893e-02,  2.31445450e-02,
        -6.51405752e-02],
       [-2.50430226e-01,  8.43190253e-02,  1.56161979e-01,
         1.16177332e-02, -6.03146665e-03,  2.24492569e-02,
        -4.95529883e-02,  1.40267676e-02,  9.25927889e-03,
        -1.11339889e-01,  1.83041424e-01, -2.25994922e-02,
        -1.24978788e-01,  1.44461676e-01,  1.74718037e-01,
         1.79404020e-02,  4.47824737e-03,  4.02543694e-02,
        -5.76883480e-02,  1.51830807e-01, -1.04148671e-01,
         1.27318606e-01,  3.92747447e-02,  3.60022113e-02,
        -1.37189645e-02, -9.02779177e-02, -1.37989074e-01,
        -8.72600228e-02, -1.52247548e-01, -4.51229662e-02,
        -6.02065660e-02, -6.94686100e-02, -2.88089681e-02,
         1.42195329e-01, -2.30014846e-01, -7.50509501e-02,
        -1.14030346e-01, -2.89254747e-02, -4.29625697e-02,
        -8.48438442e-02, -1.23244092e-01, -6.42815754e-02,
        -1.94871761e-02,  2.22118631e-01, -2.41076574e-01,
        -1.04294844e-01,  1.71312317e-03, -6.51827157e-02,
         8.09738487e-02,  1.05651632e-01,  1.65905744e-01,
         1.06047848e-02, -7.46465102e-03,  8.32910649e-03,
        -1.42421946e-01, -1.80884331e-01,  2.56115533e-02,
         1.17362238e-01, -4.61279333e-01,  5.04776090e-02,
         3.92150357e-02,  2.70871576e-02, -5.46091981e-02,
         7.52344206e-02],
       [ 2.33763084e-02, -3.06739658e-03,  6.53041154e-02,
        -8.19939822e-02, -2.58845501e-02, -3.61711979e-02,
         7.44624212e-02,  3.05624828e-02, -7.46064186e-02,
        -2.13859305e-02,  3.14694643e-02,  2.84745097e-02,
         2.02454627e-02, -1.94608346e-02,  9.16791558e-02,
         3.49893206e-04,  5.89970574e-02, -6.39407486e-02,
        -6.52363300e-02, -3.21901590e-02, -4.08485346e-02,
         6.77404031e-02,  3.90362889e-02, -7.15244412e-02,
        -3.65626402e-02, -3.51802707e-02, -3.47568206e-02,
        -2.64271498e-02,  6.79443851e-02,  4.86178771e-02,
         7.48186186e-02, -6.09820895e-02,  3.03933639e-02,
         1.82627961e-02, -5.86655363e-02, -5.07488986e-03,
         5.72484955e-02,  2.47981921e-02, -6.69399723e-02,
         1.15461573e-02,  6.22273516e-03,  1.07818469e-02,
        -2.46650279e-02,  5.41692264e-02,  5.59864268e-02,
        -5.04174829e-02, -5.19982241e-02,  5.44974431e-02,
         4.33960631e-02,  7.54588097e-02,  5.49646690e-02,
        -6.16901405e-02,  4.59904298e-02, -5.47949225e-03,
         7.47110555e-03, -5.61454743e-02,  6.47972450e-02,
         5.75762987e-03,  4.41961596e-03,  1.85886398e-02,
        -2.15202793e-02, -8.09908137e-02, -5.16085848e-02,
        -6.26311153e-02],
       [ 9.75287706e-02, -2.12992609e-01, -2.01624304e-01,
         1.08196311e-01, -3.29703162e-03, -1.13971196e-02,
        -1.06176503e-01, -3.75151411e-02, -3.78173664e-02,
        -6.62444010e-02,  1.95842072e-01,  4.58259322e-02,
         2.77084827e-01,  1.27611428e-01, -2.73327576e-03,
         8.14660341e-02,  4.62295413e-02,  1.88843627e-02,
         5.58950864e-02, -1.00147121e-01, -3.54149975e-02,
         8.30799267e-02,  2.24263832e-01, -1.67609543e-01,
         3.17076653e-01, -1.25828236e-01,  1.20916493e-01,
        -1.15965612e-01, -6.93780184e-02, -2.66651716e-02,
        -5.75008728e-02, -7.76522756e-02,  5.49893618e-01,
         8.73578887e-04, -2.36434400e-01, -1.20868221e-01,
         6.90656304e-02, -8.13231617e-02, -1.18910648e-01,
         1.44174527e-02, -3.15891132e-02,  7.09241927e-02,
        -1.79941729e-01, -8.94080400e-02,  4.28660735e-02,
         2.93069839e-01, -9.64534208e-02,  6.43581927e-01,
        -2.04214424e-01, -3.06757111e-02, -1.07453309e-01,
        -1.27220387e-02, -2.34079044e-02, -2.46008150e-02,
         1.48770377e-01,  4.16594036e-02,  8.33609253e-02,
         1.87067747e-01, -3.95616919e-01, -1.11798428e-01,
        -2.42316853e-02, -8.64581764e-03,  9.92862973e-03,
         1.11308470e-01],
       [ 1.01383524e-02,  7.01253489e-02,  4.33061235e-02,
         1.40899509e-01,  1.52374178e-01, -3.68409269e-02,
        -1.71454698e-02, -6.52619004e-02,  5.17029129e-03,
        -1.10072866e-02,  7.79707655e-02,  1.62273012e-02,
        -6.82851374e-02, -6.15219660e-02,  2.01052845e-01,
         1.25916526e-02, -7.21621513e-02,  3.32598127e-02,
        -6.48968071e-02,  5.43702021e-02, -5.25590926e-02,
        -2.47043520e-02,  8.50309283e-02, -7.13147968e-02,
        -2.12036043e-01, -6.27646148e-02,  8.35606679e-02,
         5.81545532e-02,  1.48428895e-03, -2.12952252e-02,
         2.94357277e-02,  3.79482284e-02, -3.52244563e-02,
         1.66722629e-02,  8.54896605e-02, -7.15728402e-02,
         1.48034811e-01,  2.37868056e-02,  5.11796512e-02,
         2.14235112e-02,  1.24451891e-01, -7.06646442e-02,
         2.63767559e-02, -1.65137928e-02, -1.33319288e-01,
         9.42432284e-02,  3.93825285e-02, -3.85061167e-02,
         2.11432010e-01,  3.15321460e-02,  9.93502811e-02,
         1.19251512e-01,  5.47860265e-02,  7.69229904e-02,
         1.49396425e-02,  1.29569292e-01, -7.73964077e-02,
         1.73185412e-02, -5.39002120e-02,  1.34527400e-01,
        -7.01095760e-02, -2.07830146e-01,  8.04834142e-02,
        -7.34456927e-02],
       [ 5.98543659e-02,  1.62048310e-01, -2.11967640e-02,
         1.48773134e-01, -2.99092056e-03,  5.63530587e-02,
         3.32164243e-02, -8.14968869e-02,  4.98687150e-03,
        -6.89836144e-02, -1.69772476e-01, -3.04047056e-02,
        -1.03445351e-02,  1.16106622e-01, -1.62179172e-01,
         1.93596333e-01, -1.17923636e-02, -2.15899476e-04,
         6.77520335e-02,  9.59117711e-02, -1.77316498e-02,
         7.57680740e-03, -3.81734848e-01,  1.29427850e-01,
         2.74110675e-01,  4.05816913e-01,  1.58138592e-02,
        -1.63749486e-01,  2.54388034e-01,  2.46417746e-01,
         2.00351581e-01, -1.11132793e-01, -1.91931322e-01,
         1.17178336e-01, -1.69738129e-01,  1.96501225e-01,
        -4.11644280e-02, -4.28222977e-02,  6.75401464e-02,
         1.66383550e-01, -6.00281022e-02, -9.47438329e-02,
         7.19120428e-02, -7.36100301e-02, -2.43930239e-02,
        -4.56830524e-02, -1.30400062e-01,  2.87083030e-01,
         1.14060298e-01,  1.90612733e-01, -1.71619833e-01,
        -1.03823610e-01, -9.55911875e-02,  6.51305318e-02,
        -1.94439873e-01, -3.08901787e-01, -2.05479443e-01,
         1.66709080e-01, -8.96565169e-02,  9.74309146e-02,
         8.12554657e-02, -1.70340687e-02,  7.46749192e-02,
        -1.55812234e-01],
       [-1.07783414e-02,  5.53203002e-02, -4.39785838e-01,
        -6.19947463e-02, -1.89287633e-01, -9.49701443e-02,
         2.04842091e-02,  8.84951372e-03, -3.15327309e-02,
        -7.89460167e-02,  2.63305932e-01, -1.91102829e-03,
         2.52617061e-01, -1.09970845e-01,  3.78771394e-01,
         2.42733076e-01, -3.59142059e-03,  1.28429025e-01,
         1.44278109e-01,  1.29203245e-01,  5.46396710e-03,
         1.45442307e-01, -5.76092787e-02, -1.57997102e-01,
         1.14530981e-01, -2.08911106e-01,  2.99234614e-02,
         8.69466960e-02,  1.36010677e-01,  2.28585750e-02,
        -4.58324961e-02,  1.56020254e-01, -3.31084698e-01,
        -2.50168741e-01,  2.08367445e-02,  1.15907505e-01,
        -1.81303784e-01, -4.52993028e-02,  1.73458494e-02,
        -3.41114491e-01,  1.09546714e-01,  4.88188490e-02,
        -7.49494657e-02, -1.10635832e-02,  4.03965861e-02,
        -1.03534386e-01,  7.37618953e-02,  1.40336722e-01,
        -2.39072010e-01, -4.08363551e-01,  1.68142747e-02,
        -4.31865714e-02, -6.08013617e-03, -3.48470248e-02,
        -2.14122534e-02, -1.49511211e-02, -4.20965767e-03,
        -2.35902995e-01,  1.11153238e-01,  1.13644190e-01,
         1.21769510e-01, -7.01241642e-02, -8.96191150e-02,
         1.21433914e-01],
       [-4.27575819e-02,  1.54160857e-01, -5.43394452e-03,
         2.83721596e-01,  2.92405933e-01, -4.72084997e-04,
        -8.59946012e-02, -2.16794610e-02, -5.45199774e-02,
        -4.80419844e-02, -2.03738660e-01, -2.43100487e-02,
         1.11325175e-01, -2.15207003e-02,  4.45012212e-01,
        -1.90099850e-02, -2.19315989e-03, -5.41814901e-02,
        -8.04039687e-02,  3.86377603e-01, -1.38451189e-01,
         4.04465534e-02,  2.77329385e-01, -4.94771749e-01,
         1.14973960e-02, -3.52241658e-02,  1.45697109e-02,
        -4.23494987e-02, -2.87122637e-01,  7.12125227e-02,
        -7.59887621e-02,  1.69440687e-01, -1.33973673e-01,
         2.28715628e-01, -2.58990955e-02, -1.21834271e-01,
        -5.03110653e-03, -6.42663836e-02, -8.77846684e-03,
        -1.64238084e-03,  3.17209870e-01,  1.96983456e-04,
        -4.02798653e-01,  8.72251838e-02, -6.32800877e-01,
        -2.22568378e-01,  1.61473244e-01,  1.09618872e-01,
        -4.47529227e-01,  2.38149330e-01, -2.71745715e-02,
         1.75345808e-01, -1.01330452e-01, -8.85431319e-02,
         1.21778317e-01,  2.17744261e-01,  1.86144002e-02,
         2.01165691e-01,  3.80139947e-01, -7.07754269e-02,
        -2.69326806e-01,  3.14309835e-01, -6.71006888e-02,
         6.90767393e-02],
       [ 9.94554162e-02, -6.04277737e-02,  6.06672540e-02,
         2.70603329e-01, -5.47446981e-02, -4.60019410e-02,
         6.58667907e-02, -7.92796537e-02, -8.64250958e-02,
        -1.12857908e-01,  3.28796543e-02, -8.83640349e-02,
        -4.00860235e-02, -1.79128826e-01,  2.70793825e-01,
         3.08848083e-01,  1.29427761e-02, -7.94463977e-02,
         4.12977883e-04,  4.41566855e-01, -2.85584182e-02,
         7.18287751e-02, -1.77456379e-01,  1.75612658e-01,
        -2.46206820e-01, -1.21928990e-01,  1.00900352e-01,
         5.52843623e-02,  1.96879923e-01, -7.81315044e-02,
        -2.40640771e-02, -7.24577606e-02, -4.81421165e-02,
        -1.27994925e-01, -1.23175131e-02,  7.90717527e-02,
        -1.36431038e-01,  3.19622755e-02,  3.00826356e-02,
        -4.91520651e-02,  5.21422289e-02,  2.72089858e-02,
        -8.10216889e-02, -4.61420603e-02, -5.21285944e-02,
         8.23866576e-02, -2.04761416e-01,  1.30502790e-01,
         1.28109381e-01, -3.02984975e-02,  5.90133620e-03,
         8.35049152e-02,  6.70753466e-03,  2.29400862e-02,
         1.27043560e-01, -4.10479009e-02, -1.89264286e-02,
         6.95044100e-02, -3.91462035e-02, -1.12703769e-03,
        -3.47856618e-02, -1.44318745e-01, -2.88232379e-02,
         1.27179503e-01],
       [ 1.51093109e-02, -6.15108795e-02,  4.55530211e-02,
         1.42900169e-01,  4.42384072e-02, -1.14630088e-02,
        -1.31219625e-03, -8.74390453e-03, -6.16430640e-02,
        -7.26805329e-02,  1.83998980e-02,  5.88321164e-02,
        -1.04427077e-01, -1.16017852e-02, -5.56129329e-02,
         4.54413369e-02,  6.68673143e-02, -5.11928014e-02,
        -4.63426113e-03, -7.01645389e-02, -2.02977657e-03,
         5.14448881e-02,  9.42291915e-02,  3.22418511e-02,
         3.22700106e-02,  1.81148704e-02,  6.02504537e-02,
         1.03345513e-01,  3.36871631e-02,  9.75700021e-02,
         3.37895602e-02, -7.09471060e-05, -5.48013821e-02,
        -5.55760600e-02,  1.47798909e-02,  5.22901528e-02,
         2.14078408e-02, -6.88678026e-03, -2.09416971e-02,
         6.99558854e-02, -1.33286510e-02,  3.49552035e-02,
         3.27884778e-02,  5.88691048e-02, -3.09842434e-02,
         6.61861803e-03,  2.48611514e-02, -4.16091681e-02,
         5.47308438e-02, -6.41913265e-02, -2.71239206e-02,
        -4.49863588e-03, -8.29610974e-03, -6.02335148e-02,
         4.71919514e-02,  6.27109781e-02,  2.16471534e-02,
         5.44064604e-02,  1.56991668e-02,  7.88846705e-03,
         9.25012529e-02, -5.84734902e-02, -5.20022735e-02,
        -5.25130481e-02],
       [ 3.91259529e-02,  4.14979905e-02,  1.63538963e-01,
         1.49393484e-01, -1.52088806e-01, -9.46811810e-02,
         1.12012394e-01, -1.96694341e-02,  2.89935414e-02,
        -1.98754091e-02, -1.40077412e-01,  2.08258647e-02,
         2.73171395e-01, -5.10260463e-01,  1.40620485e-01,
         1.55431107e-01, -5.83244376e-02, -5.28813004e-02,
         2.04124395e-02,  3.93445998e-01, -1.15755480e-03,
         6.74427375e-02,  1.28281921e-01, -9.03073996e-02,
         1.77010354e-02,  2.60453194e-01,  2.22615793e-01,
         4.49163541e-02,  1.21045820e-01,  1.36577010e-01,
        -3.00380826e-01, -1.78221539e-01,  7.25373551e-02,
        -4.51426730e-02, -1.94059491e-01,  2.24238887e-01,
         1.26481310e-01, -5.71155548e-02, -1.27335384e-01,
         1.86492931e-02,  3.56085062e-01,  4.83306823e-03,
        -4.44329493e-02, -6.72008470e-02, -4.20032889e-02,
        -1.61034353e-02, -5.02909482e-01,  1.40774876e-01,
         1.99362874e-01,  1.96657389e-01, -2.82236248e-01,
        -3.10409009e-01, -1.49302864e-02, -4.31107357e-02,
         9.92496014e-02,  3.18079516e-02, -4.92161065e-02,
        -2.09700689e-01,  7.34127238e-02, -4.00628559e-02,
         9.82577577e-02,  3.07095107e-02,  1.62283126e-02,
         1.54875532e-01],
       [-3.39572690e-02,  1.77181158e-02, -1.24483779e-01,
        -2.89887607e-01, -6.95512816e-02, -8.41904338e-03,
        -1.21878341e-01, -8.82530510e-02, -5.79450168e-02,
        -8.30248296e-02, -6.60895407e-02,  1.79286841e-02,
        -1.07237004e-01, -3.44098471e-02, -1.50470838e-01,
         1.16068840e-01, -4.38669436e-02,  1.00171961e-01,
        -4.33779173e-02, -8.87958705e-02, -6.77807406e-02,
        -2.38197684e-01,  1.26229867e-01,  6.19966760e-02,
         2.27391601e-01, -5.10322526e-02,  2.16930080e-02,
         4.55622636e-02, -1.36630177e-01,  5.18402085e-02,
        -2.87375331e-01,  1.04910366e-01, -3.07828188e-02,
        -5.51672801e-02,  1.16344057e-01, -2.13495314e-01,
         1.66223213e-01,  4.59249467e-02,  4.53870073e-02,
         1.09451845e-01,  2.49547400e-02, -6.36093393e-02,
         1.09207205e-01,  2.00224891e-01,  9.61344987e-02,
         8.02136585e-02,  2.02113986e-02, -1.89031869e-01,
        -3.27973366e-01,  5.23068346e-02, -5.42544462e-02,
        -2.04591304e-02, -4.59344499e-02,  4.67668008e-03,
        -1.86348245e-01, -1.93135738e-01,  5.40386885e-02,
        -7.01529020e-03,  1.31673619e-01,  2.77263392e-02,
         3.26533139e-01,  4.18712758e-02, -8.05254653e-02,
        -6.48836046e-02],
       [ 7.34059885e-02,  6.46327958e-02,  5.29555157e-02,
        -5.40578179e-02, -2.46598125e-02, -2.15376019e-02,
         6.29356727e-02, -7.89915323e-02,  6.27941117e-02,
         1.17070451e-02,  1.77005678e-03,  6.72472790e-02,
        -7.56312832e-02, -5.93699217e-02,  8.28648433e-02,
        -7.74929672e-03, -6.96768612e-02, -4.23485860e-02,
        -4.70305085e-02, -4.12793979e-02,  2.71409526e-02,
         1.62925124e-02, -1.97052360e-02, -5.99907860e-02,
         4.50191125e-02, -3.58891897e-02, -8.08811188e-03,
         5.99123538e-04,  3.16520929e-02, -3.32842283e-02,
         5.10461554e-02,  2.09687948e-02,  7.85284117e-02,
        -6.06152043e-02, -7.47778267e-02,  3.68369594e-02,
        -2.73502693e-02,  3.70611772e-02, -2.18794942e-02,
        -5.72788529e-02,  6.64613321e-02,  6.84368685e-02,
         2.92083621e-02, -3.03674564e-02, -6.60827011e-03,
         4.93072048e-02,  7.90008679e-02,  7.87195191e-02,
         5.53955063e-02,  7.33082071e-02, -7.48118758e-02,
        -4.15272117e-02, -4.13393974e-03, -2.70714164e-02,
         8.05858746e-02,  1.80214271e-02,  5.81950769e-02,
         8.30200389e-02,  9.60838795e-03, -4.68580723e-02,
        -6.61796182e-02, -6.56000525e-03,  4.46059182e-02,
        -5.87077551e-02],
       [ 2.40610559e-02, -4.45080027e-02, -7.34541342e-02,
        -4.85825054e-02, -1.11597097e-02,  5.08982688e-02,
        -2.08370592e-02,  1.04382425e-03, -2.93100979e-02,
        -6.35204464e-02,  1.30224554e-02,  1.48457382e-02,
         2.95858197e-02, -1.33126406e-02,  3.88733819e-02,
         6.71655983e-02,  2.65888274e-02,  4.52538207e-02,
         1.08041614e-03,  5.57712093e-02,  7.16825435e-03,
        -8.85157213e-02, -7.95598254e-02,  4.61468771e-02,
         6.31603822e-02,  5.98960593e-02, -7.05854818e-02,
        -4.93219085e-02, -6.11160323e-02, -2.35339925e-02,
         2.12184433e-02, -4.20949943e-02, -5.68164811e-02,
        -6.81901500e-02,  7.11675584e-02, -6.43655509e-02,
         1.34134619e-02,  2.90557239e-02,  4.10722531e-02,
        -7.38799423e-02,  1.35457925e-02,  2.93625966e-02,
         4.29240651e-02, -1.32271238e-02,  3.61916982e-02,
        -8.77559036e-02,  4.25159559e-02, -1.97097696e-02,
        -1.54939303e-02, -2.14802232e-02, -1.06112817e-02,
        -7.85058439e-02, -1.18526202e-02, -1.99689493e-02,
        -5.22161126e-02, -9.34063271e-03, -6.41660318e-02,
         7.13030472e-02, -8.79896954e-02, -4.36679348e-02,
         3.43144536e-02,  8.21954533e-02, -7.71015286e-02,
        -3.50771472e-02],
       [-6.42364770e-02,  4.67753746e-02, -1.37840390e-01,
        -1.14520624e-01,  1.39501080e-01, -2.22484749e-02,
         3.89391207e-03,  6.73979670e-02, -5.43049052e-02,
        -7.27739111e-02,  1.73128247e-01, -9.71861854e-02,
         1.30197868e-01,  3.87953371e-02, -1.59285769e-01,
        -6.47201017e-02,  5.71958311e-02, -4.39078398e-02,
         2.41919346e-02,  6.13552108e-02,  4.68317084e-02,
        -7.84702897e-02, -1.04237571e-01,  2.06018642e-01,
        -3.21009569e-03,  8.53526890e-02,  2.04383478e-01,
        -1.90442324e-01,  1.25429794e-01, -1.54538050e-01,
        -5.99251129e-02, -1.05839008e-02,  5.07525444e-01,
         2.27514002e-02, -2.10457563e-01, -1.60389487e-02,
         1.54734865e-01,  5.04853353e-02,  3.55843008e-02,
         1.33457750e-01,  1.99279979e-01, -1.05112754e-01,
         1.24834821e-01, -1.30284786e-01,  6.69796765e-02,
        -4.53277603e-02, -1.53329119e-01,  3.32557350e-01,
        -1.71000138e-01,  1.53476998e-01, -4.18587774e-01,
        -1.19962499e-01, -9.37904119e-02, -8.10499713e-02,
         1.56712726e-01,  4.99406550e-03, -2.13481754e-01,
        -3.02500099e-01, -1.75531298e-01, -1.24002323e-01,
         3.78907099e-02,  9.77612808e-02,  2.79194638e-02,
        -1.92163408e-01],
       [-6.09644055e-02, -9.68667120e-03,  3.45538482e-02,
        -4.93583828e-03, -4.46136408e-02,  3.71937156e-02,
        -1.97248682e-02, -5.66361099e-03, -5.08460812e-02,
         3.76079082e-02, -5.22824153e-02, -7.17205629e-02,
        -8.01640749e-03, -6.25312328e-02, -6.43199682e-03,
         3.48870158e-02, -2.05253586e-02, -6.09421134e-02,
         6.61385059e-03, -4.31817770e-02,  1.12018734e-03,
         7.78541341e-02, -3.17692757e-04, -4.01088819e-02,
         7.50354007e-02, -8.39944929e-03,  2.99172997e-02,
        -6.34703487e-02,  3.91747355e-02, -6.44814819e-02,
        -6.67522550e-02, -5.39133549e-02, -6.39364347e-02,
         7.08202496e-02,  2.54186019e-02,  2.25242972e-02,
         5.79574481e-02,  1.55278221e-02,  2.76383162e-02,
         4.04922962e-02,  7.98415616e-02, -7.27255940e-02,
        -4.96449322e-03,  3.34577188e-02, -5.19373044e-02,
        -2.71269493e-02,  1.85934454e-03, -8.04455727e-02,
         2.22985744e-02,  1.43638477e-02,  6.83863834e-02,
         7.55418912e-02,  6.63796440e-02,  4.42362800e-02,
         9.40994173e-03,  3.92761827e-02, -1.59946904e-02,
        -3.42253856e-02,  4.07851934e-02, -4.90952358e-02,
         5.84493354e-02,  2.11179033e-02,  8.21747854e-02,
         3.88849005e-02],
       [ 6.94319755e-02, -3.94975990e-02,  6.60793111e-02,
         5.91852032e-02,  6.48354122e-04, -6.43757954e-02,
        -5.36504313e-02, -3.41112614e-02,  1.95361171e-02,
        -4.70180735e-02, -1.01667471e-01,  3.39599550e-02,
         4.38937284e-02, -1.40930191e-01, -8.77730455e-03,
        -6.41329363e-02,  6.10865243e-02, -7.58414641e-02,
        -1.06593147e-02,  4.38527539e-02, -4.02667448e-02,
        -1.07985474e-01, -2.30723023e-02, -2.13466352e-03,
         9.33987871e-02, -2.35514659e-02,  3.08039840e-02,
        -5.33449352e-02,  7.01058283e-02,  3.70767340e-02,
        -6.56517223e-02,  1.54268015e-02,  5.50821126e-02,
         1.25711799e-01,  5.23482040e-02,  5.78625277e-02,
        -1.20206969e-03, -5.73385358e-02,  4.81981337e-02,
         5.66055207e-03, -2.88619604e-02, -4.13030609e-02,
        -1.04158416e-01, -4.09186333e-02,  6.37105852e-02,
         2.97577046e-02,  2.85145920e-02,  1.47341443e-02,
         7.22977072e-02,  3.57605517e-02,  6.61106631e-02,
        -3.95648330e-02, -8.57067779e-02, -1.74845234e-02,
        -5.74595034e-02,  1.18237481e-01,  7.12261349e-03,
         3.96248028e-02, -1.07654430e-01, -6.62303567e-02,
         5.75513355e-02,  3.74848172e-02,  2.56989598e-02,
        -8.49348456e-02],
       [ 7.37256464e-03,  5.66766523e-02, -5.00922464e-02,
         1.09086208e-01,  3.23660791e-01, -1.13775276e-01,
        -6.63378015e-02, -2.71571632e-02, -8.12876504e-03,
         4.85165641e-02, -4.96282689e-02,  3.96417268e-02,
         6.77654147e-02,  2.44551599e-02, -2.80077994e-01,
         2.23559946e-01, -2.24583447e-02, -1.17199600e-01,
         2.92663388e-02,  4.63512212e-01, -9.03723836e-02,
        -9.45558473e-02, -1.86527241e-02,  2.49304399e-01,
         2.40637243e-01, -2.07428858e-01, -1.41017243e-01,
         6.31331429e-02, -4.73551219e-03,  5.99781843e-03,
        -8.78365785e-02, -8.69217515e-03, -2.81076401e-01,
         2.97275148e-02,  7.05200583e-02, -1.31382778e-01,
         5.49758375e-02,  6.22773021e-02, -7.93755949e-02,
         2.39179417e-01, -6.33569211e-02, -2.97647575e-03,
         1.95956845e-02,  1.58318430e-01, -4.93546482e-03,
        -2.81175047e-01,  1.76825281e-02,  1.49719760e-01,
         2.79691875e-01,  2.98188210e-01, -3.75548512e-01,
        -6.31986111e-02,  3.26602757e-02, -1.09824374e-01,
         4.87326495e-02, -1.27791867e-01,  1.33344634e-02,
         2.42186710e-03,  2.99411658e-02,  3.16537209e-02,
         6.44391461e-04, -1.46457836e-01, -3.77229117e-02,
         1.22869117e-02],
       [ 1.20592810e-01,  1.08795390e-01, -3.93986665e-02,
        -1.99259028e-01,  1.75476968e-01, -2.06607580e-02,
        -5.61631471e-02,  7.49966726e-02, -1.57347322e-02,
        -3.80642638e-02,  1.52507931e-01, -1.04207397e-02,
         1.70148741e-02, -4.67170440e-02,  8.39719698e-02,
        -2.99256086e-01,  7.29265437e-02, -1.14048429e-01,
        -5.26430458e-03, -1.62751094e-01, -4.37506437e-02,
        -2.92924672e-01,  2.22931817e-01,  7.43588880e-02,
         1.39955720e-02,  5.57166710e-03,  7.13702738e-02,
         6.84197573e-03,  4.42747250e-02,  5.92330620e-02,
        -4.13316004e-02,  2.95245070e-02, -2.33519897e-01,
        -2.76334528e-02,  7.38228559e-02, -8.68483037e-02,
         1.37554169e-01,  2.98680291e-02, -4.26053032e-02,
         1.14726059e-01,  6.25654161e-02, -2.84630656e-02,
         2.85559088e-01,  1.23924026e-02,  2.00982824e-01,
         6.64404035e-02,  4.32477966e-02,  1.47050902e-01,
         1.51852416e-02, -1.09471671e-01, -8.98484662e-02,
         6.25032336e-02,  4.28391472e-02,  1.93220004e-02,
        -1.43246144e-01, -1.99809521e-01, -5.52014187e-02,
        -1.06370412e-01, -2.09369324e-02,  8.44878778e-02,
         2.51478791e-01, -1.16525330e-01, -4.23572212e-03,
        -2.69880723e-02],
       [-3.53065655e-02, -1.19476669e-01,  1.86064169e-01,
         2.38250881e-01,  7.40783885e-02,  5.02560362e-02,
        -7.75619298e-02, -7.04538971e-02, -7.49747008e-02,
        -3.36498544e-02,  5.17038396e-03, -2.16980022e-03,
        -1.93727587e-03,  3.03390604e-02, -1.74353212e-01,
         7.28907809e-02,  5.68282865e-02, -1.40837515e-02,
         6.56430274e-02,  4.38694805e-02,  3.18727084e-02,
        -5.64823866e-01,  9.19444039e-02,  1.64691448e-01,
         2.56484270e-01, -1.35711012e-02,  2.58243233e-01,
         1.32280393e-02,  2.13364527e-01,  2.09355459e-01,
        -2.19927818e-01,  6.26847446e-02, -6.61345795e-02,
        -1.51957542e-01,  4.17659730e-02, -2.44151756e-01,
         1.77697614e-01, -9.80399176e-02,  4.96831350e-02,
         1.44049883e-01, -1.48361281e-01, -4.12616022e-02,
        -8.12203586e-02, -2.74367601e-01, -2.22274028e-02,
        -1.39455767e-02, -4.69939871e-04, -1.42027050e-01,
        -2.50106543e-01,  6.81823120e-02, -1.74330980e-01,
         1.74664706e-01,  4.73737344e-02,  3.36706787e-02,
        -1.26935124e-01, -1.86698452e-01,  4.25124262e-03,
        -3.44916538e-04, -2.05733344e-01,  1.65650547e-01,
         3.60156298e-02,  2.51601130e-01,  4.70924564e-02,
        -2.34542545e-02],
       [ 1.58731714e-01, -3.79433148e-02, -1.41887769e-01,
        -1.29617512e-01, -1.09307431e-01, -7.91606680e-02,
        -7.87754059e-02, -7.61358365e-02, -3.21275252e-03,
         7.32911676e-02, -3.47940810e-03,  5.85328555e-04,
         1.33574484e-02, -9.86774042e-02, -1.59684196e-01,
        -2.05727726e-01, -4.84971423e-03,  8.20527375e-02,
        -7.52171502e-02, -2.74173111e-01, -2.70320326e-02,
        -1.65382311e-01,  1.34665877e-01, -3.79315645e-01,
         1.88912958e-01,  1.05800137e-01,  1.06596224e-01,
        -2.13292539e-01, -5.66344038e-02,  1.69138461e-01,
         1.34417534e-01, -9.47626159e-02,  6.53614774e-02,
         9.89202857e-02, -3.71543199e-01, -2.97073543e-01,
        -1.25193641e-01, -9.58044603e-02, -8.45067129e-02,
         8.55157524e-02,  2.05512315e-01,  1.33772828e-02,
         2.12625653e-01, -1.13430154e-02,  1.16223715e-01,
         1.28518119e-01,  5.06475335e-03, -1.13385953e-01,
        -1.22368030e-01, -1.46926165e-01,  6.95851073e-02,
        -1.52916342e-01, -4.42893989e-02,  3.33620086e-02,
         3.12937409e-01,  5.60252964e-02,  9.53978114e-03,
        -8.33354518e-02, -3.53359371e-01,  6.73822463e-02,
        -2.86723942e-01,  2.54061073e-01, -8.54152627e-03,
        -3.66443582e-02],
       [ 8.27818830e-03,  2.94500180e-02, -1.66776907e-02,
        -1.83706298e-01, -3.86320688e-02, -7.61108696e-02,
        -3.42955515e-02, -3.38295512e-02, -2.38669440e-02,
         2.78936811e-02,  3.73210944e-02, -9.18725356e-02,
         9.10716802e-02, -9.40291658e-02, -9.23234224e-02,
        -1.74543038e-01, -7.73708671e-02,  5.37132584e-02,
        -4.10199016e-02, -1.53215706e-01,  2.52151247e-02,
         6.93820044e-02,  7.03182966e-02,  1.37408838e-01,
         1.06111594e-01,  1.65723160e-01, -1.62925646e-01,
         1.81669995e-01, -2.31815930e-02, -1.60676971e-01,
        -1.32729009e-01, -2.39536628e-01,  5.01435660e-02,
         1.29260808e-01, -6.73764199e-02,  1.58954471e-01,
         2.87340432e-01, -4.33103330e-02, -1.20450091e-02,
        -5.63175306e-02,  2.56327614e-02, -2.08455175e-02,
        -3.77751291e-02, -1.14779964e-01,  2.00578999e-02,
        -3.46774846e-01, -7.85213411e-02,  2.70736200e-04,
         1.22425146e-01, -1.30632550e-01, -1.74508989e-01,
        -4.73429650e-01,  2.76858248e-02, -9.88577083e-02,
         1.45917490e-01,  3.42697427e-02, -1.36171758e-01,
        -4.58851099e-01, -7.55900890e-02, -3.62640508e-02,
         2.90022530e-02,  2.27626920e-01, -4.90006059e-02,
         1.57871127e-01],
       [ 1.91314563e-01,  1.05652876e-01,  3.67079638e-02,
        -2.26012006e-01, -4.90596831e-01, -2.08922345e-02,
         1.73524022e-02, -6.15396816e-03,  7.15350220e-03,
        -8.44219923e-02,  4.29661833e-02, -7.00666308e-02,
         1.94178715e-01, -1.96490154e-01,  9.97085124e-02,
         3.77114356e-01, -9.36063528e-02,  3.30982916e-02,
         1.09844108e-03, -5.61604137e-03,  3.94018069e-02,
         4.43777032e-02, -2.47623473e-01, -9.32419077e-02,
         2.55338997e-01, -1.43244728e-01, -9.90123227e-02,
        -1.96731150e-01, -2.57375687e-01,  4.58397865e-02,
         1.64836332e-01,  9.85515565e-02,  1.90547779e-01,
        -2.32751861e-01,  2.03048706e-01,  8.33750740e-02,
         7.82108530e-02, -4.18975651e-02, -1.18963115e-01,
         7.47756660e-02,  2.72847086e-01,  1.28082940e-02,
         1.90902799e-01,  9.14000496e-02,  9.39121097e-02,
        -3.56803060e-01, -3.31356257e-01,  2.44114965e-01,
        -1.56925604e-01, -1.41109824e-01,  1.06194980e-01,
         1.99222147e-01,  6.27152738e-04, -6.44833967e-02,
         2.27456927e-01,  8.93144608e-02,  9.53168869e-02,
        -1.79561637e-02,  2.01168016e-01, -6.41310075e-03,
         3.12526047e-01,  2.59548426e-01, -4.76914123e-02,
        -6.40776530e-02],
       [ 1.97748840e-01,  1.89897180e-01,  1.23789292e-02,
         6.52557760e-02, -1.53105035e-01, -5.01592197e-02,
        -8.09999332e-02, -6.72715753e-02,  4.70055342e-02,
         3.08948234e-02, -2.08864182e-01,  2.85777282e-02,
         6.08756721e-01,  1.28462300e-01,  3.14528078e-01,
         1.61288470e-01, -8.35892782e-02, -1.31467596e-01,
         7.26966634e-02,  2.05590069e-01, -7.49189183e-02,
        -4.57396768e-02, -8.62462223e-02,  2.45821521e-01,
        -8.05807824e-04, -4.99035604e-02,  6.50845245e-02,
        -4.15957481e-01,  2.29120944e-02,  1.62974894e-01,
         3.38966846e-01, -1.33553147e-01,  1.39731010e-02,
         7.75436908e-02, -1.79877356e-01,  2.12608427e-01,
        -3.02843899e-01, -2.94418186e-02, -7.44455457e-02,
         1.20654389e-01,  1.73334107e-02, -1.98329240e-02,
         2.62519598e-01,  4.60425198e-01,  2.13235438e-01,
         2.37258375e-01,  1.53209772e-02,  1.15052857e-01,
         1.79879442e-01, -9.34313834e-02,  5.49663007e-02,
        -3.66691589e-01,  2.56282985e-02, -8.33872482e-02,
         1.33062020e-01, -7.07800537e-02,  3.85340273e-01,
         8.15296322e-02, -3.50121483e-02,  8.79563019e-02,
         4.30921279e-02, -5.45309745e-02, -7.58165717e-02,
        -2.06127420e-01],
       [-6.97747096e-02, -1.30038830e-02, -3.57879996e-02,
        -4.26089279e-02, -7.05346912e-02, -3.39279138e-02,
        -7.47084320e-02, -4.18155193e-02, -6.78069219e-02,
        -1.40240192e-02,  5.17316069e-03, -3.32201123e-02,
         7.26756230e-02, -2.22997777e-02, -4.85030301e-02,
         7.17952028e-02, -5.43486793e-03,  7.60805234e-02,
        -5.76412678e-03,  2.30651107e-02,  5.06432578e-02,
        -2.76817624e-02, -4.45854217e-02, -5.08705229e-02,
         4.46463674e-02, -4.45075072e-02, -7.80441761e-02,
         8.35618842e-03, -1.46747269e-02,  1.57325121e-04,
         8.41561705e-03, -5.90148754e-02, -5.31791970e-02,
        -2.69551370e-02,  2.15590000e-02,  3.43986638e-02,
        -5.58201745e-02, -6.86811656e-02, -1.33120641e-02,
        -8.19303244e-02,  3.51293236e-02,  6.20911941e-02,
        -2.73936018e-02, -7.71296695e-02, -2.59899255e-02,
        -3.72602940e-02, -2.21904702e-02,  6.11908324e-02,
        -3.21369022e-02, -7.85545036e-02,  7.56820515e-02,
        -1.16677741e-02, -3.89368348e-02, -1.19934641e-02,
         5.21601662e-02, -4.48787399e-02,  4.61518988e-02,
        -7.92849064e-02,  6.08475395e-02, -7.26798996e-02,
        -5.78190237e-02,  6.67838231e-02, -2.07288638e-02,
         4.27798405e-02],
       [-7.15135857e-02,  6.85922056e-03, -2.59167887e-02,
         1.83754582e-02, -1.30454991e-02, -3.93634215e-02,
        -6.57422766e-02, -1.11157307e-02,  2.32570916e-02,
        -2.43431143e-02, -1.58899892e-02, -2.70690843e-02,
        -9.71306022e-03, -4.94351126e-02,  4.18155789e-02,
        -6.71707932e-03, -7.30597973e-03,  8.26922432e-03,
         4.43500057e-02, -6.20367154e-02,  2.36540884e-02,
        -1.34990970e-02, -3.12032271e-02, -6.60228357e-03,
        -1.14704268e-02,  6.34494796e-02,  3.84915508e-02,
        -3.39527726e-02,  3.76527477e-03, -9.94138420e-03,
        -5.15446775e-02,  3.98489349e-02, -2.95366049e-02,
        -2.01571006e-02, -5.77937700e-02, -3.89700532e-02,
         6.15509041e-02, -1.04741827e-02, -6.94495514e-02,
         4.50264812e-02, -9.24755726e-03, -2.28689313e-02,
        -1.62503850e-02,  1.63953602e-02, -6.11952841e-02,
         4.92977314e-02,  3.76443304e-02,  1.29838921e-02,
        -7.85924122e-02,  2.96353083e-02, -8.62885937e-02,
        -5.76380789e-02,  2.67974585e-02,  6.09266013e-02,
         2.81812698e-02, -2.72527169e-02, -5.26956134e-02,
         3.30999047e-02, -1.08717394e-03,  7.71881714e-02,
        -5.83404750e-02, -1.50668593e-02, -1.44054741e-03,
         4.34756167e-02],
       [ 1.39308736e-01, -6.36075586e-02,  3.65075516e-03,
         1.45793542e-01,  1.52795203e-02,  8.62095654e-02,
        -8.34496468e-02,  4.34704870e-02, -5.95814437e-02,
         4.19304632e-02,  6.07518107e-02,  4.39048819e-02,
         9.29896310e-02,  1.14942580e-01, -1.25964880e-01,
        -2.61432901e-02,  2.49824580e-02, -3.93033884e-02,
        -6.89154416e-02, -8.25937167e-02,  2.28664726e-02,
         9.11914036e-02, -1.39638618e-01, -2.24024922e-01,
         3.63303423e-02, -6.35734797e-02, -1.37362152e-01,
        -1.70763224e-01,  1.99678943e-01, -4.49703336e-02,
        -5.81655167e-02, -1.24145225e-01, -3.68555076e-02,
         2.92335033e-01, -3.08356166e-01, -3.06089878e-01,
         1.55914083e-01,  6.68455884e-02,  3.63203548e-02,
        -1.43560439e-01, -9.06048063e-03, -5.94021454e-02,
         2.06703365e-01,  1.11565581e-02, -2.28160098e-01,
        -5.41298725e-02,  1.44298032e-01, -2.21002281e-01,
        -3.94132406e-01,  1.93594098e-01,  1.87450364e-01,
         3.07343394e-01,  4.34485413e-02, -9.44363605e-03,
        -3.38164321e-03, -1.49480598e-02, -1.56735867e-01,
        -1.75190225e-01, -5.64236306e-02, -2.14827552e-01,
         1.90862551e-01, -1.40586659e-01, -3.84336263e-02,
        -9.29109529e-02],
       [ 3.21615301e-02,  7.01221079e-02, -8.36329907e-02,
         1.56006077e-02,  4.13514115e-03,  5.18311486e-02,
         1.07857250e-02, -7.46189803e-02,  7.24504292e-02,
         6.46013990e-02, -4.10742685e-02, -4.84890230e-02,
         6.27933815e-02,  6.23386055e-02, -9.30242881e-04,
        -1.02008678e-01,  3.81262377e-02, -2.35982183e-02,
        -7.99855217e-02, -3.62243652e-02, -1.36672787e-03,
        -5.96666932e-02,  6.61592335e-02,  4.97947261e-02,
         5.78960590e-02, -5.83341494e-02,  3.81715707e-02,
         3.39237414e-02,  5.06036058e-02, -7.73583055e-02,
        -7.93229938e-02, -3.95375490e-02, -5.38325161e-02,
         1.59124956e-02, -3.64777423e-03, -3.10167335e-02,
         1.12502217e-01, -2.73382477e-02, -6.99958280e-02,
         5.78349009e-02, -1.79255512e-02,  6.15161732e-02,
        -6.08895868e-02,  9.01460834e-03,  3.71823870e-02,
         7.18493611e-02, -5.66095077e-02, -3.12161669e-02,
         2.56733736e-03,  1.36055117e-02, -1.75528526e-02,
         3.81612629e-02,  1.18199643e-02,  4.79580387e-02,
         8.62525124e-03,  8.12473986e-03, -8.05845112e-02,
        -7.12315291e-02,  2.27384437e-02, -6.38457984e-02,
        -7.47580528e-02,  9.87618268e-02, -4.01302390e-02,
         7.44856670e-02],
       [-5.01996502e-02,  2.38593370e-02, -5.01763374e-02,
        -3.87079045e-02,  1.42766675e-02, -8.09979886e-02,
        -3.95206921e-02,  7.14915767e-02, -8.60596169e-03,
        -1.75626501e-02,  3.26390341e-02,  3.93481515e-02,
         8.72489717e-03,  1.12290524e-01, -1.06388452e-02,
        -1.26645071e-02, -5.52014522e-02, -2.47522315e-04,
         5.71522936e-02, -9.85712111e-02, -7.61060119e-02,
        -1.94644779e-02,  6.38642684e-02, -8.81507471e-02,
         7.57435858e-02,  6.95882589e-02, -3.13379988e-03,
         1.62680931e-02,  4.97741252e-02,  1.70780644e-02,
        -2.64330953e-03,  2.74879336e-02, -3.30451429e-02,
         2.45359577e-02,  2.22657677e-02,  1.23994462e-02,
         4.97688763e-02, -4.92480211e-02, -9.84120369e-03,
         3.32373008e-02, -2.78686155e-02, -1.83037892e-02,
         4.22462299e-02, -3.32880253e-03,  3.17667914e-03,
         4.25428301e-02, -5.80857731e-02,  2.55100951e-02,
        -1.17468834e-02,  7.60059357e-02, -6.77180514e-02,
        -4.09280928e-03,  2.70698089e-02, -1.67587623e-02,
         8.65390748e-02, -5.36740422e-02,  4.86906245e-02,
         6.40241876e-02, -1.98721164e-03,  8.21022242e-02,
        -4.64641042e-02,  3.64439934e-02,  6.09304085e-02,
         3.27311978e-02],
       [ 1.25954971e-01, -9.58780646e-02, -9.10255536e-02,
        -2.58177251e-01,  7.97239542e-02, -1.03386253e-01,
        -6.83977455e-02, -3.90959084e-02, -7.98033699e-02,
        -2.90219635e-02, -2.27118079e-02,  8.48441292e-03,
         7.77338222e-02, -2.29756564e-01,  1.46009192e-01,
         3.48363250e-01,  5.99764893e-03, -6.31285831e-02,
         1.62582565e-02, -1.11927249e-01, -7.69890547e-02,
        -2.38596141e-01, -4.25932705e-02,  9.37634408e-02,
         1.80172827e-02,  1.09370746e-01, -5.59930690e-02,
        -2.26094902e-01, -6.55361339e-02,  7.76384324e-02,
         9.83356461e-02, -2.12709948e-01,  8.41533840e-02,
        -1.81360379e-01, -3.34478855e-01, -4.16950047e-01,
        -4.56097983e-02, -4.23425436e-02, -3.82942744e-02,
         3.47283967e-02,  7.16464147e-02, -7.29272664e-02,
         3.56185794e-01, -2.48980537e-01,  7.08913580e-02,
         3.32417637e-01,  8.61385018e-02, -1.69162571e-01,
        -1.79118440e-01, -1.27365559e-01, -1.15553036e-01,
         2.75491327e-01, -3.49721983e-02,  2.84713097e-02,
         8.09992701e-02, -2.38340534e-02,  1.47067010e-01,
        -1.35806724e-01, -2.08600178e-01, -1.06135882e-01,
        -1.06148697e-01,  1.45423084e-01,  3.06666885e-02,
        -1.35193035e-01],
       [-5.06942123e-02,  6.77702501e-02,  1.99110359e-02,
