[array([[-3.72474104e-01, -3.37758690e-01, -3.40362251e-01,
        -6.22712374e-01, -4.11008149e-01, -5.28888106e-01,
        -3.18564713e-01, -1.33410960e-01, -4.17723000e-01,
        -1.27428412e-01, -3.90988976e-01, -3.04624915e-01,
        -5.79985231e-02, -4.31656659e-01,  2.52857320e-02,
        -6.15444362e-01, -4.52237856e-03, -2.61671215e-01,
        -2.03664917e-02, -5.07077515e-01, -3.78093541e-01,
        -6.77784681e-01, -3.27375889e-01, -4.49777305e-01,
        -1.67310283e-01, -3.90995055e-01,  6.87013716e-02,
        -2.09190384e-01, -2.96485901e-01, -4.06571567e-01,
         1.55303227e-02, -2.37983853e-01, -5.55403531e-01,
         1.29990941e-02, -3.34740937e-01, -4.19352017e-02,
        -8.42031557e-03, -2.15555102e-01,  2.85195053e-01,
        -3.11059326e-01, -4.24609274e-01, -7.23337531e-02,
         6.63168281e-02],
       [-1.62785545e-01, -8.82488042e-02, -1.31272197e-01,
        -1.51630476e-01, -1.90991297e-01, -1.24308303e-01,
        -1.70046061e-01, -2.77575463e-01, -3.59211676e-02,
        -2.33129695e-01, -2.44819298e-01, -2.37183481e-01,
         2.90563852e-01, -4.83449489e-01, -3.56814653e-01,
         8.24438706e-02,  5.44084534e-02, -2.41886839e-01,
        -3.87846917e-01, -2.10595932e-02, -2.36296937e-01,
        -8.40577483e-02,  1.25780672e-01, -1.80838406e-02,
         1.64961487e-01, -3.80694002e-01, -1.77211285e-01,
        -2.60258988e-02, -1.51045486e-01, -1.45970727e-03,
         2.64140107e-02,  9.30900872e-02,  1.56317763e-02,
        -6.54318407e-02, -3.39841068e-01, -4.48055714e-01,
        -3.23364288e-01, -5.01090884e-01, -1.30495176e-01,
        -2.23978817e-01, -3.62414308e-02, -1.59935355e-01,
        -1.81251526e-01],
       [ 3.04691792e-01,  3.40389013e-01,  3.62578839e-01,
        -2.79805332e-01,  3.05484742e-01,  8.98288265e-02,
         1.24481767e-01,  2.12423399e-01,  2.32326716e-01,
         1.06881358e-01, -1.05481517e+00,  1.35904908e-01,
        -8.04280341e-02, -4.95438948e-02,  1.01046704e-01,
         3.68447490e-02,  3.87167662e-01, -8.13390240e-02,
        -1.34453520e-01, -3.59842181e-02, -4.97551173e-01,
        -2.89706320e-01, -5.46029687e-01, -1.51271880e-01,
        -4.92476434e-01, -8.72318923e-01, -4.03394550e-01,
         2.08577603e-01,  3.54463041e-01, -1.38655156e-01,
        -8.87750238e-02, -3.52843761e-01,  3.35517138e-01,
        -6.45647585e-01, -5.45948863e-01, -4.55056548e-01,
        -2.34928876e-02, -3.29370946e-01,  1.90750137e-02,
         1.30900159e-01,  5.44064827e-02, -3.72175761e-02,
        -4.18098062e-01],
       [ 6.51593879e-02,  5.52617311e-02, -1.57255739e-01,
        -1.07734442e-01,  2.51356721e-01, -3.15581262e-01,
        -4.47144657e-01,  3.01142842e-01,  3.07055470e-02,
         4.25979823e-01,  2.60213017e-01, -3.27906251e-01,
        -7.86379054e-02,  5.84668398e-01,  1.58350512e-01,
         1.30185083e-01,  2.18447939e-01,  3.67821246e-01,
         5.48056746e-03,  4.24940027e-02, -4.94725943e-01,
        -6.36101663e-01, -1.48009747e-01,  1.35684028e-01,
        -9.44981039e-01, -3.43485892e-01, -2.78731644e-01,
        -3.22335273e-01, -5.01162857e-02, -8.19346905e-01,
        -1.95784658e-01, -4.21603411e-01, -1.62521839e-01,
         2.48776034e-01, -5.71674585e-01, -3.87098908e-01,
        -5.10994852e-01, -1.90079987e-01, -4.96886671e-01,
         1.34078246e-02,  1.52521446e-01,  2.26195008e-01,
        -6.66633025e-02],
       [ 1.20821958e-02, -1.59172956e-02, -1.03214286e-01,
        -2.66541600e-01, -1.36867881e-01, -1.13709889e-01,
        -7.94543564e-01, -1.06740907e-01,  1.93935055e-02,
        -7.63549879e-02,  3.29317488e-02, -1.35387674e-01,
        -5.49255490e-01, -6.42302990e-01,  6.18171580e-02,
        -1.70181721e-01, -1.99048787e-01,  1.98850870e-01,
         1.42561778e-01, -8.26552510e-02,  2.26646870e-01,
        -2.90373564e-01,  5.14347553e-01,  3.30766171e-01,
         2.40715504e-01,  2.86958575e-01,  4.59224964e-03,
        -8.63341391e-02, -9.30680484e-02,  2.53942072e-01,
         3.35315526e-01,  5.34002483e-01, -3.41160417e-01,
        -5.20436279e-02, -3.09067160e-01, -6.35794580e-01,
        -1.28153908e+00,  3.06606352e-01, -3.71690899e-01,
        -1.67099237e-01, -4.49740976e-01, -7.33529270e-01,
        -5.06035686e-01],
       [-4.60090637e-02, -1.72301590e-01, -2.81826288e-01,
        -6.92672879e-02,  2.05197558e-01,  8.91956687e-02,
         1.41581088e-01,  1.06245004e-01,  2.92279683e-02,
        -1.47451222e-01,  4.56697345e-02,  1.19341407e-02,
        -9.11026299e-02, -1.82144836e-01,  7.80527666e-02,
        -2.28325024e-01, -7.32744520e-04, -1.64304450e-02,
        -2.57624775e-01,  8.06428790e-02, -2.30275437e-01,
         5.54154143e-02, -2.58377135e-01, -7.44911283e-03,
        -2.19622597e-01,  2.91289352e-02,  1.42649803e-02,
         1.78024411e-01, -1.94866329e-01, -1.40019059e-01,
         9.87147093e-02,  1.38194501e-01,  7.58825243e-02,
        -1.12266354e-01, -1.57960072e-01,  8.04110467e-02,
        -9.59370732e-02, -2.72465438e-01, -2.69847274e-01,
        -5.42368833e-03,  1.04958452e-01,  1.35486692e-01,
        -2.40234628e-01],
       [-2.68869072e-01, -5.94624765e-02, -2.45776191e-01,
        -1.25722572e-01,  1.24185644e-02, -1.01568107e-03,
        -1.74227320e-02,  7.11266622e-02, -9.67321023e-02,
        -3.71173061e-02, -1.99287355e-01,  1.08751737e-01,
         9.78501812e-02, -1.09960668e-01,  1.70267299e-01,
         1.73813552e-01, -8.79668221e-02, -1.01181855e-02,
        -6.61553591e-02,  9.30059180e-02,  1.51510745e-01,
         6.39804825e-02, -5.24243377e-02,  8.45666155e-02,
        -2.13791385e-01,  2.31202394e-01,  2.64649298e-02,
         1.23206891e-01, -1.69498056e-01,  2.03958616e-01,
         2.55004317e-02,  1.83400616e-01,  1.19804092e-01,
         2.06297815e-01,  7.75140524e-02, -7.55878165e-02,
         1.00047722e-01,  1.78316817e-01, -2.45430395e-01,
         6.13900051e-02,  1.99055642e-01,  1.92859545e-01,
        -9.03747305e-02],
       [-1.86250880e-01, -1.23653316e-03,  2.12793589e-01,
         1.18191436e-01,  1.25505194e-01, -2.24750891e-01,
         1.12153396e-01, -2.55432893e-02, -2.05403656e-01,
         1.79432213e-01, -4.87345979e-02, -1.20075367e-01,
         1.90119624e-01, -1.21286392e-01,  1.01378160e-02,
         1.31458268e-01,  3.68944705e-02, -2.06998155e-01,
        -6.75085932e-02,  1.62832305e-01,  1.64582044e-01,
         7.81068429e-02, -2.14959100e-01, -1.81068629e-01,
        -3.99342440e-02,  1.72854245e-01,  1.15179718e-01,
         6.56889677e-02, -1.41289994e-01,  8.21214244e-02,
        -1.23245992e-01,  4.81140316e-02,  1.02753304e-01,
        -1.33871779e-01, -9.48112383e-02, -1.19138420e-01,
        -2.04905532e-02, -9.67174098e-02, -2.18398720e-01,
         1.67062402e-01, -4.41293381e-02,  1.59780867e-02,
         8.25859010e-02],
       [ 1.16215035e-01, -2.31420230e-02, -1.91852644e-01,
         1.52379766e-01, -5.81501946e-02, -9.91809443e-02,
        -1.56560451e-01, -1.32198796e-01,  1.76978230e-01,
        -5.25797643e-02,  9.61499289e-02, -1.02269761e-01,
        -1.47690803e-01, -2.45994002e-01,  7.06931576e-02,
        -2.31027350e-01,  9.28694606e-02,  1.96351409e-01,
        -3.40569504e-02,  1.12592928e-01,  3.38318321e-04,
         1.48602232e-01,  4.07998115e-02, -5.07631227e-02,
        -2.15700284e-01, -2.16433629e-01, -6.23875856e-02,
        -1.60224829e-02, -5.46591915e-02,  4.17268053e-02,
         1.79563075e-01,  1.68724388e-01, -7.81186670e-02,
        -1.24892995e-01, -1.00250274e-01,  1.47058427e-01,
        -5.21454401e-02,  1.38517424e-01, -1.36603221e-01,
        -7.83274099e-02, -1.78048313e-01, -2.16146693e-01,
        -1.70579970e-01],
       [-6.15700036e-02, -2.46761546e-01, -8.48428532e-02,
        -1.72967076e-01, -5.62985800e-02, -8.21338296e-02,
         1.70044228e-01,  1.86617881e-01,  3.16211544e-02,
        -4.89161499e-02, -2.25385502e-01, -2.44435802e-01,
         1.42924353e-01,  1.12067424e-01,  3.70934010e-02,
        -8.59143883e-02, -1.27942160e-01,  5.47708496e-02,
         9.90150198e-02,  7.29347542e-02, -3.69717069e-02,
         8.42514783e-02,  1.88064784e-01,  8.87967050e-02,
         8.76860395e-02, -1.14449970e-01, -8.76396149e-02,
        -1.66331664e-01, -2.82273561e-01, -2.54809838e-02,
         1.05828658e-01, -6.44485280e-02, -4.26897332e-02,
        -5.42479903e-02,  1.46713763e-01, -7.88633004e-02,
         5.85435666e-02, -2.18612477e-01, -1.13664977e-01,
        -2.32124180e-01, -2.60736078e-01, -2.77554274e-01,
        -1.88247934e-01],
       [-1.97417393e-01, -1.17192224e-01, -1.07149966e-01,
        -8.39739799e-01,  2.78976351e-01, -1.23566173e-01,
         2.01557592e-01,  2.69804806e-01,  9.39884335e-02,
        -4.82922763e-01, -2.98566908e-01, -2.33284265e-01,
        -1.10407084e-01, -1.45213768e-01, -8.78737271e-01,
         2.85436630e-01, -8.57608259e-01, -7.13879287e-01,
         3.05901151e-02, -5.27468443e-01,  5.26276268e-02,
        -1.18632212e-01,  1.30596366e-02, -6.46364033e-01,
         2.92382985e-01, -2.56574273e-01,  2.05371544e-01,
         1.89581677e-01, -3.80083174e-01, -4.31341439e-01,
         2.67497301e-01, -4.28648055e-01, -4.24193889e-01,
        -7.99675733e-02, -1.34371743e-01, -1.49590224e-01,
        -4.68990654e-01,  3.03505927e-01,  4.11612809e-01,
         2.12557316e-01, -2.71690637e-02, -5.79421461e-01,
        -9.32077244e-02],
       [-1.08843498e-01,  6.19154563e-03, -5.39889745e-02,
        -5.58411628e-02, -1.85439467e-01,  2.28226092e-03,
         8.07813108e-02,  9.74420309e-02, -1.72554910e-01,
        -9.25776735e-02, -1.98084712e-02,  7.29295164e-02,
         1.59960240e-01, -1.51488125e-01, -1.79622397e-01,
         1.82784140e-01, -1.29945442e-01, -2.73780048e-01,
        -1.85634375e-01, -1.25522718e-01, -6.74430281e-02,
         3.80230165e-04,  5.22992276e-02, -5.60402386e-02,
        -2.12348446e-01, -2.27587208e-01, -1.64703578e-01,
         5.75008318e-02,  2.36156024e-02,  8.92425179e-02,
        -2.22446136e-02, -4.62762304e-02,  1.12098128e-01,
         1.81486249e-01, -1.59242466e-01,  6.47238344e-02,
         3.61609422e-02, -1.98507085e-01,  1.96053460e-02,
         1.49725497e-01,  3.64618711e-02, -2.68724054e-01,
        -1.67012990e-01],
       [ 5.11735976e-02, -6.95793256e-02,  6.54147938e-02,
        -4.99845266e-01, -2.83539951e-01, -5.18889390e-02,
        -7.52985179e-02, -2.97454178e-01,  1.46505356e-01,
        -1.90393001e-01,  1.29436413e-02, -5.65288067e-01,
         2.17619594e-02,  1.38874784e-01, -9.28073645e-01,
        -2.84909040e-01, -2.74191856e-01, -6.24014258e-01,
        -5.44628024e-01, -1.49453804e-01, -6.32787272e-02,
        -9.58664119e-02,  3.08517873e-01,  3.10046643e-01,
        -9.77016427e-03, -8.62353966e-02, -1.40587583e-01,
        -7.97983944e-01, -1.89062729e-01, -3.32054645e-02,
        -6.07142299e-02,  8.61505046e-02, -8.75823557e-01,
         3.42111528e-01,  4.19492334e-01,  4.07744586e-01,
         2.50070065e-01,  3.53303701e-01,  3.52677047e-01,
         3.62506181e-01,  3.42609167e-01, -2.02402413e-01,
        -6.49884999e-01],
       [-2.36588970e-01,  1.56003207e-01,  3.02233785e-01,
         3.39340925e-01,  3.36172730e-01,  5.08030094e-02,
        -7.52632558e-01,  3.92785817e-01, -4.19257492e-01,
         7.92635530e-02,  3.01717460e-01, -1.50624692e-01,
        -5.06523587e-02, -2.25869641e-01, -9.55224335e-01,
        -3.35165411e-01,  3.94289009e-02, -9.29459691e-01,
        -4.12301183e-01,  2.57819384e-01, -9.98099864e-01,
         2.06863999e-01, -2.09837139e-01,  1.69660375e-01,
         1.44643873e-01,  5.90307303e-02, -2.55598485e-01,
        -1.81468241e-02, -3.14415216e-01, -2.21743539e-01,
         8.61550197e-02,  9.74923447e-02, -1.19398393e-01,
        -2.13705868e-01,  4.41732593e-02,  1.16632052e-01,
        -3.22063506e-01,  1.84574142e-01, -6.05672374e-02,
        -2.63014108e-01,  3.25309455e-01, -5.57862043e-01,
        -1.64504368e-02],
       [ 1.40383393e-01,  2.93321967e-01,  2.86097620e-02,
        -2.23497942e-01,  1.27752185e-01, -4.26799774e-01,
        -4.73078996e-01, -2.75613695e-01,  2.98603356e-01,
        -2.52656221e-01, -8.18760395e-01, -8.34176242e-02,
        -4.10055518e-01, -3.60898733e-01, -7.25429535e-01,
         3.25243294e-01, -2.64069706e-01, -4.65776771e-01,
         2.05915108e-01, -5.00999251e-03, -3.27113420e-01,
         9.24437866e-02, -4.62938070e-01, -4.38256234e-01,
         5.35011292e-02, -1.41187623e-01,  1.51061028e-01,
         2.39670321e-01, -7.23836347e-02, -4.25738484e-01,
        -3.73054415e-01, -2.39168644e-01,  1.51166603e-01,
         2.77528524e-01,  1.11621924e-01,  1.94497779e-01,
         2.08217204e-02,  2.06272334e-01, -8.31965283e-02,
         4.48319726e-02,  4.33944434e-01,  4.31832895e-02,
        -5.10757804e-01],
       [ 8.40181336e-02, -1.67272210e-01, -7.01858163e-01,
        -3.11746359e-01,  1.10769048e-01, -1.21631354e-01,
         3.43711674e-01,  1.68119133e-01,  4.95045096e-01,
        -2.82934129e-01, -2.67872125e-01, -1.71054572e-01,
         3.81207347e-01, -9.11132693e-02,  2.45291367e-01,
        -6.04630530e-01,  1.26083940e-01,  1.84075683e-01,
         4.52520885e-02, -3.14809620e-01, -2.88698882e-01,
        -2.75804490e-01, -1.58982074e+00, -5.92724144e-01,
        -8.88813615e-01, -3.06551218e-01, -2.97145605e-01,
        -6.95403099e-01, -6.77060187e-01, -3.68400604e-01,
        -2.91144192e-01, -4.55628067e-01,  2.51453340e-01,
        -3.25787127e-01, -2.20913947e-01,  1.61288157e-01,
        -3.14727835e-02,  1.59102418e-02, -2.29092181e-01,
        -2.44936153e-01,  2.41633341e-01,  3.74516070e-01,
         3.26603591e-01],
       [-1.80242121e-01, -8.47249180e-02, -1.86497256e-01,
         2.06621334e-01, -1.67601302e-01, -7.23719969e-02,
         7.36552328e-02,  2.30947375e-01, -8.66212919e-02,
         2.02178881e-02, -7.87341893e-02, -5.54934293e-02,
        -3.30314524e-02,  1.04761474e-01, -1.22518368e-01,
         1.65684223e-02, -2.25387085e-02,  1.72723308e-01,
         1.22161649e-01, -1.25043079e-01,  1.93797611e-02,
        -1.71221793e-02,  3.17286253e-02, -7.57331178e-02,
         1.90567598e-01, -6.26097620e-02,  2.65593957e-02,
        -4.77485135e-02,  1.92738205e-01,  5.14772944e-02,
         2.13697776e-01, -1.18545806e-02, -2.04124287e-01,
        -1.32801026e-01,  1.92785114e-01,  1.77690834e-02,
        -1.80910364e-01,  2.20404528e-02, -6.73368722e-02,
         1.93150118e-01,  1.91792548e-01,  4.95445840e-02,
        -1.61953285e-01],
       [-1.72140330e-01, -2.46048376e-01,  1.23547100e-01,
        -2.16910467e-01,  4.51262221e-02, -1.11528495e-02,
        -7.00683966e-02,  1.84783079e-02, -6.67776689e-02,
        -1.91566423e-01, -1.81072086e-01,  5.83252758e-02,
        -5.60841821e-02, -8.33446439e-03,  1.02014914e-01,
        -2.04073414e-01, -2.57083863e-01,  8.72520879e-02,
         5.32478318e-02, -1.39899224e-01, -1.93493530e-01,
         9.58830044e-02, -6.60309643e-02, -1.01588041e-01,
         1.04548648e-01, -1.80092044e-02, -2.61808366e-01,
        -2.10395470e-01,  1.99374463e-02, -4.61582392e-01,
        -5.66168725e-02, -2.19707891e-01, -2.13535950e-01,
        -3.46647613e-02, -1.61660433e-01, -3.69050622e-01,
        -2.03796759e-01, -1.94939032e-01, -3.60544354e-01,
        -2.82926649e-01, -2.89099127e-01,  8.08999240e-02,
         9.78158936e-02],
       [-1.19362257e-01,  1.13579385e-01, -8.80485773e-02,
        -1.55240312e-01, -1.01662278e-01,  1.07175179e-01,
        -1.39293388e-01, -1.91700846e-01, -1.61529146e-02,
        -7.14636967e-02, -2.40270182e-01, -2.45063484e-01,
         1.22143738e-01, -2.83897698e-01,  3.77865545e-02,
         1.44885585e-01,  4.09943052e-02, -8.45275521e-02,
        -2.08370715e-01, -1.46583185e-01, -4.31671627e-02,
        -1.00346911e-03, -2.81420469e-01, -2.47505069e-01,
        -3.21038403e-02, -1.02981567e-01, -2.95962572e-01,
        -1.21604025e-01,  5.03893383e-03,  1.43790513e-01,
         5.73756322e-02,  1.82894528e-01,  2.05490738e-02,
        -1.58356220e-01, -2.62465775e-01, -1.44020224e-03,
        -7.51384944e-02,  1.83893055e-01, -1.17121689e-01,
         8.69684760e-03, -1.04963973e-01,  1.63568139e-01,
        -1.55266002e-01],
       [-6.40026152e-01,  9.35575962e-02,  4.83475290e-02,
        -3.70649546e-01, -1.38280764e-01,  1.18508721e-02,
         3.55589718e-01, -1.46989673e-01, -7.37790406e-01,
        -9.39745903e-02, -1.90909311e-01,  2.93590516e-01,
        -1.46006107e-01, -1.99746937e-01, -1.54837862e-01,
        -5.17846167e-01,  6.79937229e-02, -2.86826789e-01,
        -2.05875784e-01, -4.35830653e-01, -1.30103797e-01,
         2.23522395e-01, -7.87362516e-01, -2.15430155e-01,
         6.69390485e-02,  1.95770279e-01, -4.92367089e-01,
        -2.97321707e-01, -8.89570788e-02, -4.19656426e-01,
         2.44033068e-01, -4.23137009e-01, -1.07440792e-01,
         4.22535658e-01,  1.45396203e-01,  4.33383621e-02,
         3.46974790e-01,  2.38595065e-02, -1.85750067e-01,
        -2.27292106e-01, -1.17795924e-02,  1.78804904e-01,
         4.14146900e-01],
       [ 6.34053573e-02,  3.82540859e-02,  7.30494112e-02,
        -2.19307348e-01, -6.97146133e-02, -2.13026837e-01,
        -9.81602259e-03,  2.45135985e-02, -1.61166713e-01,
         9.98604745e-02,  1.78062215e-01, -1.60512611e-01,
        -2.72260793e-02,  8.15189257e-02,  1.17432199e-01,
        -6.58390820e-02,  2.05300413e-02, -1.82623968e-01,
        -1.16088711e-01,  1.30673591e-02, -2.27347568e-01,
         1.02867372e-01,  1.66515008e-01, -1.30686879e-01,
        -1.41081110e-01, -9.33996215e-02, -1.45386681e-02,
        -1.10147558e-01, -2.48605907e-01, -1.56081662e-01,
         8.82968158e-02,  1.79517701e-01, -2.00210452e-01,
         1.32939219e-01,  1.22455575e-01,  6.67867139e-02,
        -2.98493151e-02, -2.37799212e-01, -1.37274086e-01,
        -2.73479283e-01,  1.90140173e-01,  2.06035838e-01,
        -1.28470361e-01],
       [ 1.82355344e-01,  2.08178923e-01, -5.01870453e-01,
        -3.94299567e-01, -7.49421716e-02, -1.39176901e-02,
        -3.85431290e-01, -1.80831388e-01,  7.57143945e-02,
        -3.28943580e-01,  9.74258929e-02, -4.03245725e-02,
         5.59645779e-02,  1.94874391e-01, -9.58382487e-02,
         1.26804501e-01, -5.11529624e-01,  9.11512524e-02,
        -2.10233852e-01, -1.02433372e+00,  4.32970345e-01,
        -4.60574567e-01, -3.81214917e-01, -6.47555411e-01,
        -7.87044823e-01, -3.79917622e-01, -1.54907018e-01,
        -1.07930243e-01,  1.64334998e-01, -1.20257922e-01,
        -2.19583377e-01,  1.85235992e-01,  6.33851588e-02,
        -1.21729124e+00, -6.93560839e-01, -2.07379788e-01,
        -3.53893340e-01, -1.08674634e+00, -3.77179980e-01,
        -9.16935146e-01, -1.09046888e+00, -1.44330740e-01,
         2.37960875e-01],
       [-7.24233016e-02, -4.18325156e-01, -2.32717320e-01,
        -3.92290920e-01,  9.40426439e-03, -3.63293439e-01,
        -7.07985938e-01, -4.23356563e-01, -3.40923876e-01,
        -2.55526006e-01, -5.64903021e-01, -3.13826263e-01,
        -4.25956786e-01, -7.93634281e-02,  2.56306887e-01,
         2.47805536e-01, -4.79499340e-01, -6.28274977e-02,
         2.55489051e-01, -4.24057096e-02, -5.37648164e-02,
         2.63087630e-01,  3.55786860e-01,  1.53256342e-01,
         4.43054795e-01, -7.41527528e-02, -2.67592352e-02,
         3.93325806e-01,  4.67795163e-01,  4.65075731e-01,
        -1.02733076e-01,  2.29607090e-01, -2.54411697e-01,
        -1.66330576e-01, -8.35970700e-01, -5.93205035e-01,
         2.56426960e-01, -4.25934196e-01,  9.02305394e-02,
         4.48278040e-02, -9.61693749e-03, -4.22107354e-02,
        -7.46800542e-01],
       [ 3.01019371e-01,  3.43306929e-01, -3.86994779e-01,
         1.17802039e-01,  1.71047211e-01,  3.83188069e-01,
         3.20187479e-01, -3.41827492e-03, -1.68867588e-01,
        -1.89165309e-01, -2.75833607e-01, -4.52367872e-01,
         6.81308508e-02,  1.72103509e-01, -2.75946021e-01,
         3.40206474e-01,  1.67030707e-01, -1.67531028e-01,
        -6.37600601e-01, -9.34809268e-01, -1.45287618e-01,
        -2.45169103e-01, -2.97434837e-01, -5.14380574e-01,
        -2.30740872e-03,  2.60561109e-01, -4.47543174e-01,
        -4.81746912e-01, -6.82759821e-01,  1.39215559e-01,
        -3.18257928e-01, -6.94719255e-01,  1.73470020e-01,
         1.60099506e-01, -1.47343859e-01, -6.58208737e-03,
        -2.17854574e-01, -1.07786965e+00, -7.68630505e-02,
        -4.16871130e-01, -3.01824026e-02, -7.42664188e-02,
         7.31904283e-02],
       [ 2.02755138e-01, -1.89347332e-03, -7.78071955e-02,
        -1.04728483e-01,  2.32318342e-01,  3.13242167e-01,
         1.41242538e-02,  4.24327940e-01,  2.49058753e-01,
        -2.39960074e-01,  2.06540346e-01,  3.49244326e-02,
        -2.47164778e-02,  6.08326085e-02, -9.31419730e-01,
        -1.53654605e-01, -2.04595640e-01, -1.33328354e+00,
        -3.17163587e-01, -1.16933078e-01, -3.38292569e-02,
         1.09131224e-01, -6.42134324e-02, -2.60537803e-01,
        -5.55076562e-02,  5.45950830e-02,  1.73786044e-01,
         1.57152742e-01,  5.53250350e-02,  3.10980320e-01,
        -5.68503976e-01,  4.83627856e-01, -6.20244622e-01,
         1.75978065e-01, -1.07713044e+00, -1.19612031e-02,
        -4.85340357e-01,  2.13949740e-01, -2.32961968e-01,
         3.24557096e-01, -6.60753921e-02, -6.52065277e-01,
         1.57937631e-01],
       [ 2.33977094e-01,  1.55364037e-01,  2.09949836e-01,
         3.57061982e-01, -6.73876166e-01,  2.21131086e-01,
         2.61047930e-01, -1.47686481e-01, -5.35702169e-01,
        -1.08625397e-01,  7.32103661e-02, -5.35299815e-02,
        -7.34862804e-01, -1.49893001e-01, -1.75209343e-01,
        -3.41277599e-01, -1.80530310e-01, -4.02421653e-01,
        -3.12279314e-01, -5.51864505e-01,  2.36313418e-01,
         4.83104810e-02, -2.27754384e-01,  1.07363217e-01,
        -2.16660112e-01, -6.49516165e-01, -9.45632160e-01,
         1.70081500e-02, -1.76572368e-01, -3.31662118e-01,
        -1.78684264e-01,  6.04138523e-02,  2.20678374e-01,
        -1.51130080e-01,  2.01726928e-02, -2.13578254e-01,
        -1.93910003e-01, -1.23821884e-01,  1.00916058e-01,
         1.39584661e-01,  1.09396830e-01,  3.29123706e-01,
         4.11020428e-01],
       [-6.09350622e-01, -1.45460472e-01, -7.76964501e-02,
        -2.43563026e-01, -2.92944700e-01, -2.48193920e-01,
        -2.56268471e-01, -2.23402649e-01, -2.87250429e-01,
        -5.57091415e-01, -2.22377926e-01, -1.21617898e-01,
        -2.20482647e-01,  7.54332691e-02, -2.84467161e-01,
        -2.85206646e-01, -5.52179694e-01, -6.96645617e-01,
         9.18454528e-02, -6.45545602e-01, -5.57641745e-01,
        -4.97236848e-01, -7.25034550e-02, -5.85275948e-01,
        -4.15280879e-01, -4.08092588e-01,  6.46172464e-02,
         2.93088946e-02, -3.19154292e-01,  1.92506179e-01,
        -3.29459906e-01, -4.31574941e-01, -1.97104082e-01,
        -7.13320017e-01, -1.86887175e-01, -5.36565065e-01,
        -4.01039243e-01, -6.50329947e-01, -6.40153348e-01,
        -2.96925247e-01, -4.73765224e-01, -2.10651174e-01,
        -2.12722585e-01],
       [ 4.43161517e-01,  1.39173836e-01, -6.22352138e-02,
        -3.52028981e-02,  3.92376542e-01, -1.30447924e-01,
         2.24606410e-01, -7.82222807e-01, -6.63276851e-01,
        -8.36961508e-01, -3.02134573e-01, -1.32124603e-01,
        -6.11903012e-01, -4.22438174e-01,  1.40756294e-01,
        -4.53050315e-01, -1.86211610e+00, -1.33429557e-01,
         1.79787621e-01,  2.39840835e-01,  4.75781132e-03,
        -1.84829518e-01,  2.79557735e-01,  4.06438857e-02,
         2.41887346e-01,  3.44539046e-01,  7.75928274e-02,
         9.00632367e-02, -2.77664542e-01,  3.48523376e-04,
        -4.46886718e-01,  7.76514933e-02, -1.78217992e-01,
        -7.53433183e-02, -2.41429433e-01,  1.14266075e-01,
         1.42248258e-01, -4.03577358e-01,  1.49245158e-01,
        -4.54397559e-01, -6.81031048e-01, -2.77475774e-01,
        -2.31097609e-01],
       [-5.66661060e-02,  1.26859576e-01, -3.33693862e-01,
        -2.11923242e-01, -1.96401581e-01, -4.37575996e-01,
         1.73969287e-02, -7.42746890e-02,  6.54087588e-02,
        -1.38314411e-01,  1.92135453e-01,  2.53598504e-02,
         1.07212417e-01,  2.13282466e-01,  2.04470679e-01,
        -1.32037029e-01, -4.25729394e-01, -3.01072329e-01,
        -4.03298229e-01, -7.07204640e-02, -1.51111990e-01,
         1.66402292e-02, -2.89654613e-01, -8.11951980e-02,
        -3.39820445e-01, -1.38182566e-01, -4.48712528e-01,
        -5.94820142e-01,  2.28292197e-01,  9.55256671e-02,
         2.61373609e-01, -1.21711321e-01,  3.21021616e-01,
        -9.29702163e-01, -3.95826511e-02,  7.83548728e-02,
        -7.47054636e-01, -4.22281772e-01,  2.40244791e-01,
        -6.33440256e-01, -3.04139405e-01,  8.10427442e-02,
        -3.69171739e-01],
       [-5.06287932e-01, -2.62272269e-01, -3.02166045e-02,
        -3.64925057e-01, -5.01644909e-01, -2.26270586e-01,
        -4.61568683e-01, -1.93778262e-01, -4.24045742e-01,
        -6.61566854e-01, -3.83511409e-02, -2.34658435e-01,
         3.04123014e-01, -2.24342778e-01, -3.16458255e-01,
        -5.11543214e-01, -6.91223919e-01, -4.26061988e-01,
        -2.61843324e-01, -6.82907283e-01, -6.34981632e-01,
        -5.42566836e-01, -4.22332376e-01, -5.70878267e-01,
        -3.21432978e-01, -5.03693402e-01, -1.75421879e-01,
        -4.16422904e-01, -3.41623157e-01, -4.93357539e-01,
        -2.61273414e-01, -1.01932682e-01, -1.62216619e-01,
        -3.69692296e-01, -3.45855951e-02, -2.99505234e-01,
        -3.52028668e-01, -3.10391515e-01,  2.27513626e-01,
        -3.89244080e-01, -2.67675996e-01, -4.08231765e-01,
        -5.03886878e-01],
       [-2.23461241e-01,  9.68259275e-02, -1.71621412e-01,
         3.36559191e-02, -2.61386454e-01, -1.22299060e-01,
         1.41995654e-01, -3.53637785e-01, -2.04435021e-01,
        -2.39546999e-01, -3.30587119e-01, -3.69481295e-01,
         2.40081325e-01, -9.52391103e-02, -4.01804745e-01,
        -2.58021057e-01, -1.86370432e-01, -1.69002578e-01,
        -2.69917071e-01, -5.94780564e-01, -1.54600948e-01,
        -4.68376070e-01, -4.75156486e-01, -5.60670614e-01,
        -2.70240635e-01, -1.77453578e-01, -2.84181476e-01,
        -1.71644300e-01, -4.41772997e-01, -2.78189033e-01,
        -9.28114429e-02, -6.33617818e-01,  1.12564564e-01,
        -2.78005183e-01,  4.53232192e-02, -4.18134570e-01,
        -2.17000861e-02, -1.92596734e-01,  2.91830778e-01,
         2.48013183e-01,  7.33920485e-02, -1.59947857e-01,
        -2.57450286e-02],
       [-9.63536382e-01, -2.91122943e-01,  2.18380824e-01,
        -7.77533591e-01, -3.73950124e-01, -6.52671397e-01,
        -4.57457721e-01, -5.14982700e-01, -7.10470080e-01,
        -8.94776523e-01, -5.56486487e-01, -4.25569952e-01,
        -6.04985535e-01, -1.72566578e-01, -5.79537272e-01,
        -1.09141791e+00, -1.00281060e+00, -8.52025867e-01,
         5.06511033e-01, -7.11515903e-01, -1.04462698e-01,
        -8.82731199e-01, -6.25232756e-01, -4.68853325e-01,
        -6.39355302e-01, -6.77326858e-01, -4.46907550e-01,
        -2.16101989e-01, -1.97453305e-01, -1.46722853e-01,
        -7.98034132e-01, -6.14302695e-01, -8.49267364e-01,
        -7.23970473e-01, -3.13859701e-01, -1.45515338e-01,
        -2.70174861e-01, -7.00792253e-01, -5.91863334e-01,
        -9.40017700e-01, -4.10493940e-01, -1.05244780e+00,
        -5.13063014e-01],
       [-1.91476911e-01,  1.84715003e-01,  1.15947135e-01,
         5.19775338e-02, -8.46493915e-02, -1.97722077e-01,
        -9.49138477e-02, -8.81342664e-02,  5.70382029e-02,
        -2.83470213e-01,  1.16852723e-01, -5.64626813e-01,
         2.08632380e-01,  3.50952625e-01,  8.65693986e-02,
        -9.04565677e-02, -7.73791373e-01,  2.45730683e-01,
        -3.32507044e-01, -7.05756471e-02, -4.26060081e-01,
        -1.51112422e-01,  2.62676865e-01, -7.25102186e-01,
        -3.38655591e-01, -7.31578097e-02, -1.07886821e-01,
        -9.07780349e-01,  1.86138883e-01,  1.13335013e-01,
        -1.40481085e-01, -1.99795831e-02, -1.94699824e-01,
        -6.20544314e-01,  1.43579841e-01, -1.07747326e-02,
         3.63296807e-01, -3.20809484e-01, -2.57826239e-01,
         3.89181614e-01, -5.81624091e-01, -8.84423107e-02,
        -1.86100870e-01],
       [ 1.93749331e-02, -2.18556061e-01, -5.27254760e-01,
         1.91725135e-01, -2.48504281e-01, -4.49483454e-01,
        -2.17428774e-01, -2.14875445e-01,  1.29886076e-01,
         3.09598923e-01,  8.63103718e-02,  8.56315047e-02,
        -3.39720517e-01, -9.23496112e-02, -6.66065991e-01,
         1.39694259e-01,  2.22728506e-01,  1.26704320e-01,
         2.14610070e-01, -2.02254742e-01,  9.95071381e-02,
        -5.13982177e-01,  9.24267918e-02, -1.32759124e-01,
         1.18563384e-01, -2.37215653e-01, -2.63472944e-01,
         1.54569102e-02,  3.47590029e-01,  4.17231679e-01,
         3.58032256e-01,  5.22542074e-02,  7.34188706e-02,
        -1.81616023e-01,  4.45441931e-01,  1.88150063e-01,
        -8.37090164e-02, -5.25614858e-01,  3.38347465e-01,
        -7.35031664e-01, -2.09075779e-01,  6.62864372e-02,
        -3.17684382e-01],
       [-1.97824255e-01,  5.36063872e-02, -3.08632910e-01,
         1.55038685e-01, -1.27903864e-01,  3.40324715e-02,
         7.86759630e-02, -2.97745883e-01, -4.11445647e-01,
        -2.51744181e-01,  6.63641617e-02,  8.24297145e-02,
        -3.74844760e-01, -1.38776246e-02, -2.47711748e-01,
         1.42512843e-01, -6.98827803e-01, -3.61499578e-01,
         2.61134766e-02, -2.00974405e-01, -3.49020571e-01,
        -2.68483877e-01, -6.16407506e-02, -2.58733839e-01,
        -4.85279232e-01, -1.30595192e-01,  4.20611054e-02,
         4.61721048e-03,  1.16955668e-01, -2.58676320e-01,
        -3.87614369e-01, -1.07293166e-01, -2.16900870e-01,
        -2.64067322e-01, -2.55696714e-01,  2.05843717e-01,
        -3.95288318e-01, -3.88913006e-01, -3.09204757e-01,
        -1.06703269e+00, -3.32498521e-01, -5.90162218e-01,
        -4.99299526e-01],
       [ 1.16629347e-01, -1.35927171e-01, -9.00190473e-02,
         1.61969393e-01,  8.10275450e-02, -4.01320517e-01,
         2.78538130e-02, -4.48037326e-01,  3.58008370e-02,
         1.23631336e-01, -8.32978860e-02, -2.44624168e-01,
         7.44413882e-02, -3.94234836e-01, -1.43628987e-03,
        -3.41141433e-01, -3.42556477e-01,  4.41109329e-01,
        -9.67239738e-01,  3.57777253e-02,  5.34108520e-01,
        -5.06176949e-01,  8.17973390e-02, -2.77126074e-01,
        -7.43100762e-01, -3.39456350e-01,  3.01333994e-01,
         8.56932178e-02, -3.35259467e-01, -6.69335246e-01,
        -3.31959248e-01, -3.98256958e-01, -5.20169027e-02,
         2.33106434e-01,  1.33172780e-01,  1.14894941e-01,
        -1.73943207e-01,  3.33434135e-01,  3.45720313e-02,
         3.00460123e-02,  1.53877914e-01,  3.46419543e-01,
         5.24732396e-02],
       [-1.28023100e+00, -4.54097420e-01,  4.73012447e-01,
         8.12765434e-02, -7.06333891e-02,  2.36785427e-01,
        -1.09161675e+00, -5.64710736e-01, -9.80140343e-02,
         1.51329353e-01, -6.12516701e-02, -2.40323320e-01,
        -1.69272065e-01,  4.41699803e-01,  3.50070208e-01,
         1.80017278e-01, -7.50573218e-01,  6.60499781e-02,
        -1.21909246e-01,  7.15455562e-02,  8.19885060e-02,
         1.76255614e-01,  5.60848461e-03,  7.46691674e-02,
        -2.49349251e-01,  2.08774745e-01, -5.43338001e-01,
        -7.56746411e-01, -9.65161249e-03,  1.59104392e-01,
         5.09834923e-02, -5.37848398e-02, -4.61200267e-01,
        -3.05560678e-01,  2.06301197e-01,  4.13755447e-01,
        -8.02153163e-03,  5.92036545e-02,  1.29923448e-01,
        -4.45325434e-01, -7.30410099e-01, -5.55280745e-01,
        -7.60217905e-01],
       [-2.68919244e-02, -1.38322309e-01, -9.52087194e-02,
         1.30120188e-01,  7.52196386e-02, -1.56669274e-01,
         1.97307780e-01, -1.43287834e-02,  1.82099342e-01,
        -9.51223746e-02, -1.41515702e-01,  2.38244496e-02,
         2.06632510e-01, -5.91703318e-02, -8.45742375e-02,
        -2.05022886e-01,  2.25278243e-01, -2.24671260e-01,
        -1.88250616e-01,  1.87155321e-01, -1.19788110e-01,
         1.87076643e-01, -1.82943642e-01, -7.88278729e-02,
         1.24503143e-01, -1.52385449e-02, -1.45317897e-01,
        -2.30018497e-01, -2.03364253e-01, -1.31517962e-01,
         1.44340813e-01, -1.85468495e-02,  1.21587180e-01,
         9.89284292e-02, -1.00475796e-01, -1.72346551e-02,
        -2.31536433e-01, -2.23148480e-01,  1.11499399e-01,
         1.99394062e-01,  3.49935368e-02, -2.05928296e-01,
         1.97396338e-01],
       [ 1.52718031e-03,  1.68498337e-01, -2.81633526e-01,
         6.78193271e-02, -2.32658178e-01, -2.79605985e-01,
        -1.12883948e-01, -1.18855469e-01, -2.10127950e-01,
         2.17653289e-02,  1.34808794e-01,  3.06564849e-02,
        -2.35024393e-01, -1.26923978e-01,  8.11449960e-02,
        -2.07350329e-01, -1.36315465e-01, -2.79337645e-01,
        -1.32309392e-01,  4.61186506e-02,  1.46703616e-01,
        -1.45421281e-01,  7.64287682e-03, -1.52952597e-01,
         1.61348864e-01, -1.40690384e-02, -9.41214561e-02,
        -1.01670913e-01, -8.43440518e-02, -1.32120579e-01,
        -4.57803831e-02,  1.78434819e-01, -1.06604792e-01,
         3.16230170e-02,  1.62014633e-01, -2.44860560e-01,
         1.63812429e-01, -1.20546697e-02, -2.56762624e-01,
         1.13394633e-01,  1.49040902e-02, -2.05141976e-01,
         1.84875891e-01],
       [-2.62712121e-01, -4.10574585e-01, -4.38933134e-01,
         2.11377203e-01, -2.39266194e-02,  7.39525035e-02,
        -9.57515895e-01, -6.56736940e-02, -1.87652335e-01,
         3.10022801e-01,  1.38081610e-01, -4.55532014e-01,
        -3.37575138e-01, -2.59575397e-01, -5.97745121e-01,
        -3.94803643e-01, -1.35218874e-01, -9.71410647e-02,
         4.45169993e-02, -3.87362242e-01, -6.63929164e-01,
        -2.12911740e-01, -1.10877417e-01, -3.08527619e-01,
        -5.62788129e-01, -1.68752462e-01, -2.57436424e-01,
        -5.02555072e-01, -2.67374337e-01, -8.53521749e-02,
        -2.73962677e-01,  3.42492998e-01,  2.48092692e-02,
        -6.14173532e-01, -4.19357985e-01, -6.46416992e-02,
        -5.27225614e-01, -7.19178081e-01, -5.80290973e-01,
        -8.59831333e-01, -9.88811433e-01, -7.07433701e-01,
        -5.75948834e-01],
       [-9.30796564e-02, -3.28583479e-01, -2.74518490e-01,
        -2.82507449e-01,  5.90565847e-03, -4.62201923e-01,
        -1.22779858e+00, -4.01490510e-01, -2.81608224e-01,
         3.11116636e-01,  8.19550678e-02,  1.09418131e-01,
        -5.77271134e-02,  5.76779209e-02,  4.93816078e-01,
         5.93279526e-02,  3.52739915e-02,  3.22339892e-01,
         2.23503128e-01,  2.71332353e-01, -7.61105895e-01,
         3.56752247e-01,  9.69614685e-02, -2.56246209e-01,
         1.72335267e-01, -1.38325661e-01,  1.98077798e-01,
        -1.63340479e-01, -4.38038617e-01,  4.63099591e-02,
        -3.17950726e-01, -9.11847204e-02, -3.01234812e-01,
        -5.41861579e-02,  2.71066159e-01, -8.61219689e-02,
        -5.99181414e-01,  3.95935297e-01, -1.93544596e-01,
         1.68088153e-01, -1.94311850e-02, -8.84776950e-01,
        -4.36654896e-01],
       [-1.12940641e-02, -2.79513355e-02, -3.51176262e-02,
        -1.95234269e-01, -2.21002683e-01, -1.54517770e-01,
         2.35518254e-02, -1.80082545e-01, -2.56640792e-01,
        -2.38809541e-01, -1.11911021e-01,  2.65709031e-02,
        -1.36690840e-01,  6.45358562e-02, -1.35950774e-01,
         1.55744508e-01, -3.57929915e-02,  9.46036726e-02,
         3.05821672e-02, -1.73875373e-02,  1.48068860e-01,
        -2.42532954e-01,  3.85956243e-02,  5.70451245e-02,
        -2.11287010e-02,  1.06049404e-01,  1.33208111e-01,
         1.77493647e-01, -5.40214889e-02, -1.89293668e-01,
         1.50144577e-01,  1.41505199e-03, -1.13366164e-01,
        -8.92453939e-02,  4.11246642e-02, -1.85298890e-01,
         1.69730008e-01, -1.64576530e-01,  1.89622283e-01,
        -8.38470086e-02, -1.99716296e-02,  2.65689921e-02,
         9.83479917e-02],
       [-1.35413897e+00, -3.84222031e-01,  6.50791898e-02,
         4.32003766e-01, -6.72804713e-02,  2.02295274e-01,
         1.46840632e-01, -2.42833301e-01, -3.55384141e-01,
        -9.26980227e-02, -1.10105649e-01, -1.40489955e-02,
         2.03444198e-01, -1.47081286e-01,  3.98229696e-02,
         6.95509687e-02,  2.88233221e-01, -2.23993406e-01,
         3.16969067e-01, -8.83245096e-02, -2.37372264e-01,
         3.98166850e-02, -7.16315448e-01, -3.73066217e-01,
        -7.28948116e-01, -1.33726701e-01,  1.83400705e-01,
        -1.28229126e-01, -4.61817026e-01, -7.31681347e-01,
        -2.14957535e-01,  3.63188863e-01, -1.59380585e-02,
         4.48989391e-01, -1.42835736e-01,  4.44231322e-03,
        -3.03240329e-01, -2.54782885e-01, -1.94327563e-01,
         3.82033974e-01, -5.73808491e-01, -2.28453562e-01,
        -6.30391955e-01],
       [-6.46110952e-01, -6.55345440e-01, -4.36961025e-01,
        -2.29922205e-01, -5.66302299e-01, -6.30637348e-01,
        -1.37550667e-01, -6.35258615e-01, -5.99347115e-01,
         1.63872540e-01, -5.49115650e-02,  2.08953395e-01,
         5.17685354e-01,  1.82249114e-01, -3.33168507e-01,
         1.68877229e-01, -2.73579299e-01,  1.26106404e-02,
        -4.79676574e-02, -4.88103718e-01, -3.76993455e-02,
        -5.67189455e-01, -2.85933286e-01,  2.20569879e-01,
        -9.14050043e-02, -3.90831567e-03,  2.34064758e-01,
         1.25964418e-01,  1.65204719e-01, -2.78814286e-01,
        -1.10141344e-01, -9.59515750e-01,  4.03695852e-01,
         3.76692787e-02,  3.05733651e-01,  1.15907513e-01,
         5.13838828e-02, -9.66445450e-03,  3.13805401e-01,
        -2.54214287e-01, -9.08138230e-03,  2.69460380e-01,
         2.62368977e-01],
       [-1.53088540e-01, -1.87889889e-01, -8.24315965e-01,
        -4.24219221e-01, -7.32908621e-02,  2.09361594e-02,
        -4.04093713e-02, -2.22908109e-01, -3.13473642e-01,
        -5.34104705e-02,  1.84968963e-01,  8.58246461e-02,
         2.12439857e-02, -6.03704870e-01, -3.41296375e-01,
        -5.56887150e-01, -1.41980983e-02,  9.01154056e-02,
        -4.93237264e-02,  3.95072669e-01,  9.71020907e-02,
         3.32508177e-01,  5.12364507e-02,  2.94468045e-01,
        -1.66564435e-02, -4.05341774e-01,  3.53825480e-01,
        -9.16959569e-02, -5.26348967e-03,  2.14723453e-01,
         2.35492930e-01, -8.18417892e-02, -1.54052466e-01,
        -1.27953559e-01, -6.33697882e-02, -5.84688962e-01,
         1.41104057e-01, -4.10934955e-01, -3.92455637e-01,
        -9.37289238e-01, -1.22661784e-01, -2.11188346e-01,
        -7.96715543e-02],
       [-2.62677729e-01, -9.77400225e-03, -6.10460758e-01,
        -7.99936578e-02, -2.09154218e-01, -9.23525691e-02,
        -1.12176277e-02, -3.55488628e-01, -4.50460672e-01,
        -2.50156850e-01, -4.40856606e-01, -3.71786088e-01,
         1.54732898e-01, -8.05138648e-02, -1.44529760e-01,
        -7.79509306e-01, -1.20798969e+00, -5.05447574e-02,
         2.34703317e-01, -6.92639709e-01,  8.20626467e-02,
        -1.85569897e-01, -8.29309583e-01, -7.27127641e-02,
        -4.50604856e-01, -1.94632128e-01,  3.60338986e-02,
        -6.37024462e-01, -5.23010731e-01,  5.83826266e-02,
        -6.37408674e-01, -2.23504439e-01, -2.00849026e-01,
        -6.87345147e-01, -3.97311687e-01, -6.97810948e-01,
        -4.79825467e-01, -6.85227275e-01, -4.25697379e-02,
        -4.73925352e-01, -4.06862527e-01, -1.16944410e-01,
        -3.15786690e-01],
       [-9.93542075e-01, -5.83250940e-01, -2.05174074e-01,
         2.98122436e-01, -5.31193137e-01,  6.23102412e-02,
         5.77178933e-02,  1.31424993e-01,  2.09948897e-01,
         5.10157883e-01,  4.84120399e-02, -3.60353917e-01,
        -3.42327565e-01, -3.57201010e-01, -7.18450129e-01,
        -1.22878663e-01,  3.82221729e-01, -2.67944783e-01,
        -5.92687845e-01,  4.60894495e-01,  2.76870519e-01,
        -2.48922870e-01, -9.61236358e-02,  4.21156347e-01,
        -2.59028196e-01,  8.98207203e-02, -5.65502763e-01,
        -7.22713649e-01,  5.15987119e-03,  2.09608987e-01,
        -5.68560101e-02, -1.07499011e-01, -4.47465837e-01,
        -1.30511776e-01,  5.52148260e-02,  2.38962129e-01,
         2.41904214e-01,  1.22147026e-02,  2.97541227e-02,
         2.12033406e-01,  3.19351584e-01,  2.41114974e-01,
         7.86551982e-02],
       [-5.36206722e-01, -2.93692857e-01,  1.93560362e-01,
        -3.11291307e-01,  8.24617036e-03, -4.08546254e-02,
        -8.91567409e-01, -3.60745221e-01,  2.20069475e-02,
        -1.71130165e-01, -2.14525297e-01,  2.94882059e-02,
        -2.17341423e-01,  5.30107796e-01, -1.78390279e-01,
         4.69111428e-02, -7.19953656e-01, -5.07164180e-01,
        -4.60234880e-01, -4.28333491e-01, -1.83724940e-01,
        -4.96644944e-01, -2.63826579e-01, -3.01157057e-01,
        -2.67177820e-01, -1.35911793e-01,  2.09542409e-01,
        -4.53338861e-01, -4.86135632e-01, -2.02502653e-01,
        -4.25860107e-01, -6.23176634e-01, -7.63569653e-01,
        -4.04729813e-01, -1.06698811e+00, -1.16718672e-02,
        -3.09058845e-01, -6.03045821e-01, -3.20218742e-01,
        -7.06596315e-01, -4.93074879e-02, -9.90949571e-01,
        -8.18743467e-01],
       [ 2.20523342e-01, -2.61384755e-01,  2.56804019e-01,
        -4.35148031e-02, -3.35537076e-01,  1.32249057e-01,
        -5.53895473e-01, -2.33976051e-01, -2.57193118e-01,
        -2.81930506e-01, -1.02888145e-01, -1.03072345e-01,
         5.79336248e-02, -3.58222090e-02, -9.83464271e-02,
        -1.95255369e-01, -1.07788451e-01,  7.69483298e-02,
         1.19785167e-01, -4.36266623e-02, -6.37148201e-01,
        -3.69128168e-01, -7.91513741e-01, -2.23830983e-01,
        -2.67905653e-01, -4.38073903e-01, -1.37736022e-01,
        -4.34790164e-01, -1.89753383e-01, -2.02931594e-02,
        -6.75420240e-02, -3.34919900e-01,  1.92895800e-01,
        -3.07677984e-01, -3.37365150e-01, -7.83427954e-02,
         1.99250847e-01, -4.67001170e-01,  4.28525470e-02,
        -6.71362877e-01,  7.13543221e-03, -1.84969962e-01,
        -4.47256535e-01],
       [-1.92154616e-01,  2.86210150e-01,  2.77309090e-01,
        -2.06752270e-01, -5.89664280e-01, -1.66154832e-01,
        -1.78878844e-01,  4.39970285e-01, -8.47571492e-02,
        -2.08130136e-01,  2.57429063e-01,  2.00252980e-01,
         5.05161941e-01, -4.51204479e-01,  2.18936190e-01,
         2.09256425e-01, -3.54273528e-01,  1.83584988e-01,
        -1.39641345e-01, -2.97583103e-01, -3.94736454e-02,
         4.74040926e-01,  3.62195671e-02,  1.95806056e-01,
        -2.44759023e-01,  2.86030620e-01, -7.01490343e-02,
        -1.72428802e-01, -4.84637395e-02,  2.85175741e-01,
         2.98468824e-02,  1.94858178e-01, -2.28537247e-01,
        -7.40362227e-01, -3.69314432e-01, -2.67320216e-01,
        -6.02843821e-01, -7.40671933e-01, -7.68382549e-02,
        -6.26148283e-01, -8.99545699e-02, -4.20080334e-01,
         6.81947991e-02],
       [-1.69517070e-01, -2.55308181e-01,  1.77148338e-02,
        -1.90196395e-01, -2.45650664e-01, -2.36923769e-01,
        -2.43089065e-01, -2.38446653e-01,  1.05265990e-01,
        -1.29425779e-01, -2.24323459e-02, -2.77390718e-01,
        -9.93613601e-02, -1.84090227e-01, -4.09535229e-01,
        -7.39567876e-02, -1.66127354e-01, -1.27132028e-01,
        -3.07882071e-01, -2.08664328e-01, -3.94347101e-01,
        -4.19207178e-02, -1.36459514e-01, -4.90948260e-01,
        -1.19486108e-01,  6.89825937e-02, -2.33630180e-01,
        -3.75594109e-01, -3.24474961e-01, -3.61595929e-01,
         2.51474092e-03, -2.66421616e-01,  2.60774761e-01,
         3.23568173e-02,  2.03323346e-02, -1.23431958e-01,
         3.95121127e-01, -4.13535982e-01,  6.70769205e-03,
        -1.74511001e-01,  1.07196867e-01, -3.71897370e-01,
        -2.58094847e-01],
       [-2.52370894e-01, -2.01011583e-01, -1.46574199e-01,
        -4.43239883e-02,  1.86433733e-01,  8.36007074e-02,
        -2.33726904e-01,  1.86134622e-01,  4.50108089e-02,
        -1.70702800e-01,  5.10143459e-01, -6.06622808e-02,
        -2.72088438e-01, -5.37957251e-01, -2.52953410e-01,
         9.59315822e-02,  5.70849538e-01,  9.86240208e-02,
         2.14686722e-01, -3.71477902e-01,  3.89046311e-01,
        -7.96232462e-01, -3.02776814e-01,  1.65801011e-02,
        -5.51735818e-01, -2.49151457e-02, -4.09360677e-01,
        -9.80988517e-02, -3.75500917e-02, -3.61468583e-01,
        -2.54184276e-01, -6.10437870e-01, -1.94773208e-02,
         1.84065968e-01, -2.94123311e-02,  9.41526592e-02,
        -8.27650279e-02,  1.79383278e-01, -3.73886496e-01,
         5.32628372e-02,  3.18641722e-01, -8.55429098e-02,
         7.33790128e-03],
       [-1.86515197e-01,  1.71595123e-02, -1.29189536e-01,
         1.79839656e-01,  1.19638912e-01,  3.85619397e-03,
        -1.90652698e-01, -1.22929804e-01, -1.53425122e-02,
        -1.71373606e-01,  2.42030062e-02,  8.10074955e-02,
         1.91704690e-01, -8.51531923e-02, -1.75027326e-01,
         8.96441191e-02, -1.48254707e-01,  8.18490833e-02,
         1.77336916e-01, -5.00068367e-02,  5.37378751e-02,
         1.64302990e-01, -1.83997631e-01, -1.78000376e-01,
        -4.42887768e-02, -1.01884738e-01, -9.86880660e-02,
         1.36432379e-01,  1.33685693e-01,  5.72463647e-02,
         2.49466416e-03, -7.04168826e-02, -1.80287927e-01,
         1.28919348e-01, -1.28327817e-01, -1.24390557e-01,
        -2.36090228e-01, -4.42104414e-02,  1.99323207e-01,
         1.93827525e-01,  1.33186206e-01,  1.61267102e-01,
         8.68099742e-03],
       [-2.04745367e-01, -1.31624311e-01,  3.34988981e-02,
        -7.26038367e-02,  9.81211141e-02, -1.83925152e-01,
         4.45788354e-03,  1.57892644e-01,  7.20174387e-02,
         6.47312403e-02, -1.41696811e-01, -2.28040487e-01,
        -1.60166338e-01, -1.99079797e-01, -1.23197913e-01,
         1.63330376e-01,  3.34816277e-02, -1.12430178e-01,
        -1.50658861e-01, -4.95162420e-02,  7.63016939e-02,
        -2.40714014e-01,  3.60489339e-02, -3.52370963e-02,
        -1.28039539e-01, -1.20342098e-01, -4.14659269e-02,
        -3.62634435e-02, -3.00278421e-03, -1.46262785e-02,
        -1.39969215e-01,  1.15792625e-01,  5.08727469e-02,
         2.22821027e-01, -3.17586251e-02, -2.43780255e-01,
         1.05263323e-01,  1.01788029e-01,  6.27398714e-02,
        -1.74496680e-01,  1.81037605e-01,  5.60216978e-02,
        -3.15332487e-02],
       [ 3.29413146e-01, -3.68472710e-02,  5.41395023e-02,
         1.92221269e-01, -1.05661578e-01,  1.43326581e-01,
         9.40315574e-02,  1.76159635e-01,  5.90565145e-01,
        -4.29090679e-01, -1.23532638e-02,  7.34503940e-02,
        -6.08524621e-01,  3.17940824e-02,  4.18196559e-01,
        -2.61145115e-01, -3.84455502e-01, -1.45993067e-03,
        -1.69109166e-01,  1.29617855e-01, -2.72118390e-01,
        -1.15004502e-01, -5.59145153e-01, -2.76258260e-01,
         6.28577638e-03,  2.86412120e-01,  1.56828478e-01,
        -2.66131252e-01,  1.61981449e-01, -6.54253885e-02,
         3.11864972e-01, -2.32299015e-01,  6.56871824e-03,
        -6.14508510e-01, -5.01733348e-02, -8.08692753e-01,
        -5.60824752e-01, -1.33822191e+00, -1.97995543e-01,
        -6.12941265e-01, -4.20768768e-01, -5.60783386e-01,
        -4.81889158e-01],
       [-5.16289473e-01, -2.21889392e-02, -1.13578156e-01,
        -6.70575127e-02, -5.98347187e-01, -2.06830919e-01,
        -2.92339958e-02, -3.97568643e-01, -2.29058295e-01,
        -1.50745824e-01, -2.93540925e-01,  2.16235131e-01,
        -2.13295192e-01,  3.66912007e-01, -4.54262316e-01,
        -6.27424538e-01, -6.37137294e-01, -2.99430400e-01,
         3.56854796e-01,  1.67420104e-01,  2.28191853e-01,
        -1.78101033e-01,  2.73560792e-01, -2.66598165e-01,
        -1.27388574e-02,  6.28560901e-01,  2.31274605e-01,
         1.84471577e-01, -2.59107530e-01, -5.62014759e-01,
         1.63322181e-01, -1.92960024e-01,  1.07608279e-02,
        -5.63839138e-01, -2.14267671e-01, -1.49994239e-01,
         2.65600294e-01, -1.42325955e-02, -8.84623602e-02,
         2.10224584e-01,  3.30614559e-02,  1.63493395e-01,
        -4.37225908e-01],
       [-3.03960592e-01, -3.41402404e-02, -2.71768749e-01,
        -1.01157054e-01,  1.26325283e-02,  2.26273928e-02,
        -2.57636338e-01,  1.68618336e-01,  3.02409530e-01,
        -1.83483601e-01, -2.12532848e-01,  1.72405064e-01,
        -9.21715051e-02, -2.33495891e-01,  7.82748777e-03,
        -3.94864857e-01,  9.32240263e-02,  2.77341902e-01,
        -1.72181651e-01, -2.28394613e-01, -3.86544615e-01,
         1.05842613e-01, -2.36768618e-01, -2.62589514e-01,
        -1.30278796e-01, -3.14605564e-01, -1.34477109e-01,
         6.98479116e-02, -2.13698909e-01, -2.57611513e-01,
        -2.97912687e-01, -2.83111095e-01,  5.85246012e-02,
        -1.88184589e-01, -1.79451779e-01, -3.48398030e-01,
        -4.88315374e-01, -4.21952963e-01,  5.13796620e-02,
        -1.88564926e-01, -1.70998409e-01, -1.38153628e-01,
         1.11327991e-01],
       [ 6.55148476e-02, -6.12444758e-01, -2.77675539e-01,
         2.37106666e-01, -2.45952100e-01, -4.92271222e-02,
        -9.30975199e-01, -4.50344115e-01, -1.17282860e-01,
         1.41617581e-01, -5.69258817e-02,  1.41560867e-01,
        -2.48333290e-01, -6.86713308e-02,  6.07205518e-02,
        -4.33557481e-01, -1.51644617e-01,  5.41636109e-01,
        -2.49292240e-01, -1.60132930e-01, -4.31891084e-01,
        -4.53740686e-01, -3.11087579e-01, -1.45287260e-01,
        -8.43427718e-01,  1.33365691e-01, -6.12926960e-01,
        -7.36199975e-01, -3.93000335e-01, -2.42846176e-01,
        -8.11232030e-02, -1.15965404e-01, -3.12976122e-01,
        -6.87079787e-01, -6.84812129e-01, -2.94758409e-01,
        -4.96306643e-02, -3.56517285e-01,  7.04903975e-02,
        -6.47897363e-01, -4.77899134e-01, -1.31578287e-02,
        -1.66602314e-01],
       [-2.40579829e-01, -2.72248417e-01, -2.84848988e-01,
         1.09103015e-02, -5.66751540e-01, -2.41172519e-02,
        -1.36437520e-01, -5.04508838e-02, -6.88380063e-01,
        -3.22494090e-01, -1.96715593e-01,  5.01851261e-01,
         8.19423124e-02, -3.34834009e-01, -7.92091489e-01,
        -9.07044888e-01,  1.22730955e-01, -1.90933675e-01,
        -4.78112660e-02,  1.75438985e-01,  1.36060461e-01,
         8.02986398e-02, -5.42121708e-01,  1.50391564e-01,
         4.09604251e-01, -9.15659890e-02, -2.00512841e-01,
         3.99920583e-01,  3.49926651e-01, -1.43199861e-01,
         2.65995353e-01,  2.06352159e-01, -3.92873138e-01,
        -3.43120784e-01, -8.40029955e-01, -1.63557772e-02,
        -4.87241685e-01, -2.24255875e-01, -4.61876124e-01,
         7.67945200e-02, -7.26435557e-02,  2.76333038e-02,
         5.90152368e-02],
       [-6.13484010e-02,  1.17714718e-01, -3.93321604e-01,
        -5.05024604e-02,  2.32376859e-01,  2.53421247e-01,
         1.63479567e-01, -3.12216282e-01, -7.12689683e-02,
        -9.83270183e-02, -4.45108712e-01,  3.87636684e-02,
        -4.58065242e-01,  7.04473769e-03,  3.42401639e-02,
        -1.14120394e-01, -4.56294328e-01, -6.92155212e-02,
         1.10432856e-01, -2.61943400e-01, -3.67180333e-02,
        -9.30468068e-02,  3.08675230e-01, -4.57893997e-01,
        -2.72494316e-01, -2.56654769e-01, -3.17921102e-01,
         2.17948288e-01,  8.84564370e-02, -5.25266707e-01,
         2.22892299e-01, -8.58077332e-02, -1.63215220e-01,
        -4.00620311e-01, -4.10264820e-01, -4.48209822e-01,
        -6.11911833e-01, -1.19985662e-01, -9.88515839e-02,
        -8.69417563e-02, -5.29325977e-02,  3.65698747e-02,
         8.60463604e-02],
       [-5.50419807e-01, -2.05487281e-01, -8.57335404e-02,
         2.33942047e-01, -1.90381795e-01,  2.67785221e-01,
        -3.20063531e-01,  2.90289968e-01,  1.01570331e-01,
         3.10574710e-01,  3.27416182e-01, -4.80245113e-01,
         2.44919568e-01,  9.88193788e-03,  4.75815058e-01,
         5.03495932e-01,  2.63595462e-01, -1.23615880e-02,
        -5.78606054e-02, -5.72611809e-01, -1.01047009e-01,
        -6.51622236e-01,  3.53219569e-01, -3.10349673e-01,
         1.04000121e-01, -2.26202965e-01,  3.42907906e-01,
        -1.45696908e-01,  3.74058247e-01,  1.92426275e-02,
        -1.65994301e-01, -1.04700506e+00,  1.41218333e-02,
        -1.65613964e-01, -1.67184114e-01,  2.29356751e-01,
         9.78005752e-02, -5.67157447e-01, -3.26899737e-01,
        -4.46784943e-01, -6.51722074e-01,  2.27359056e-01,
         4.29756343e-01],
       [-7.50734136e-02,  3.06916296e-01,  2.28614599e-01,
        -9.87717584e-02,  3.29072714e-01,  4.21898127e-01,
        -1.88891105e-02, -1.86004832e-01,  1.82334036e-01,
         1.77986696e-01,  6.27016068e-01, -1.81990862e-02,
         1.09597325e-01, -1.77785426e-01,  1.11016415e-01,
         1.45322055e-01,  9.19177979e-02, -5.29470265e-01,
        -1.87228605e-01,  7.98415691e-02,  3.68906148e-02,
         1.20286383e-01, -1.76790252e-01, -2.69822836e-01,
         4.71806116e-02,  2.53815912e-02, -4.84384060e-01,
        -2.23197892e-01, -3.11455280e-01, -5.17240644e-01,
        -2.87283331e-01,  2.01465577e-01, -3.91516924e-01,
        -2.82396495e-01, -3.69034886e-01, -5.88866413e-01,
         3.28324378e-01, -2.37561449e-01,  3.17213476e-01,
        -4.53548074e-01,  6.88936329e-03,  2.12680828e-02,
         1.51531130e-01],
       [-1.27197668e-01, -2.28550564e-03, -1.70702472e-01,
         9.87975895e-02,  1.40802547e-01, -6.84454069e-02,
        -5.39372452e-02,  2.01380283e-01,  1.00441165e-01,
        -2.07265750e-01, -2.22756833e-01,  1.39005840e-01,
        -4.98136990e-02, -1.36400387e-01, -7.10637271e-02,
         4.40540910e-02,  7.65124634e-02, -1.43829420e-01,
        -2.16397196e-01, -1.08095884e-01, -9.55069214e-02,
         1.84940159e-01, -6.19834177e-02,  1.11684166e-01,
         1.87019542e-01, -2.46568874e-01, -5.83840441e-03,
         1.92403004e-01,  4.38640006e-02, -7.42323101e-02,
        -2.22702041e-01, -1.54095784e-01,  1.68874726e-01,
        -1.07561812e-01, -1.07488520e-01,  5.25846109e-02,
        -1.61086589e-01, -8.50823969e-02, -1.96582586e-01,
        -2.31810972e-01, -5.34706600e-02,  4.18275371e-02,
        -1.16834372e-01],
       [ 6.88921940e-03, -2.03525111e-01, -3.24548930e-01,
        -2.87172616e-01,  4.93278466e-02,  2.96494693e-01,
        -1.16615392e-01, -3.79491329e-01, -2.54633874e-01,
         1.25524430e-02,  1.88691348e-01, -2.06675544e-01,
        -2.70146191e-01, -1.51929900e-01, -2.27063254e-01,
        -3.07379276e-01, -6.33612946e-02, -2.25578219e-01,
         1.37391523e-01, -2.62510747e-01, -1.86188355e-01,
         1.95079800e-02,  6.66934205e-03, -9.84031633e-02,
        -3.25264931e-01, -2.75686216e-02,  7.51661286e-02,
         4.57292236e-02,  7.54946992e-02, -2.20175475e-01,
         3.21726561e-01,  3.43296193e-02, -2.14468658e-01,
        -5.63660227e-02,  3.09140738e-02, -2.59232432e-01,
        -1.95870802e-01, -3.44037682e-01, -3.38429213e-02,
         8.94554704e-02, -3.77318859e-01, -2.22545594e-01,
        -2.56425470e-01]], dtype=float32)
 array([-0.7015496 , -0.19099085,  0.23535542,  0.26620874,  0.61630106,
        0.07375957,  0.25447664,  0.11241125,  0.24587978,  0.17414868,
       -0.0722549 , -0.3514663 , -0.02427191,  0.2707248 , -0.23876141,
       -0.16607036, -0.41281974, -0.37386805,  0.795826  , -0.09183946,
        0.26129675, -0.16890979, -0.12226483, -0.21312277, -0.07244485,
       -0.24176474, -0.29838565, -0.12231627, -0.10786093, -0.5388251 ,
        0.10671729,  0.44438684,  0.24628383, -0.05444041, -0.27453715,
       -0.26280457, -0.01166748, -0.6224933 , -0.04978522, -0.31594244,
       -0.4801519 , -0.5099658 , -0.16409658], dtype=float32)]
